tree
version=v4
num_class=1
num_tree_per_iteration=1
label_index=0
max_feature_idx=14
objective=binary sigmoid:1
feature_names=entry_adx entry_cci entry_atr dema_distance_atr st_distance_atr hour_utc day_of_week atr_pct st_gap_ratio mom_intensity is_asia_session regime_state volatility_zscore efficiency_ratio vol_convergence
feature_infos=[25.002743727328898:89.39819552391603] [-333.33333288119962:333.33333276727922] [0.86360516354053518:28.659279575540744] [0.0023622216749788522:9.5063501512314836] [0.41114406346742272:6.7017073741281656] [0:23] [0:6] [0.025552716618058857:0.97593387005797583] [0.41114406338394094:6.7017073732756653] [25.046813047701914:235.93615707100378] [0:1] [0:2] [-3.8424031592464876:8.0560292479209092] [0:0.8715596330115456] [0.14921570640960882:2.4322374767436616]
tree_sizes=1674 1714 1709 1722 1714 1714 1722 1718 1713 1704 1710 1718 1698 1718 1715 1720 1724 1725 1715 1712

Tree=0
num_leaves=15
num_cat=0
split_feature=1 5 1 0 0 2 4 0 4 5 3 5 13 1
split_gain=24.2168 12.3256 8.99511 8.01935 7.43798 7.90582 6.58148 5.85579 7.30199 8.90272 5.77174 7.46384 4.5823 10.3991
threshold=124.69941760612824 17.500000000000004 130.64371351048393 30.16595206673944 46.078767197099658 6.9994080147972975 3.3908683971212201 25.97103829334938 3.1952592883417879 4.5000000000000009 0.94286213771566585 9.5000000000000018 0.12429722680768442 141.42630635386635
decision_type=2 2 2 2 2 2 2 2 2 2 2 2 2 2
left_child=1 4 -2 -3 5 7 -7 10 9 -9 -1 -12 13 -4
right_child=2 3 12 -5 -6 6 -8 8 -10 -11 11 -13 -14 -15
leaf_value=-0.61913087987291371 -0.60257924935556073 -0.63157996949280304 -0.64645420644124219 -0.60631671431109202 -0.61471711173495291 -0.63919346231818985 -0.60588957545903133 -0.62221025299242116 -0.65072416759726448 -0.6443524120898324 -0.64933034608001372 -0.62509543141069845 -0.62960074847923919 -0.61403807048295889
leaf_weight=7.2500410079956081 7.2500410079956046 17.671974956989292 4.7578394114971188 7.0234772264957419 4.5312756299972525 4.984403192996977 4.5312756299972534 9.7422426044940931 43.047118484973907 28.547036468982697 12.914135545492174 8.382859915494917 48.711213022470474 23.562633275985718
leaf_count=32 32 78 21 31 20 22 20 43 190 126 57 37 215 104
internal_value=-0.632441 -0.637297 -0.623877 -0.624395 -0.639868 -0.640823 -0.623334 -0.642337 -0.645073 -0.638719 -0.634544 -0.639791 -0.625881 -0.619484
internal_weight=232.908 148.626 84.2817 24.6955 123.93 119.399 9.51568 109.883 81.3364 38.2893 28.547 21.297 77.0317 28.3205
internal_count=1028 656 372 109 547 527 42 485 359 169 126 94 340 125
is_linear=0
shrinkage=1


Tree=1
num_leaves=15
num_cat=0
split_feature=1 0 1 2 4 4 3 0 0 3 4 12 12 12
split_gain=23.2285 11.5887 8.51998 6.28777 11.2106 6.03375 4.80409 8.20677 7.79913 5.84656 4.50156 5.61079 5.63864 12.0548
threshold=124.69941760612824 47.477863027199355 130.64371351048393 6.9994080147972975 3.2963531541611988 3.7466964700956917 2.4708376347327219 29.288130826592251 26.151297768625987 0.94286213771566585 3.6762129841143083 -0.50724079144341394 0.25313522632274249 0.03594947830133164
decision_type=2 2 2 2 2 2 2 2 2 2 2 2 2 2
left_child=1 3 -2 5 -5 6 8 -8 9 -1 11 -4 13 -13
right_child=2 -3 10 4 -6 -7 7 -9 -10 -11 -12 12 -14 -15
leaf_value=0.014417958286692668 0.02919760221928256 0.024001215700673525 -0.0052065977846006894 -0.010189411426622217 0.030007683748721672 -0.023328563292702654 -0.004620750793889853 0.017103153543399238 -0.012886754938214241 -0.0075978062815072215 -0.0060825596100692906 0.0089695195724325289 0.0057104914449452194 0.040339529660600483
leaf_weight=8.412987947463991 7.3155856132507315 5.4704648852348319 10.20940926671028 5.8838020265102369 5.2528892755508423 8.354565277695654 40.90209399163723 8.381304666399954 54.436660259962082 11.313212364912031 9.7574794888496381 16.127305418252948 34.056863084435463 7.038426771759986
leaf_count=37 32 24 45 26 23 37 181 37 241 50 43 71 150 31
internal_value=0.000199236 -0.00456679 0.00856935 -0.00566014 0.00877052 -0.00687948 -0.00576624 -0.000926309 -0.00898252 0.00179165 0.00661432 0.00845157 0.0108884 0.0185006
internal_weight=232.913 148.408 84.5051 142.938 11.1367 131.801 123.446 49.2834 74.1629 19.7262 77.1895 67.432 57.2226 23.1657
internal_count=1028 656 372 632 49 583 546 218 328 87 340 297 252 102
is_linear=0
shrinkage=0.02


Tree=2
num_leaves=15
num_cat=0
split_feature=1 5 1 0 0 2 4 0 4 5 3 5 3 13
split_gain=22.2818 11.8053 8.07834 7.43052 6.83746 7.36386 5.89982 5.53267 7.0583 8.56619 5.29496 7.22884 4.5815 4.35901
threshold=124.69941760612824 17.500000000000004 130.64371351048393 30.16595206673944 46.078767197099658 6.9994080147972975 3.3908683971212201 25.97103829334938 3.1952592883417879 4.5000000000000009 0.94286213771566585 9.5000000000000018 2.8917626596428323 0.12429722680768442
decision_type=2 2 2 2 2 2 2 2 2 2 2 2 2 2
left_child=1 4 -2 -3 5 7 -7 10 9 -9 -1 12 -12 -4
right_child=2 3 13 -5 -6 6 -8 8 -10 -11 11 -13 -14 -15
leaf_value=0.012844954588702492 0.028373429764892488 0.0011782762397047398 0.012686351576944659 0.025417790546291039 0.016961120792509572 -0.0062470313661014253 0.025187616658602651 0.010342498848170114 -0.017667846658585177 -0.011384459562893121 -0.030361856789560049 0.0075484066446434512 -0.0061442048387956869 0.0028428682749857856
leaf_weight=7.3110141754150417 7.3768873214721671 17.641434654593471 28.488908380270004 7.0923003852367392 4.5831981152296057 4.9586102068424207 4.6073317527770996 9.7538752257823926 42.663533195853233 28.372610747814178 5.3953302353620547 8.3829366862773878 7.4245406687259674 48.852388739585876
leaf_count=32 32 78 125 31 20 22 20 43 190 126 24 37 33 215
internal_value=0.00019463 -0.00448271 0.00837611 0.00812886 -0.00700943 -0.00793365 0.00889312 -0.00940628 -0.0120795 -0.00582607 -0.00183219 -0.00689306 -0.0163364 0.00646875
internal_weight=232.905 148.187 84.7182 24.7337 123.453 118.87 9.56594 109.304 80.79 38.1265 28.5138 21.2028 12.8199 77.3413
internal_count=1028 656 372 109 547 527 42 485 359 169 126 94 57 340
is_linear=0
shrinkage=0.02


Tree=3
num_leaves=15
num_cat=0
split_feature=5 9 9 14 14 4 7 4 7 12 13 9 7 7
split_gain=5.46308 5.56898 7.06072 6.21089 5.29205 13.2955 5.39902 5.0706 5.54544 5.16057 8.17643 4.32705 4.02033 9.51637
threshold=17.500000000000004 35.683941147055343 36.71849988291396 0.28847473009268604 0.28074533467156954 3.5213450804047453 0.15679124532338196 3.7056474430055553 0.050996450292993621 0.32469876546213788 0.32174734976986369 41.532224915871602 0.1329912473059689 0.1132564972949181
decision_type=2 2 2 2 2 2 2 2 2 2 2 2 2 2
left_child=1 3 -3 -1 -4 6 12 8 -2 -10 11 -11 13 -6
right_child=7 2 4 -5 5 -7 -8 -9 9 10 -12 -13 -14 -15
leaf_value=-0.026744940921654976 -0.004766744892742523 0.021066667140014848 -0.0076303095209667897 -0.0044298433563090649 -0.0028229848167520576 0.03542872299494218 0.011925349537327292 -0.013034784531742252 0.02605661587362524 0.0044785109681545251 -0.011170225428441313 0.028463399403434085 -0.013710714875292742 0.017014475312629406
leaf_weight=5.6083218604326239 8.4336269348859769 6.5730947703123084 29.620398342609406 45.180623158812523 66.149928376078606 4.5371828079223624 14.072076767683027 4.5361715853214255 9.1294809281826037 5.6799537837505358 6.1347380429506293 6.3973945677280426 9.4949088841676694 11.329665601253508
leaf_count=25 37 29 131 200 292 20 62 20 40 25 27 28 42 50
internal_value=0.000190175 -0.00121137 0.000824304 -0.00689397 -0.000159801 0.00193597 0.000432083 0.00688534 0.00941114 0.0137844 0.00763245 0.0171834 -0.00142747 7.78021e-05
internal_weight=232.878 192.566 141.777 50.7889 135.204 105.584 101.047 40.3114 35.7752 27.3416 18.2121 12.0773 86.9745 77.4796
internal_count=1028 851 626 225 597 466 446 177 157 120 80 53 384 342
is_linear=0
shrinkage=0.02


Tree=4
num_leaves=15
num_cat=0
split_feature=1 0 1 2 14 4 3 0 0 3 0 7 2 2
split_gain=21.1934 10.6146 7.72748 5.72435 10.3433 5.72357 4.6097 7.72314 7.42552 5.37518 4.45686 5.78695 8.65733 6.18632
threshold=124.69941760612824 47.477863027199355 130.64371351048393 6.9994080147972975 0.30429601100092091 3.7466964700956917 2.4708376347327219 29.288130826592251 26.151297768625987 0.75289755350004928 28.263795653086007 0.12912707889504141 3.6019021174049022 2.7439967889653754
decision_type=2 2 2 2 2 2 2 2 2 2 2 2 2 2
left_child=1 3 -2 5 -5 6 8 10 9 -1 11 12 13 -8
right_child=2 -3 -4 4 -6 -7 7 -9 -10 -11 -12 -13 -14 -15
leaf_value=0.015387224351649773 0.027628952507767295 0.022765405775818457 0.006279179459018595 0.0284290837710344 -0.010047035923040626 -0.022760198260221326 0.0034522977717507198 0.016638323412050907 -0.012530032804692762 -0.0062225743220669294 -0.022209244893198386 -0.018607992508559174 0.026002757314254183 -0.018898709934397722
leaf_weight=7.3276662230491665 7.4312171041965476 5.5431827753782263 77.534922048449516 5.3360150307416898 5.8681227415800095 8.2330138981342298 17.117293238639839 8.4260456115007383 54.044049382209778 12.387704864144323 4.937563329935073 6.7589965313673011 4.9590946435928336 6.9704098850488654
leaf_count=32 32 24 340 23 26 37 76 37 241 55 22 30 22 31
internal_value=0.000185907 -0.00438701 0.00814645 -0.00544422 0.00827737 -0.00661635 -0.00553514 -0.000791616 -0.00869726 0.0018092 -0.00439626 -0.00193988 0.00193868 -0.00301555
internal_weight=232.875 147.909 84.9661 142.366 11.2041 131.162 122.929 49.1694 73.7594 19.7154 40.7434 35.8058 29.0468 24.0877
internal_count=1028 656 372 632 49 583 546 218 328 87 181 159 129 107
is_linear=0
shrinkage=0.02


Tree=5
num_leaves=15
num_cat=0
split_feature=4 12 1 4 10 0 1 12 13 2 9 2 0 0
split_gain=13.2911 7.79169 10.2651 10.7542 6.98136 9.9674 6.16595 7.05206 5.65505 5.44022 4.71792 4.6644 4.56045 5.49599
threshold=3.6747446970677116 -0.095890112010099546 -105.28517040851473 2.8917789382897605 1.0000000180025095e-35 27.144453065579974 -159.5367734690125 1.0690853226405517 0.38819255897546484 1.7759351983364378 63.552181710453077 3.8674481053364693 27.053122181491826 28.729585093432704
decision_type=2 2 2 2 2 2 2 2 2 2 2 2 2 2
left_child=1 9 3 6 -5 -6 -3 -8 -4 -1 12 -10 -2 -14
right_child=10 2 8 4 5 -7 7 -9 11 -11 -12 -13 13 -15
leaf_value=0.010309146472801574 -0.020192377050129821 -0.002169676746524019 0.012117044444477882 -0.012506566921110678 -0.017863520629504585 0.018627721039532873 0.036494708177335106 0.0034064824386988539 -0.018268478665583142 -0.0057621088061141799 -0.023263340077945126 0.007508590985120172 0.018381706148684684 -0.011585977260076992
leaf_weight=9.7538648098707181 5.8542291373014477 7.7125737071037319 60.902410000562668 29.02283339202404 4.7391662895679465 8.1311363875865919 5.6608696728944761 4.7287282943725586 4.7803107202053052 61.846552059054375 11.045706316828726 6.8054723590612411 4.5026745498180372 5.3642998933792114
leaf_count=43 26 34 267 129 21 36 25 21 21 273 49 30 20 24
internal_value=5.01273e-06 0.00174297 0.00461585 -0.00150351 -0.00706965 0.00519074 0.011378 0.0214349 0.00968058 -0.00357278 -0.013246 -0.00312706 -0.00620783 0.00208941
internal_weight=230.851 204.084 132.484 59.9953 41.8931 12.8703 18.1022 10.3896 72.4882 71.6004 26.7669 11.5858 15.7212 9.86697
internal_count=1019 900 584 266 186 57 80 46 318 316 119 51 70 44
is_linear=0
shrinkage=0.02


Tree=6
num_leaves=15
num_cat=0
split_feature=4 12 1 4 10 0 11 1 2 2 12 12 14 2
split_gain=12.8134 7.47655 9.82229 10.3198 6.73515 9.55604 5.99768 6.17408 5.22322 4.4502 7.04217 5.3015 7.84166 5.06567
threshold=3.6747446970677116 -0.095890112010099546 -105.28517040851473 2.8917789382897605 1.0000000180025095e-35 27.144453065579974 1.5000000000000002 -159.1594747451384 1.7759351983364378 5.7649840610293586 -0.15987379326383824 -0.47409430575492123 0.34669952738920945 2.2000902203815893
decision_type=2 2 2 2 2 2 2 2 2 2 2 2 2 2
left_child=1 8 3 6 -5 -6 7 -3 -1 10 11 -10 13 -13
right_child=-2 2 -4 4 5 -7 -8 -9 9 -11 -12 12 -14 -15
leaf_value=0.01007134608019279 -0.013037536215814419 0.0015655973322867469 0.0094597730650692342 -0.012305772987120567 -0.017605991924240824 0.018150696978278261 -0.005955441213122129 0.030283271652308451 -0.012539201168891992 0.011175317070818183 -0.030651334131885755 -0.022664265356422245 0.019205252537425537 -5.914108653324675e-05
leaf_weight=9.7841742336750013 26.653577521443367 4.9753600060939798 72.693178236484528 28.907640680670738 4.7125866264104834 8.1774594634771329 5.6668906509876242 7.521756350994111 22.307740643620487 5.7025004029273978 4.7558548003435126 5.1726060062646964 6.8085506260395041 16.990246832370758
leaf_count=43 119 22 318 129 21 36 25 33 99 25 21 23 30 75
internal_value=4.36783e-06 0.00170688 0.00451707 -0.00147511 -0.00694474 0.00507809 0.0111112 0.0188502 -0.00350531 -0.00565694 -0.00736991 -0.00521068 0.000432212 -0.00533497
internal_weight=230.83 204.177 132.655 59.9617 41.7977 12.89 18.164 12.4971 71.5217 61.7375 56.035 51.2791 28.9714 22.1629
internal_count=1019 900 584 266 186 57 80 55 316 273 248 227 128 98
is_linear=0
shrinkage=0.02


Tree=7
num_leaves=15
num_cat=0
split_feature=8 12 1 8 10 0 11 1 13 9 0 0 13 0
split_gain=12.3515 7.17593 9.39962 9.90446 6.49761 9.16397 5.71939 5.84225 5.38723 4.61246 4.43294 5.28573 4.37195 4.45706
threshold=3.6747446963300581 -0.095890112010099546 -105.28517040851473 2.8917789372465892 1.0000000180025095e-35 27.144453065579974 1.5000000000000002 -159.1594747451384 0.38819255897546484 63.552181710453077 27.053122181491826 28.729585093432704 0.22011987134052713 30.680844178737612
decision_type=2 2 2 2 2 2 2 2 2 2 2 2 2 2
left_child=1 -1 3 6 -5 -6 7 -3 12 10 -2 -12 13 -4
right_child=9 2 8 4 5 -7 -8 -9 -10 -11 11 -13 -14 -15
leaf_value=-0.0034399065278281284 -0.019741238955183354 0.001533539543431406 0.0049055001052160582 -0.01210825805050746 -0.017353209312403712 0.017691194862850625 -0.0058470924798064861 0.029416261929088694 -0.0032481411432700846 -0.022804817506189873 0.018244289006299715 -0.011185833236838891 0.020017622501942764 0.020549796314818031
leaf_weight=71.437252089381218 5.7919697463512447 4.9777557849884042 34.415720790624619 28.792775586247444 4.6858798414468756 8.2216049730777723 5.6565670669078818 7.5878967940807351 11.607839092612265 10.918160036206244 4.5101880431175214 5.3209733366966248 17.628547385334969 9.2402297109365445
leaf_count=316 26 22 150 129 21 36 25 33 51 49 20 24 77 40
internal_value=3.73072e-06 0.00167158 0.00442089 -0.00144735 -0.00682239 0.00496882 0.0108531 0.0183708 0.00924499 -0.0128314 -0.0058615 0.00231566 0.0116113 0.00821678
internal_weight=230.793 204.252 132.815 59.9225 41.7003 12.9075 18.2222 12.5657 72.8923 26.5413 15.6231 9.83116 61.2845 43.656
internal_count=1019 900 584 266 186 57 80 55 318 119 70 44 267 190
is_linear=0
shrinkage=0.02


Tree=8
num_leaves=15
num_cat=0
split_feature=8 12 1 8 10 0 11 1 13 3 2 10 0 8
split_gain=11.9091 6.88666 8.9962 9.50749 6.2684 8.79007 5.45666 5.53437 5.1479 6.6665 5.02105 4.41984 6.2816 5.55628
threshold=3.6747446963300581 -0.095890112010099546 -105.28517040851473 2.8917789372465892 1.0000000180025095e-35 27.144453065579974 1.5000000000000002 -159.1594747451384 0.38819255897546484 2.6384483653324842 1.7759351983364378 1.0000000180025095e-35 26.396170154930712 3.1373641040915898
decision_type=2 2 2 2 2 2 2 2 2 2 2 2 2 2
left_child=1 10 3 6 -5 -6 7 -3 -4 -10 -1 12 -12 -13
right_child=-2 2 8 4 5 -7 -8 -9 9 -11 11 13 -14 -15
leaf_value=0.009919024200051094 -0.012630916363045992 0.0015021548688661443 0.011341500072183904 -0.011913937309270551 -0.01710498375022166 0.017248219696164878 -0.005740613561357636 0.02859296402114889 -0.017546004868533457 0.012827068349997457 0.0007832084096842071 0.015750317853909086 -0.014323660546227792 -0.0086186311874023487
leaf_weight=9.8034704923629743 26.425916090607643 4.9800982475280771 61.484609618782997 28.678308978676796 4.659074366092681 8.263667091727255 5.6463613659143439 7.6496137231588373 6.113973140716551 5.4825945794582367 17.855581298470497 7.7325457036495191 28.716767653822899 7.2530836910009384
leaf_count=43 119 22 267 129 21 36 25 33 27 24 79 34 128 32
internal_value=3.16218e-06 0.0016372 0.00432721 -0.00142023 -0.00670251 0.00486276 0.0106036 0.0179106 0.00903622 -0.0031863 -0.00337473 -0.00549183 -0.00853177 0.00395568
internal_weight=230.746 204.32 132.958 59.8771 41.6011 12.9227 18.2761 12.6297 73.0812 11.5966 71.3614 61.558 46.5723 14.9856
internal_count=1019 900 584 266 186 57 80 55 318 51 316 273 207 66
is_linear=0
shrinkage=0.02


Tree=9
num_leaves=15
num_cat=0
split_feature=4 1 1 2 9 0 0 3 2 5 9 5 7 0
split_gain=11.4802 5.87266 9.70798 6.89398 4.51109 4.3093 5.08247 3.55824 6.35367 3.79154 6.28368 6.09807 8.91612 9.72862
threshold=3.6747446970677116 180.22659677548026 206.53638738986601 2.8579276347557268 63.552181710453077 27.053122181491826 28.729585093432704 4.3862495361820111 2.5129047186246276 17.500000000000004 68.672320029868246 2.5000000000000004 0.084001705274708655 27.294276568969075
decision_type=2 2 2 2 2 2 2 2 2 2 2 2 2 2
left_child=1 7 3 -3 5 -2 -7 9 -9 10 11 12 13 -1
right_child=4 2 -4 -5 -6 6 -8 8 -10 -11 -12 -13 -14 -15
leaf_value=-0.026192060025064287 -0.019306364120910267 0.042601351946233788 -0.0021674806957313972 0.010267913596830769 -0.022364907320975687 0.018100448804530544 -0.010798520766513784 -0.022331972698203671 0.003944213159134507 0.0078193141481751067 -0.01766548194778738 -0.0012394622773892166 0.020507768367935532 0.010323671756666684
leaf_weight=4.522171005606654 5.7292447984218624 4.8599975854158419 10.339053541421888 5.7684673517942429 10.788969099521635 4.5180309563875181 5.2780507206916809 7.2386933863162977 7.4893775135278702 29.30746154487133 7.691880226135253 104.96128456294537 13.959213912487028 8.2293970286846143
leaf_count=20 26 21 45 25 49 20 24 32 33 128 34 465 61 36
internal_value=2.59765e-06 0.00160359 0.0116305 0.0250528 -0.0124313 -0.00552823 0.00252991 0.000457244 -0.00897026 0.00128044 -9.46542e-05 0.00093178 0.00946378 -0.00262614
internal_weight=230.681 204.367 20.9675 10.6285 26.3143 15.5253 9.79608 183.399 14.7281 168.671 139.364 131.672 26.7108 12.7516
internal_count=1019 900 91 46 119 70 44 809 65 744 616 582 117 56
is_linear=0
shrinkage=0.02


Tree=10
num_leaves=15
num_cat=0
split_feature=1 12 12 1 2 2 4 2 4 1 9 13 14 10
split_gain=10.7156 8.97985 10.5577 8.05875 6.7325 6.44997 6.26076 5.82154 6.70441 5.62948 5.472 4.97799 4.87137 4.73662
threshold=-116.28088173084073 -0.041965188052599973 0.28169804616877786 124.69941760612824 6.9994080147972975 1.5444495904033164 2.6348686846580018 2.4023878250539092 3.0529987671791519 142.38048970677053 28.095277893543503 0.28399320454531268 0.30851628361504141 1.0000000180025095e-35
decision_type=2 2 2 2 2 2 2 2 2 2 2 2 2 2
left_child=4 7 3 -3 6 -4 -1 8 -2 -9 -7 -11 -5 -8
right_child=1 2 5 12 -6 10 13 9 -10 11 -12 -13 -14 -15
leaf_value=0.010929513419818394 0.024980252006391566 0.0050046160213603683 -0.017933433572149989 0.017643561125335997 0.012658481398179208 0.027163450991101255 -0.010508167763356729 -0.015075781307205188 -0.0022776412274976075 0.010121343267788456 0.004982632223723151 -0.014459534842092777 0.044272500627806133 0.00103698452940892
leaf_weight=8.0531411916017515 5.7158399373292914 6.7604667246341732 4.5749364495277396 4.8704181909561139 8.6893439590930921 4.8097206950187674 56.792410746216774 16.885201990604404 9.7941756546497327 9.7779538035392743 59.301190912723541 4.9707980751991263 6.305517315864563 18.959805905818939
leaf_count=35 25 30 20 21 38 21 257 75 43 43 259 22 27 84
internal_value=0.00113543 0.00475467 0.00857755 0.0222411 -0.00409875 0.00500948 -0.00583622 -0.00226946 0.00776759 -0.0071906 0.00664668 0.00183681 0.0326677 -0.00761856
internal_weight=226.261 133.766 86.6223 17.9364 92.4947 68.6858 83.8054 47.144 15.51 31.634 64.1109 14.7488 11.1759 75.7522
internal_count=1000 586 378 78 414 300 376 208 68 140 280 65 48 341
is_linear=0
shrinkage=0.02


Tree=11
num_leaves=15
num_cat=0
split_feature=1 2 4 10 6 13 1 0 1 13 2 1 0 0
split_gain=10.2876 6.46217 6.01923 4.57589 9.77763 4.09 3.84173 4.81981 4.50302 3.41312 11.9104 9.12455 10.5264 11.6475
threshold=-116.28088173084073 6.9994080147972975 2.6348686846580018 1.0000000180025095e-35 3.5000000000000004 0.10688765585946491 -176.32881011019006 26.305376577746163 -162.92253616043345 0.18058215122218266 2.0410436106219998 141.42630635386635 34.377501498261282 28.429086796740354
decision_type=2 2 2 2 2 2 2 2 2 2 2 2 2 2
left_child=1 2 -1 6 5 -5 7 -4 -8 11 -11 12 13 -2
right_child=9 -3 3 4 -6 -7 8 -9 -10 10 -12 -13 -14 -15
leaf_value=0.010678237068190653 0.0035799964242021112 0.012360083604701715 0.011875144207122051 0.008662484556868669 0.026646108755344459 -0.014252440380518995 -0.029728582297316321 -0.0093397414750441207 -0.011084768346507977 0.018488115313250331 -0.0026168698871993803 0.015839144211280652 0.027557540390364319 -0.025250923143318452
leaf_weight=8.0775417089462263 22.581285849213604 8.720816954970358 5.7470485568046596 4.5496376305818584 4.5312830507755271 9.8849376589059812 6.3775286227464631 16.821950688958168 27.642374604940418 13.29543913900852 54.704268962144852 30.811789616942406 5.0782645791769019 7.4555537253618231
leaf_count=35 99 38 26 20 20 44 29 77 125 58 241 133 22 33
internal_value=0.00111214 -0.00402323 -0.00573162 -0.00748599 0.00101592 -0.00702988 -0.0103354 -0.00393751 -0.0145798 0.00465338 0.00150962 0.00789599 0.000926262 -0.00357623
internal_weight=226.28 92.3531 83.6323 75.5548 18.9659 14.4346 56.5889 22.569 34.0199 133.927 67.9997 65.9269 35.1151 30.0368
internal_count=1000 414 376 341 84 64 257 103 154 586 299 287 154 132
is_linear=0
shrinkage=0.02


Tree=12
num_leaves=15
num_cat=0
split_feature=1 5 5 7 4 7 6 4 5 3 0 7 3 13
split_gain=9.87829 5.22684 9.3797 15.6799 9.53178 8.21328 7.25179 5.21437 5.69996 6.16837 7.29914 5.8481 4.76678 4.25155
threshold=-116.28088173084073 13.500000000000002 14.500000000000002 0.1296261122779333 3.0867051305681596 0.060169027982531452 1.5000000000000002 2.6538681013343375 5.5000000000000009 1.8433926867641619 29.406075873781848 0.19877606751526081 2.5651068260367094 0.28399320454531268
decision_type=2 2 2 2 2 2 2 2 2 2 2 2 2 2
left_child=7 13 -3 4 12 -6 -7 -1 9 10 -9 -10 -4 -2
right_child=1 2 3 -5 5 6 -8 8 11 -11 -12 -13 -14 -15
leaf_value=0.0099366429679572221 0.0045817380668986378 0.029960547812323119 0.040519700806443196 -0.016244785422094236 -0.018528608883855251 -0.0052777481579811261 0.024738437917094763 0.030847762767296182 -0.01090859661521173 -0.0062998262817485426 -0.0020294170825603071 0.012672934645256378 0.013685421779351135 -0.0050008219723164425
leaf_weight=9.6808014065027219 61.609634116292 7.8290136605501166 5.8149866312742251 9.5609902739524824 4.6247781962156322 5.4629022479057294 7.8400437235832214 5.2000405937433261 53.018458023667336 14.116890788078306 5.6207658499479294 4.5691154599189749 4.8618050813674927 26.480182737112045
leaf_count=42 269 34 25 42 20 24 34 23 241 63 25 20 21 117
internal_value=0.0010893 0.0045545 0.0100192 0.00592863 0.01334 0.00443045 0.0124122 -0.00394973 -0.0055787 0.00240875 0.01377 -0.00903759 0.0283004 0.00170118
internal_weight=226.29 134.084 45.9945 38.1655 28.6045 17.9277 13.3029 92.2061 82.5253 24.9377 10.8208 57.5876 10.6768 88.0898
internal_count=1000 586 200 166 124 78 58 414 372 111 48 261 46 386
is_linear=0
shrinkage=0.02


Tree=13
num_leaves=15
num_cat=0
split_feature=14 9 9 5 4 5 7 13 9 7 9 9 7 7
split_gain=7.44444 5.21032 6.67906 9.2366 7.62304 6.42907 4.96534 7.72607 7.22964 5.37227 6.03376 6.96457 6.27501 16.6553
threshold=0.24225869307915193 28.095277893543503 53.615413884825585 5.5000000000000009 3.1086453050666694 11.500000000000002 0.059010960730729173 0.14081141539885889 38.243637464886554 0.062202835678501427 31.895660495763597 32.805122838034798 0.10887638584270727 0.11917145436082584
decision_type=2 2 2 2 2 2 2 2 2 2 2 2 2 2
left_child=-1 -2 6 -4 5 -5 7 -3 -9 -8 -11 -12 -13 -14
right_child=1 2 3 4 -6 -7 9 8 -10 10 11 12 13 -15
leaf_value=-0.020265628018071524 0.0159325813252814 -0.024113005862053335 0.019138042345661809 -0.0052283029029077813 -0.0046914738809877071 0.023534933451704713 0.020617258557960021 0.018051607929873176 -0.011818252387097265 -0.011272216116487028 0.020572116336007827 -0.0044422892483124699 0.032717607438490871 2.9046724104642169e-05
leaf_weight=6.359566628932952 9.8074165582656843 9.0596227496862429 17.129559636116028 4.7344443649053565 26.416534960269928 9.0502802282571775 5.025506690144538 5.2752457559108725 8.4061831384897214 17.755302652716637 7.0204036235809317 56.444318324327469 7.5280297994613639 36.291995316743851
leaf_count=29 43 40 75 21 118 39 22 23 37 79 31 250 33 160
internal_value=0.00106691 0.00168373 0.00101872 0.00683992 0.00159975 0.013656 -0.00116532 -0.00978734 -0.000301118 0.000342185 -0.000472695 0.00131459 -3.37977e-05 0.00564475
internal_weight=226.304 219.945 210.137 57.3308 40.2013 13.7847 152.807 22.7411 13.6814 130.066 125.04 107.285 100.264 43.82
internal_count=1000 971 928 253 178 60 675 100 60 575 553 474 443 193
is_linear=0
shrinkage=0.02


Tree=14
num_leaves=15
num_cat=0
split_feature=1 12 12 1 2 2 2 4 4 1 9 14 9 14
split_gain=9.45101 8.41654 9.96379 7.42585 6.13437 6.05957 5.53577 6.29077 5.47662 5.34791 4.83377 4.40864 4.05177 10.7509
threshold=-116.28088173084073 -0.041965188052599973 0.28169804616877786 124.69941760612824 1.5444495904033164 6.9994080147972975 2.4023878250539092 3.0529987671791519 2.6348686846580018 142.38048970677053 28.095277893543503 0.30851628361504141 52.966052826988332 0.29880369259769485
decision_type=2 2 2 2 2 2 2 2 2 2 2 2 2 2
left_child=5 6 3 -3 -4 8 7 -2 -1 -8 -6 -5 -10 -14
right_child=1 2 4 11 10 -7 9 -9 12 -11 -12 -13 13 -15
leaf_value=0.010029552663174034 0.023941785488709511 0.0047746826843026551 -0.017771721476698515 0.016970103737520087 0.025334490198870144 0.011927204568437684 -0.014896803094712285 -0.0023687180146772569 -0.010727162867441235 0.0015884396297584156 0.0046652779080932063 0.042162600168464154 -0.011683048620714167 0.013886442028743893
leaf_weight=8.1384068429470044 5.7761301994323722 6.7809185981750515 4.5581223666667929 4.904393330216406 4.8982817232608786 8.7651870846748334 16.817695662379268 9.806193456053732 48.083476975560188 14.797127813100813 59.521356582641602 6.4103310406208038 15.824262872338297 11.256304427981375
leaf_count=35 25 30 20 21 21 38 75 43 218 65 259 27 73 50
internal_value=0.00104488 0.00442906 0.00811562 0.0213245 0.00465039 -0.00389058 -0.00237224 0.00738419 -0.00555494 -0.00718098 0.0062369 0.0312429 -0.00724236 -0.00105484
internal_weight=226.338 134.271 87.0734 18.0956 68.9778 92.0676 47.1971 15.5823 83.3025 31.6148 64.4196 11.3147 75.164 27.0806
internal_count=1000 586 378 78 300 414 208 68 376 140 280 48 341 123
is_linear=0
shrinkage=0.02


Tree=15
num_leaves=15
num_cat=0
split_feature=12 10 0 13 7 2 4 2 13 7 7 6 2 2
split_gain=6.84218 6.81828 10.6767 12.7004 7.9127 4.3896 7.63506 5.42432 5.36432 4.99908 6.80413 8.43 4.18777 8.26636
threshold=1.6639247634700818 1.0000000180025095e-35 26.558334459844172 0.11954055120446717 0.093254242644476917 2.8579276347557268 2.8504577475860695 7.22289258495488 0.43407599414756542 0.066038047838691979 0.058494375562725222 1.5000000000000002 4.588051127858118 5.9118340786144765
decision_type=2 2 2 2 2 2 2 2 2 2 2 2 2 2
left_child=1 5 -3 -4 -5 6 -1 -7 9 10 11 -8 -2 -14
right_child=12 2 3 4 -6 7 8 -9 -10 -11 -12 -13 13 -15
leaf_value=0.014122146059322476 0.0029099000829259998 -0.0091096139132725434 0.024494725569333412 0.010471830910458214 -0.012181564144044935 -0.0089006560094345467 0.014908759187945602 0.010568707387229202 0.016764332162479589 0.0014574762519239907 -0.024445567999541295 -0.01536349212925716 0.038546312058820247 0.0033520062796909534
leaf_weight=11.914396941661833 21.852359160780907 17.474674507975578 14.600117713212965 14.891519010066988 10.528019368648527 72.832884550094604 6.1190059632062939 6.2122629284858695 4.6811653822660437 21.290340825915337 10.079272150993345 9.2297837585210782 4.5842129290103895 6.3913181573152542
leaf_count=52 96 77 63 65 46 326 27 27 21 95 45 41 20 28
internal_value=-0.000489774 -0.00187977 0.00393312 0.00962826 0.00108947 -0.00422741 -0.000303327 -0.00737053 -0.00364715 -0.00569237 -0.0116788 -0.00329504 0.00797238 0.0180518
internal_weight=232.681 199.853 57.4943 40.0197 25.4195 142.359 63.314 79.0451 51.3996 46.7184 25.4281 15.3488 32.8279 10.9755
internal_count=1029 885 251 174 111 634 281 353 229 208 113 68 144 48
is_linear=0
shrinkage=0.02


Tree=16
num_leaves=15
num_cat=0
split_feature=1 9 14 12 5 9 14 3 7 12 5 9 3 5
split_gain=9.67885 6.71004 7.75367 8.24396 10.2917 6.37293 5.69311 11.1776 5.22779 4.97717 4.93895 4.23974 4.94301 4.75225
threshold=-124.87218750378757 32.352629886561658 0.25099984008125892 1.9569342288200799 3.5000000000000004 33.193634852537237 0.31369567141835136 0.56579552507491304 0.077721514420297608 2.6162407394156402 21.500000000000004 45.188365427131664 1.0981397855990618 12.500000000000002
decision_type=2 2 2 2 2 2 2 2 2 2 2 2 2 2
left_child=9 6 -3 4 -4 -6 8 -8 -2 10 11 -1 13 -13
right_child=1 2 3 -5 5 -7 7 -9 -10 -11 -12 12 -14 -15
leaf_value=-0.014446233002665279 0.0006532024772421659 -0.020777982647514466 0.016514687391277934 0.021964211503444894 0.022842330075339565 -0.0010013053354810092 0.029162183941136812 -0.0054105307032873765 -0.025052823013421151 0.012445308530625761 0.012090243503086285 -0.0025355339451332104 -0.0094908673450302544 0.021130178214647629
leaf_weight=28.310627400875092 5.1606777757406226 4.4126915633678427 21.139772638678551 11.887634038925169 4.8100945800542823 66.116240695118904 4.6159419417381313 19.725223258137703 8.1812905818223935 5.6053282469511023 5.0595899671316138 12.381995469331743 30.51894237101078 4.6757530719041815
leaf_count=128 23 20 91 51 21 288 20 87 37 25 22 56 139 21
internal_value=-0.000480649 0.00266004 0.00518799 0.00629021 0.00426637 0.000615726 -0.00460966 0.00114567 -0.0151097 -0.00578029 -0.00704236 -0.00831797 -0.00467134 0.00395155
internal_weight=232.602 146.05 108.366 103.954 92.0661 70.9263 37.6831 24.3412 13.342 86.5522 80.9469 75.8873 47.5767 17.0577
internal_count=1029 638 471 451 400 309 167 107 60 391 366 344 216 77
is_linear=0
shrinkage=0.02


Tree=17
num_leaves=15
num_cat=0
split_feature=14 12 10 0 5 12 4 9 12 9 12 4 9 9
split_gain=6.42336 7.15159 6.79227 11.7217 6.78229 8.20591 8.55412 6.29434 5.77727 7.37625 5.71362 5.43019 5.28786 5.93062
threshold=0.24407259103988585 1.6639247634700818 1.0000000180025095e-35 26.558334459844172 13.500000000000002 -0.10892573941291267 3.3441272384137544 37.41088739113237 -0.38160242124920651 53.615413884825585 0.11264158648462978 2.9999999999999925 40.395338977297676 31.154481370881786
decision_type=2 2 2 2 2 2 2 2 2 2 2 2 2 2
left_child=-1 2 4 12 10 -6 7 -7 -5 -10 -2 -9 13 -4
right_child=1 -3 3 8 5 6 -8 11 9 -11 -12 -13 -14 -15
leaf_value=-0.017588722569434986 -0.0025754714819231582 0.0090546076146028071 -0.018523573253934542 0.028891646296698586 -0.012911129586161332 0.031663691135569744 -0.0074300271370688533 0.021436261687337501 0.0001439716561834728 0.019970517271439055 -0.012388991100614291 -0.0051230498834104569 -0.02647611678876343 0.0094927112918547149
leaf_weight=8.4506191313266736 61.608979389071465 31.21759007871151 5.1333647072315234 5.9795178771018973 9.0346451401710492 6.9512067884206834 8.7165559083223325 6.0248463600873929 20.272591143846512 11.918774425983427 38.599566534161568 6.298107385635376 4.9393206387758246 7.3492315262556076
leaf_count=39 277 136 23 26 40 30 39 26 88 51 172 28 22 32
internal_value=-0.000471743 0.000173884 -0.00126386 0.00463374 -0.00365295 0.00366165 0.00901089 0.0164461 0.0108381 0.0074847 -0.00635556 0.00786213 -0.00895987 -0.00202875
internal_weight=232.495 224.044 192.827 55.5928 137.234 37.0254 27.9907 19.2742 38.1709 32.1914 100.209 12.323 17.4219 12.4826
internal_count=1029 990 854 242 612 163 123 84 165 139 449 54 77 55
is_linear=0
shrinkage=0.02


Tree=18
num_leaves=15
num_cat=0
split_feature=1 14 5 5 5 0 7 3 7 4 12 7 7 5
split_gain=9.2118 4.69992 5.11664 8.1136 10.3631 7.788 5.11025 5.40787 7.43929 5.27235 4.67578 4.6228 6.80153 4.60586
threshold=-124.87218750378757 0.25099984008125892 4.5000000000000009 13.500000000000002 14.500000000000002 26.305376577746163 0.077103031368035799 0.91982207252088577 0.067348082104527696 2.8425791058863243 2.6162407394156402 0.081381669975794005 0.057427528786775192 21.500000000000004
decision_type=2 2 2 2 2 2 2 2 2 2 2 2 2 2
left_child=10 -2 5 6 -5 -3 7 -4 -9 -8 13 12 -6 -1
right_child=1 2 3 4 11 -7 9 8 -10 -11 -12 -13 -14 -15
leaf_value=-0.0081160425341277511 -0.016901505676115165 -0.0036483615318028424 -0.0081210933059254857 0.030385033099810832 -0.0034143659604139432 0.016974652639670181 -0.022791606288803418 0.001268123347335337 0.031655845563719684 -0.0043650207980161747 0.011958598547107764 -0.003439946830704341 0.01996249760075448 0.011536476780456058
leaf_weight=75.561191096901894 4.7827884703874579 10.952707484364508 9.5888895541429537 6.7437368631362906 8.5495700836181658 22.111494481563568 7.8596967011690131 9.8605709820985776 4.7869209349155417 29.613297924399376 5.6414709091186515 19.330971702933311 11.918855085968969 5.091603457927703
leaf_count=344 22 48 42 29 37 95 35 43 21 131 25 84 51 22
internal_value=-0.000462995 0.00259725 0.00325718 0.00115395 0.00745867 0.0101432 -0.00360126 0.00355524 0.0111991 -0.00822987 -0.00564411 0.00357395 0.0101981 -0.00687538
internal_weight=232.394 146.1 141.317 108.253 46.5431 33.0642 61.7094 24.2364 14.6475 37.473 86.2943 39.7994 20.4684 80.6528
internal_count=1029 638 616 473 201 143 272 106 64 166 391 172 88 366
is_linear=0
shrinkage=0.02


Tree=19
num_leaves=15
num_cat=0
split_feature=1 13 13 3 14 0 7 2 0 1 4 7 7 3
split_gain=8.85867 5.04114 6.78552 7.27821 5.34186 4.90416 7.23013 6.89518 5.75142 5.37934 6.37644 4.64503 5.67154 4.91539
threshold=-124.87218750378757 0.5570949184931081 0.44876040788443916 5.1648435416436831 0.25936744599101319 37.062235668457298 0.18148674708821946 2.9056972433605606 41.955303690471162 180.22659677548026 2.6719295073722757 0.10259990725342148 0.091511313741267558 2.3140274753955259
decision_type=2 2 2 2 2 2 2 2 2 2 2 2 2 2
left_child=-1 2 3 4 -2 6 7 9 -7 10 -6 12 -9 -13
right_child=1 -3 -4 -5 5 8 -8 11 -10 -11 -12 13 -14 -15
leaf_value=-0.0055427275168705064 -0.017337714885708271 -0.014910524391175605 0.022389572938439462 -0.019946365838337296 0.022693836570928126 0.032778838409014965 0.023149838276042077 -0.0030383854573759702 0.0052906477136003402 0.022483055611197074 0.00092307385818619512 -0.0054572197486137519 -0.02519610980568877 0.010786380572474335
leaf_weight=86.119130700826645 4.82606616616249 6.332236796617507 7.0955140739679328 5.6254617273807517 6.2544337213039389 4.922293007373808 6.5279715061187735 12.224513486027719 7.9818934947252274 7.2940825074911109 38.54955081641674 18.724445998668674 7.4286951571702948 12.377458870410917
leaf_count=391 22 28 31 25 27 21 28 54 34 31 168 82 33 54
internal_value=-0.000454388 0.00254363 0.00333403 0.0023154 0.00330062 0.00411513 0.00273944 0.00144402 0.015776 0.00655522 0.00396217 -0.00380242 -0.0114138 0.00100716
internal_weight=232.284 146.165 139.832 132.737 127.111 122.285 109.381 102.853 12.9042 52.0981 44.804 50.7551 19.6532 31.1019
internal_count=1029 638 610 579 554 532 477 449 55 226 195 223 87 136
is_linear=0
shrinkage=0.02


end of trees

feature_importances:
entry_adx=35
entry_cci=34
st_distance_atr=28
entry_atr=27
atr_pct=24
volatility_zscore=23
hour_utc=22
mom_intensity=22
dema_distance_atr=16
efficiency_ratio=16
vol_convergence=13
is_asia_session=9
st_gap_ratio=5
day_of_week=3
regime_state=3

parameters:
[boosting: gbdt]
[objective: binary]
[metric: auc]
[tree_learner: serial]
[device_type: cpu]
[data_sample_strategy: bagging]
[data: ]
[valid: ]
[num_iterations: 1000]
[learning_rate: 0.02]
[num_leaves: 15]
[num_threads: 0]
[seed: 42]
[deterministic: 0]
[force_col_wise: 0]
[force_row_wise: 0]
[histogram_pool_size: -1]
[max_depth: -1]
[min_data_in_leaf: 20]
[min_sum_hessian_in_leaf: 0.001]
[bagging_fraction: 0.7]
[pos_bagging_fraction: 1]
[neg_bagging_fraction: 1]
[bagging_freq: 5]
[bagging_seed: 400]
[bagging_by_query: 0]
[feature_fraction: 0.7]
[feature_fraction_bynode: 1]
[feature_fraction_seed: 30056]
[extra_trees: 0]
[extra_seed: 12879]
[early_stopping_round: 0]
[early_stopping_min_delta: 0]
[first_metric_only: 0]
[max_delta_step: 0]
[lambda_l1: 0]
[lambda_l2: 0]
[linear_lambda: 0]
[min_gain_to_split: 0]
[drop_rate: 0.1]
[max_drop: 50]
[skip_drop: 0.5]
[xgboost_dart_mode: 0]
[uniform_drop: 0]
[drop_seed: 17869]
[top_rate: 0.2]
[other_rate: 0.1]
[min_data_per_group: 100]
[max_cat_threshold: 32]
[cat_l2: 10]
[cat_smooth: 10]
[max_cat_to_onehot: 4]
[top_k: 20]
[monotone_constraints: ]
[monotone_constraints_method: basic]
[monotone_penalty: 0]
[feature_contri: ]
[forcedsplits_filename: ]
[refit_decay_rate: 0.9]
[cegb_tradeoff: 1]
[cegb_penalty_split: 0]
[cegb_penalty_feature_lazy: ]
[cegb_penalty_feature_coupled: ]
[path_smooth: 0]
[interaction_constraints: ]
[verbosity: -1]
[saved_feature_importance_type: 0]
[use_quantized_grad: 0]
[num_grad_quant_bins: 4]
[quant_train_renew_leaf: 0]
[stochastic_rounding: 1]
[linear_tree: 0]
[max_bin: 255]
[max_bin_by_feature: ]
[min_data_in_bin: 3]
[bin_construct_sample_cnt: 200000]
[data_random_seed: 175]
[is_enable_sparse: 1]
[enable_bundle: 1]
[use_missing: 1]
[zero_as_missing: 0]
[feature_pre_filter: 1]
[pre_partition: 0]
[two_round: 0]
[header: 0]
[label_column: ]
[weight_column: ]
[group_column: ]
[ignore_column: ]
[categorical_feature: ]
[forcedbins_filename: ]
[precise_float_parser: 0]
[parser_config_file: ]
[objective_seed: 16083]
[num_class: 1]
[is_unbalance: 0]
[scale_pos_weight: 1]
[sigmoid: 1]
[boost_from_average: 1]
[reg_sqrt: 0]
[alpha: 0.9]
[fair_c: 1]
[poisson_max_delta_step: 0.7]
[tweedie_variance_power: 1.5]
[lambdarank_truncation_level: 30]
[lambdarank_norm: 1]
[label_gain: ]
[lambdarank_position_bias_regularization: 0]
[eval_at: ]
[multi_error_top_k: 1]
[auc_mu_weights: ]
[num_machines: 1]
[local_listen_port: 12400]
[time_out: 120]
[machine_list_filename: ]
[machines: ]
[gpu_platform_id: -1]
[gpu_device_id: -1]
[gpu_use_dp: 0]
[num_gpu: 1]

end of parameters

pandas_categorical:[]
