tree
version=v4
num_class=1
num_tree_per_iteration=1
label_index=0
max_feature_idx=39
objective=binary sigmoid:1
feature_names=breakout_strength atr14_at_entry breakout_side adx_14_15m adx_50_flag atr14_percentile_20d atr14_sq atr14_zscore_20d breakout_strength_atr_ratio breakout_strength_percentile_20d breakout_strength_sq breakout_strength_vs_orb breakout_strength_zscore_10d day_of_week ema_slope_1h int_adx_x_orb_range int_atr14_x_adx int_breakout_strength_x_range int_breakout_strength_x_session int_vwap_distance_x_atr14 mac_dxy_trend mac_oil_volatility mac_spx_regime mac_us10y_change orb_range_atr_ratio orb_range_percentile_20d orb_range_sq pre_bo_bullish_ratio pre_bo_compression_ratio pre_bo_drift_atr pre_bo_inside_bar_flag pre_bo_last_candle_range_ratio price_vs_vwap_pct price_vs_vwap_pct_abs sm_first_30m_direction sm_first_30m_range sm_pre_breakout_volume_ratio sm_pre_breakout_volume_z time_in_session_min vwap_at_breakout
feature_infos=[0.099999999999454303:52.100000000000364] [0.061728832256556634:27.045098402884662] [0:1] [5.968195915222168:98.037620544433594] [0:1] [0.047619047619047616:1] [0.0038104488048702478:731.4373779296875] [-4.1034915548447195:10] [0.0059899007901549339:9.2009458541870117] [0.047619047619047616:1] [0.0099999997764825821:2714.409912109375] [0.00085984525503590703:61] [-5.2765618790243485:10] [0:4] [-1:1] [1.0180106163024902:18719.85546875] [1.0445084571838379:1552.31005859375] [0.0099999997764825821:1994.699951171875] [1.6000000238418579:4367.39990234375] [1.8744805856840685e-05:45.598564147949219] [-1:1] [0:3.0596606731414795] [0:1] [0:0.32200002670288086] [0.042417705059051514:210.84843444824219] [0.047619047619047616:1] [0.0099999997764825821:13525.6904296875] [0:1] [0.028938906267285347:132] [0:163.30654907226562] [0:1] [0:322.08389282226562] [-1.969296932220459:3.0380980968475342] [9.3792441475670785e-05:3.0380980968475342] [-96.721832275390625:81.546577453613281] [0:218.5968017578125] [0.0068376068957149982:3.9328670501708984] [-2.408865213394165:4.9923982620239258] [16:179] [1051.523193359375:4556.34765625]
tree_sizes=3315 3425 3437 3437 3431 3450 3440 3432 3433 3459 3470 3450 3460 3454 3447 3447 3426 3440 3456 3427 3449 3468 3437 3476 3434 3463 3444 3462 3464 3459 3461 3445 3446 3437 3458 3465 3467 3420 3472 3431 3464 3461 3472 3454 3471 3469 3453 3464 3448 3450 3453 3423 3425 3464 3465 3468 3444 3464 3447 3438 3460 3484 3432 3442 3447 3463 3450 3456 3423 3462 3430 3466 3459 3449 3428 3451 3431 3444 3439 3434 3424 3454 3449 3467 3435 3445 3439 3421 3429 3445 3456 3427 3378 3438 3454 3466 3455 3431 3438 3402 3429 3468 3452 3447 3447 3460 3446 3414 3414 3464 3396 3462 3447 3421 3424 3450 3445 3431 3429 3453 3399 3456 3431 3461 3386 3398 3426 3427 3440 3430 3402 3425 3398 3411 3433 3413 3443 3431 3433 3418 3456 3446 3425 3414 3427 3449 3439 3442 3432 3381 3394 3432 3413 3450 3434 3442 3470 3419 3470 3455 3438 3451 3407 3447 3441 3414 3410 3429 3423 3394 3419 3429 3439 3406 3442 3409 3444 3443 3454 3405 3438 3379 3436 3450 3430 3427 3413 3392 3421 3441 3382 3410 3451 3391 3418 3425 3404 3434 3411 3436 3438 3418 3426 3411 3432 3466 3424 3404 3456 3430 3421 3428 3407 3433 3438 3404 3441 3437 3443 3442 3437 3454 3425 3461 3422 3399 3440 3456 3422 3454 3411 3416 3404 3425 3447 3470 3452 3460 3452 3440 3423 3425 3443 3429 3437 3435 3408 3440 3422 3418 3416 3409 3442 3367 3429 3392 3425 3399 3410 3402 3423 3426 3420 3421 3434 3413 3402 3421 3403 3432 3393 3438 3408 3448 3424 3420 3383 3395 3430 3411 3423 3440 3436 3463 3443 3423 3388 3440 3440 3438 3438 3401 3426 3449 3402 3413 3384 3425 3414 3376 3415 3452 3428 3422 3414 3450 3412 3431 3393 3402 3411 3423 3411 3385 3413 3425 3424 3402 3422 3459 3452 3450 3361 3377 3389 3427 3396 3408 3415 3418 3428 3407 3383 3424 3404 3423 3422 3447 3421 3426 3440 3425 3411 3367 3415 3371 3451 3451 3429 3425 3441 3417 3435 3438 3419 3415 3466 3427 3424 3437 3419 3444 3426 3412 3441 3423 3400 3431 3454 3424 3424 3440 3434 3441 3409 3419 3431 3431 3425 3407 3435 3413 3410 3404 3459 3439 3415 3383 3380 3444 3393 3428 3419 3439 3412 3442 3412 3409 3419 3435 3408 3429 3426 3427 3444 3427 3438 3425 3421 3423 3424 3401 3424 3442 3416 3441 3443 3440 3470 3494 3401 3425 3398 3445 3452 3426 3414 3432 3429 3419 3385 3426 3423 3410 3425 3369 3438 3412 3424 3409 3437 3444 3421 3429 3411 3428 3445 3435 3447 3393 3399 3440 3424 3434 3398 3393 3402 3432 3453 3399 3438 3433 3437 3421 3464 3379 3399 3411 3398 3404 3445 3437 3430 3440 3404 3425 3426 3439 3442 3436 3381 3428 3422 3430 3411 3463 3434 3446 3440 3441 3425 3397 3423 3417 3404 3426 3423 3417 3449 3428

Tree=0
num_leaves=31
num_cat=0
split_feature=8 15 31 29 29 31 31 24 7 8 28 31 16 31 1 28 31 31 2 24 3 3 1 31 16 31 15 31 31 3
split_gain=1056.26 684.018 441.955 345.83 252.709 247.44 151.215 139.622 117.069 90.5417 120.79 86.1169 63.8844 80.1695 60.9887 60.5476 57.5884 49.8766 82.3061 49.8572 51.8755 45.6082 43.2984 43.3912 40.7737 39.1291 38.0995 36.1208 35.0998 34.9296
threshold=4.6673896312713632 467.01109313964849 5.8076336383819589 1.7123453617095949 2.6766798496246342 4.8554246425628671 6.029151678085328 2.7287944555282597 -0.049655909700645255 3.0691885948181157 1.5153882503509524 11.541790008544924 107.28450393676759 6.4602801799774179 0.50709770121728781 2.2687617540359502 5.8958771228790292 8.041262626647951 1.0000000180025095e-35 5.969975709915162 93.963928222656264 65.184051513671889 0.93255591595279774 3.4979377985000615 71.102470397949233 5.4820966720581064 73.295322418212905 7.1375329494476327 7.1927919387817392 80.235149383544936
decision_type=2 2 2 2 2 2 2 2 2 2 2 2 2 2 2 2 2 2 2 2 2 2 2 2 2 2 2 2 2 2
left_child=1 4 -2 6 5 8 19 -4 26 10 24 12 -5 -14 -6 -13 29 -12 21 -3 -21 -19 23 -10 28 -26 -1 -18 -7 -11
right_child=2 3 7 11 14 9 -8 -9 22 16 17 15 13 -15 -16 -17 27 18 -20 20 -22 -23 -24 -25 25 -27 -28 -29 -30 -31
leaf_value=-1.3815735887762273 -1.3812216728502762 -1.3695387166478101 -1.146792271777316 -1.3677007062883995 -1.3821918608931332 -1.3220261636003019 -1.1676873429676622 -1.3344180368349725 -1.3959049646866002 -1.2741542426504768 -1.3755330601015781 -1.1765493455143436 -1.3470820679241553 -1.1418880999107195 -1.4006179186282239 -1.3478507911295883 -1.1669688385499382 -1.3151611532750038 -1.385030649988096 -1.2819734205259046 -1.135595256282429 -1.1597209131203783 -1.4069136439294287 -1.3419547593732182 -1.3349871438902348 -1.173528514325358 -1.3556621135804399 -1.3369708858965346 -1.2160619235790047 -1.4170215097205401
leaf_weight=216.6525799036026 34.225295782089233 13.883846402168272 78.944196403026581 159.82567369937897 686.44319653511047 111.55509144067764 46.656181514263153 11.462245285511015 97.348364889621735 12.108005583286287 176.29256129264832 11.94656550884247 13.722406327724459 7.2648033499717704 1305.2430018782616 9.2020842432975751 15.821127295494081 10.009284615516664 19.534249007701874 48.916342556476593 6.9419232010841361 9.2020842432975751 345.64319938421249 60.217147767543793 5.9732827544212368 10.655044913291929 409.7349089384079 4.0360018610954276 8.3948838710784894 6.4576029777526847
leaf_count=1342 212 86 489 990 4252 691 289 71 603 75 1092 74 85 45 8085 57 98 62 121 303 43 57 2141 373 37 66 2538 25 52 40
internal_value=-1.37152 -1.37619 -1.22834 -1.30603 -1.38255 -1.3672 -1.23741 -1.17046 -1.37905 -1.33287 -1.34087 -1.34564 -1.35687 -1.27507 -1.39427 -1.25039 -1.26003 -1.36426 -1.31296 -1.28435 -1.2633 -1.23974 -1.39701 -1.37525 -1.30411 -1.23067 -1.36463 -1.20093 -1.31445 -1.32409
internal_weight=3954.31 3829.68 124.632 318.36 3511.32 1519.64 116.398 90.4064 1129.6 390.039 351.616 201.962 180.813 20.9872 1991.69 21.1486 38.4227 215.038 38.7456 69.7421 55.8583 19.2114 503.209 157.566 136.578 16.6283 626.387 19.8571 119.95 18.5656
internal_count=24494 23722 772 1972 21750 9413 721 560 6997 2416 2178 1251 1120 130 12337 131 238 1332 240 432 346 119 3117 976 846 103 3880 123 743 115
is_linear=0
shrinkage=1


Tree=1
num_leaves=31
num_cat=0
split_feature=33 31 29 31 33 31 2 3 7 2 28 3 29 3 3 31 26 28 31 1 31 1 28 38 28 34 34 31 31 34
split_gain=819.1 892.92 371.891 325.09 179.384 124.294 104.22 95.8265 89.5393 76.716 72.9967 63.3638 70.9302 63.2967 40.5775 50.2793 44.8396 38.8936 38.7387 36.0851 35.5724 43.2958 35.0184 32.7465 35.845 33.2855 33.6008 30.6184 30.1268 38.0872
threshold=0.71732258796691906 5.7800872325897226 2.3846949338912968 5.9297959804534921 0.25800412893295294 12.51772451400757 1.0000000180025095e-35 82.631389617919936 0.95808647758531007 1.0000000180025095e-35 1.3276586532592776 64.395797729492202 4.4099361896514901 43.237854003906257 93.070171356201186 3.4396425485610966 142.80500030517581 1.1820021867752077 7.4982073307037362 0.2365820663957437 6.2937951087951669 0.70439060227312555 1.4449113011360171 29.500000000000004 1.2146195173263552 -4.4463846683502188 3.333800315856934 5.2932419776916513 3.5536077022552495 3.0800255537033085
decision_type=2 2 2 2 2 2 2 2 2 2 2 2 2 2 2 2 2 2 2 2 2 2 2 2 2 2 2 2 2 2
left_child=2 -2 3 8 7 11 13 22 10 18 14 12 19 -7 15 16 -1 20 -9 -4 -13 -22 -5 25 -25 -14 -27 -10 -12 -30
right_child=1 -3 5 4 -6 6 -8 9 27 -11 28 17 23 -15 -16 -17 -18 -19 -20 -21 21 -23 -24 24 -26 26 -28 -29 29 -31
leaf_value=-0.0019599873934267307 -0.042542211531199664 0.18876783305247827 0.044606977020554141 0.066458437074580365 0.15424426795493162 0.013454909728426362 -0.020031543066733458 0.067856964262372393 -0.029478215191878293 -0.022040730454151582 -0.0091090901001409721 0.021465596714776394 -0.042782129488302165 0.15629473099717386 0.10838620501903121 0.046064901077491643 0.0739447608963512 -0.0060637722610005843 0.19805473120503539 -0.013148655016592771 0.015710122658236979 0.21906317304877301 0.0067739195240290708 -0.014011611333906644 -0.042030933541220478 0.0036791554597753748 -0.028183502677507018 0.039223934920854332 0.017458899292360799 -0.037867186361467124
leaf_weight=155.61289498209953 65.743488296866417 113.79157993197441 27.880030542612076 34.839270666241646 50.965275958180428 11.742160364985464 28.206468984484673 8.6098419129848498 202.11610926687717 7.502323478460311 334.75642853975296 42.10540534555912 114.77861906588078 23.33345827460289 15.552015691995619 161.67723780870438 22.118974208831787 194.48737548291683 18.694685384631157 783.01229198276997 5.0153661519288999 5.54686239361763 83.732409939169884 141.50383073091507 605.93240202963352 173.20453917980194 157.87139901518822 17.485810503363609 311.37264597415924 34.416100263595581
leaf_count=963 412 633 173 206 287 73 174 50 1269 46 2083 261 719 140 91 986 133 1208 104 4906 31 32 512 886 3801 1088 990 106 1919 212
internal_value=-0.000252888 0.104061 -0.0052191 0.0145444 0.0730139 -0.0176829 0.0513527 0.0459069 0.00501591 0.118769 0.0111695 -0.0196278 -0.0225738 0.108793 0.0295484 0.0258904 0.00749462 0.00424021 0.15758 -0.0111515 0.0423242 0.124025 0.0243941 -0.03033 -0.0367356 -0.0195745 -0.0115032 -0.0239697 0.00157307 0.0119285
internal_weight=3953.61 179.535 3774.07 1459.45 204.344 2314.62 63.2821 153.379 1255.11 34.8069 1035.51 2251.34 2004.18 35.0756 354.961 339.409 177.732 247.155 27.3045 810.892 52.6676 10.5622 118.572 1193.29 747.436 445.855 331.076 219.602 680.545 345.789
internal_count=24494 1045 23449 8967 1205 14482 387 918 7762 200 6387 14095 12563 213 2173 2082 1096 1532 154 5079 324 63 718 7484 4687 2797 2078 1375 4214 2131
is_linear=0
shrinkage=0.05


Tree=2
num_leaves=31
num_cat=0
split_feature=8 15 31 16 31 24 1 31 32 28 31 3 3 2 31 31 31 28 24 5 34 19 31 12 24 34 34 35 24 32
split_gain=769.917 539.666 263.17 228.887 144.277 76.2017 69.8818 91.5553 139.83 70.3239 69.6155 66.0247 57.1509 74.4661 46.91 55.4871 42.5858 40.6221 40.0643 36.9432 35.3622 32.3823 30.2826 29.1629 28.4171 28.116 36.0085 31.5285 41.0251 38.6407
threshold=4.6673896312713632 467.01109313964849 5.8076336383819589 58.994552612304695 6.1483447551727304 3.1080815792083745 0.91041103156745151 5.3412973880767831 0.39102043211460119 1.4120227098464968 2.0333166122436528 57.29370307922364 85.957183837890639 1.0000000180025095e-35 5.8076336383819589 8.041262626647951 2.9114540815353398 1.6008849740028384 5.0160222053527841 0.81534090909090928 1.8384692668914797 0.01892348658293486 12.51772451400757 -0.69907219368635476 3.1785087585449223 -4.5484135150909415 3.2691348791122441 2.201026558876038 3.9008961915969853 0.24913627654314044
decision_type=2 2 2 2 2 2 2 2 2 2 2 2 2 2 2 2 2 2 2 2 2 2 2 2 2 2 2 2 2 2
left_child=1 6 -2 22 10 -4 9 19 11 16 -5 17 25 -14 -10 -16 -1 -9 20 -8 -18 23 -3 -20 -19 -11 27 -27 29 -29
right_child=2 3 5 4 -6 -7 7 8 14 12 -12 -13 13 -15 15 -17 18 24 21 -21 -22 -23 -24 -25 -26 26 -28 28 -30 -31
leaf_value=-0.012153136562057557 -0.0082995269722632471 0.013462869397811009 0.16535950400080279 0.11892102324862618 0.15524760008557423 0.020267364346089278 -0.019018648653209364 0.013066045559500314 -0.012024772692728385 -0.035408304151999678 0.019241870988065055 0.054523612829532699 0.092495071222135669 -0.023298514314377062 0.14351996376079737 -0.033060977436927833 0.066688368304606213 -0.00059280802171121584 0.0062250169170858499 -0.038548223921727187 -0.014748718557909594 0.0037615680407106127 0.080284190969859504 0.075841556498231766 -0.049428550609332593 -0.02844217995848022 -0.028236073955467733 0.0056472289545154066 -0.01337836221841103 0.16246280578477548
leaf_weight=163.17145013809204 33.472698256373405 174.78987574577332 98.229397982358932 27.429193317890167 69.308627530932426 10.087330266833304 644.79377961158752 64.314156651496887 8.9474137425422651 121.60975524783134 48.715548470616341 34.775467723608017 30.037798866629601 25.584328278899193 28.431535705924034 5.1790349185466757 63.53781795501709 42.836252272129059 28.13198147714138 389.89609463512897 16.701962694525719 297.88308799266815 18.741320043802261 32.702509224414825 99.299757167696953 144.6788060516119 232.62402860820293 481.20564761757851 508.72496731579304 3.8637083768844596
leaf_count=1023 212 1063 499 158 357 61 4058 395 55 772 290 203 181 159 153 31 389 268 173 2494 102 1850 104 201 633 911 1474 3010 3193 22
internal_value=-0.000272834 -0.00453522 0.114086 0.055667 0.103046 0.151925 -0.0104211 -0.0194852 0.00565745 -0.00486077 0.0553232 -0.0090768 -0.0105007 0.0391979 0.0891163 0.116145 0.00963298 -0.0198354 0.0177437 -0.0263857 0.0496777 0.0105748 0.0199977 0.0437936 -0.0347566 -0.0123585 -0.010308 -0.0066382 -0.00345635 0.00693984
internal_weight=3949.71 3807.92 141.789 338.985 145.453 108.317 3468.93 1318.47 283.784 2150.46 76.1447 241.226 1548.33 55.6221 42.558 33.6106 602.129 206.45 438.957 1034.69 80.2398 358.718 193.531 60.8345 142.136 1492.71 1371.1 1138.47 993.794 485.069
internal_count=24494 23722 772 1972 805 560 21750 8290 1738 13460 448 1499 9722 340 239 184 3738 1296 2715 6552 491 2224 1167 374 901 9382 8610 7136 6225 3032
is_linear=0
shrinkage=0.05


Tree=3
num_leaves=31
num_cat=0
split_feature=8 15 31 16 31 33 1 31 28 8 31 28 31 33 26 31 3 7 34 26 31 21 39 32 31 34 34 16 37 28
split_gain=660.929 476.81 213.803 189.419 113.802 85.7952 66.5384 61.1963 57.4941 71.1451 56.4925 54.4391 53.618 53.8056 42.959 42.6 42.3293 36.9604 30.4474 28.1959 26.6082 26.0613 25.7774 27.2231 35.7024 25.1708 27.9646 23.7059 23.2123 22.8399
threshold=4.6673896312713632 467.01109313964849 5.4820966720581064 58.994552612304695 6.1483447551727304 0.33707325160503393 0.51091394027111747 3.3319280147552495 1.4586749076843264 3.2974206209182744 2.0333166122436528 1.3450328111648562 5.9975888729095468 0.35053879022598272 8.7049999237060565 5.2459850311279306 43.996084213256843 -0.068996059716186678 -6.5209972858428946 76.565002441406264 22.070661544799808 0.017033788375556472 1964.8529052734377 0.038490727543830879 22.070661544799808 3.1355882883071904 -4.5484135150909415 21.285532951354984 -0.28499399125576014 5.5725996494293222
decision_type=2 2 2 2 2 2 2 2 2 2 2 2 2 2 2 2 2 2 2 2 2 2 2 2 2 2 2 2 2 2
left_child=1 6 -2 22 10 -4 11 17 12 14 -5 -1 19 -14 20 -11 28 -8 -15 -9 -10 -18 23 24 27 26 -13 -3 -17 -28
right_child=2 3 5 4 -6 -7 7 8 9 15 -12 25 13 18 -16 16 21 -19 -20 -21 -22 -23 -24 -25 -26 -27 29 -29 -30 -31
leaf_value=0.021480475070999355 -0.022089112588628904 -0.00029660117606704865 0.022438337512932002 0.10595623622654149 0.13754335628230679 0.14792286328754886 -0.013946667460898258 0.0068452840989191126 -0.0070990795326698677 -0.020439771472007102 0.01807883068083526 -0.030638286785575071 0.017208795106154324 -0.029434968737263773 -0.027229547409279076 0.10833740464503655 0.13021602716266428 -0.035166767432934308 0.13699999195998455 -0.021599034188654567 0.098033201141660004 0.021736028304267969 -0.032600988495320032 0.0016188655919254431 0.13166770978975256 -0.023797372907831335 -0.0013593212625260444 0.051813909520483606 -0.012656677084630016 0.029943714137338918
leaf_weight=236.72993674874306 27.702560693025589 35.026513695716858 15.796441629528998 29.208321169018745 74.19174699485302 105.40327522158623 375.06802196800709 295.22995382547379 345.33360305428505 27.844864249229431 49.249255076050758 73.620713531970978 51.562125399708748 3.1465858966112163 609.32115037739277 4.7609105110168484 19.379657447338108 456.3394238203764 17.994126498699188 123.44236728549004 6.0204885303974143 7.9642745703458777 21.546178340911865 72.217609867453575 9.9168461859226209 155.68017975986004 550.46777790784836 56.977245450019836 21.20721073448658 65.045245334506035
leaf_count=1451 177 212 89 158 357 506 2378 1830 2174 179 290 473 315 19 3909 26 104 2954 96 788 34 46 131 435 51 995 3445 338 134 400
internal_value=-0.000284369 -0.00434179 0.103011 0.0513962 0.0931324 0.131641 -0.0099785 -0.0146771 -0.00874796 -0.0153982 0.0509509 0.00029 0.00534228 0.0449485 -0.0191996 0.0295064 0.0556764 -0.0256027 0.11197 -0.00153252 -0.00525602 0.0989963 0.0187822 0.0251836 0.0418138 -0.00564382 -0.00153269 0.031942 0.00966468 0.00194488
internal_weight=3943.39 3794.49 148.902 348.334 152.649 121.2 3446.16 2364.61 1533.21 1041.83 78.4576 1081.54 491.375 72.7028 960.675 81.1569 53.3121 831.407 21.1407 418.672 351.354 27.3439 195.684 174.138 101.921 844.814 689.134 92.0038 25.9681 615.513
internal_count=24494 23722 772 1972 805 595 21750 14986 9654 6606 448 6764 3048 430 6117 489 310 5332 115 2618 2208 150 1167 1036 601 5313 4318 550 160 3845
is_linear=0
shrinkage=0.05


Tree=4
num_leaves=31
num_cat=0
split_feature=29 31 19 3 15 31 19 1 31 29 32 31 15 24 24 1 31 11 5 3 31 3 34 34 31 1 1 36 24 32
split_gain=524.14 714.415 160.59 159.274 143.835 98.9416 109.961 97.8445 97.8998 90.6658 63.7582 55.0801 52.4325 38.3623 28.1183 27.4062 27.1583 27.0161 26.6678 26.015 26.0033 25.0441 23.8216 30.6957 28.6118 28.9816 23.0591 21.2705 20.2213 20.0958
threshold=1.7123453617095949 5.9975888729095468 0.32719852030277258 64.395797729492202 572.71649169921886 6.4991965293884286 0.17895324528217318 2.382566118024116 3.4396425485610966 4.4099361896514901 0.04114105552434922 9.6939144134521502 437.42816162109381 6.2112905979156503 8.2161774635314959 0.52327878263578642 9.0745458602905291 0.055465074256062515 0.64495798319327746 91.663322448730483 8.041262626647951 88.21002578735353 3.0800255537033085 -2.900495052337646 4.8345601558685312 0.97586923689945426 1.690989410915487 0.33020706474781042 5.8727309703826913 -0.19376412034034726
decision_type=2 2 2 2 2 2 2 2 2 2 2 2 2 2 2 2 2 2 2 2 2 2 2 2 2 2 2 2 2 2
left_child=1 4 12 9 7 18 10 8 14 13 11 -7 -3 16 21 -11 27 -15 29 -6 -4 -1 23 -10 25 -25 -23 -2 -9 -5
right_child=3 2 20 5 19 6 -8 28 22 15 -12 -13 -14 17 -16 -17 -18 -19 -20 -21 -22 26 -24 24 -26 -27 -28 -29 -30 -31
leaf_value=-0.014061238394567502 -0.025608356647572206 0.032667683109964311 0.13465797039184307 0.098248332450518672 0.06379505118369648 -0.0055414443378341231 0.13320779648287087 -0.040525437433462229 -0.0059051317244255448 -0.017333296809714585 -0.038111077914279423 0.099361902180811507 0.11620894616318818 -0.0087139714835918827 0.087673785696001955 -0.033117472076076661 0.066792682256449548 0.027448691950604193 -0.023162121736408432 0.14173192026624784 0.041144178231911778 0.083023853989166702 -0.0093742502253664449 0.03811244912888237 0.054609096438782104 -0.0014072014264109637 -0.041443507284704778 -0.0082019892775877182 0.048814376481432407 0.0082232705658982323
leaf_weight=359.53849649429321 240.62643925845623 84.958104178309441 153.06357030570507 6.3540692925453177 36.511529952287674 20.872234478592873 33.186736956238747 134.04233573377132 51.766696318984032 436.91292278468609 26.610995411872864 30.784803360700607 24.187719002366066 90.825710535049438 7.2233130484819403 751.98548078536987 10.705706924200056 119.03001236915588 80.699302703142166 15.576309666037558 8.0915586203336698 12.577276900410654 43.196388155221939 127.69686648249626 121.90156874060631 72.442702785134315 5.1349974423646918 654.32528132200241 6.5156706273555747 167.61007031798363
leaf_count=2301 1544 500 698 37 200 127 158 873 317 2792 164 165 118 564 45 4908 66 737 501 79 42 77 268 773 726 460 32 4156 38 1028
internal_value=-0.000289184 0.0262285 0.0982905 -0.012847 0.00662195 0.0177773 0.0570448 0.00214007 0.00889429 -0.0177152 0.0245581 0.0569499 0.0513164 -0.00746927 -0.00929428 -0.027323 -0.0119353 0.011777 0.000556373 0.087424 0.130022 -0.0111869 0.0256742 0.0297391 0.0354843 0.0237894 0.0466285 -0.01289 -0.0363167 0.0115947
internal_weight=3934.95 1264.43 270.301 2670.53 994.124 366.118 111.455 942.036 801.478 2304.41 78.268 51.657 109.146 1115.51 384.474 1188.9 905.657 209.856 254.663 52.0878 161.155 377.251 417.004 373.808 322.041 200.14 17.7123 894.952 140.558 173.964
internal_count=24494 7547 1358 16947 6189 2180 614 5910 4999 14767 456 292 618 7067 2455 7700 5766 1301 1566 279 740 2410 2544 2276 1959 1233 109 5700 911 1065
is_linear=0
shrinkage=0.05


Tree=5
num_leaves=31
num_cat=0
split_feature=33 31 29 15 29 31 31 1 5 2 28 38 34 34 31 1 31 11 28 35 38 16 31 34 32 29 38 34 3 35
split_gain=533.484 636.156 228.652 190.818 110.721 92.5197 92.4096 57.8848 54.2096 54.0197 48.0008 55.6158 45.9842 49.7045 42.3105 41.2316 44.198 41.33 52.9632 39.8258 39.7125 37.4841 36.1413 34.98 34.7382 31.2337 30.8748 30.8421 29.9269 27.4921
threshold=0.36230225861072546 5.6567072868347177 2.650039911270142 524.98736572265636 8.028508663177492 3.5536077022552495 12.51772451400757 0.21256889613346849 0.40588235294117653 1.0000000180025095e-35 1.2146195173263552 29.500000000000004 -4.4463846683502188 3.5971024036407475 3.3319280147552495 1.1890333601099812 6.6285204887390146 0.77388921380043041 1.4774423241615298 5.2672269344329843 60.500000000000007 26.607594490051273 6.4217655658721933 2.9109526872634892 -0.021476117894053456 4.2508051395416269 55.500000000000007 -2.6218012571334834 45.018720626831062 8.8068976402282733
decision_type=2 2 2 2 2 2 2 2 2 2 2 2 2 2 2 2 2 2 2 2 2 2 2 2 2 2 2 2 2 2
left_child=2 19 3 5 29 8 7 14 -1 28 20 12 -12 27 -4 17 -17 18 -7 -2 22 -5 -9 -20 -15 -13 -10 -14 -8 -3
right_child=1 4 6 21 -6 15 9 10 26 -11 11 25 13 24 -16 16 -18 -19 23 -21 -22 -23 -24 -25 -26 -27 -28 -29 -30 -31
leaf_value=0.0088349234969284478 -0.042102601170049797 0.11937241211775801 0.092342443145969302 0.017257042279023291 -0.026609643276841941 0.035789230820233824 0.011651338511554539 0.011302202992737098 -0.013750086342802382 -0.013581954675996339 -0.04027223709406616 -0.019980762741501554 -0.019657256675090527 0.13267330354977758 0.0034959479275531802 -0.015879623423370248 0.065249414883893117 0.067433446885010059 0.01021433259905547 0.0079575552065692147 -0.018835263895064319 0.088356759915747235 0.11547064521183577 -0.042328388343475382 -0.030319344777783808 -0.039303378860523833 -0.04603227001813677 0.013934913170348694 0.11212737103090481 0.043098365130963545
leaf_weight=231.29043334722519 96.706829473376274 211.21336142718792 16.366397231817245 24.135683387517929 14.606442183256148 230.51158753037453 10.687953367829321 115.22216837108135 313.93397988379002 24.555636987090111 128.92362734675407 323.33357848227024 94.758816674351692 3.2195716798305503 72.741012200713158 146.31500594317913 18.849881738424301 45.598694518208504 261.38777063786983 67.091548845171928 158.78626976907253 83.415689960122108 8.8986963331699354 35.925077795982361 186.25107212364674 601.05963496863842 97.25379341840744 243.73198917508125 25.159891068935394 12.89131188392639
leaf_count=1450 645 960 102 136 88 1345 67 726 2048 153 861 2085 610 20 458 925 103 264 1590 422 1005 418 49 230 1228 3975 639 1569 126 68
internal_value=-0.000229765 0.054277 -0.00649684 0.00835944 0.106333 0.00335762 -0.0174816 -0.0193676 -0.0105125 0.0433553 -0.0212509 -0.0246447 -0.013505 -0.00695281 0.0199557 0.0154294 -0.00655642 0.0217708 0.0178045 -0.0215752 -0.00226208 0.0724785 0.0188976 0.00383655 -0.0274548 -0.032553 -0.0214069 0.00451316 0.0824255 0.115028
internal_weight=3904.82 402.509 3502.31 1488.62 238.711 1381.07 2013.7 1953.29 642.478 60.4035 1864.19 1581.28 656.885 527.961 89.1074 738.588 165.165 573.423 527.824 163.798 282.907 107.551 124.121 297.313 189.471 924.393 411.188 338.491 35.8478 224.105
internal_count=24365 2183 22182 9148 1116 8594 13034 12688 4137 346 12128 10348 4288 3427 560 4457 1028 3429 3165 1067 1780 554 775 1820 1248 6060 2687 2179 193 1028
is_linear=0
shrinkage=0.05


Tree=6
num_leaves=31
num_cat=0
split_feature=8 15 31 29 29 31 1 33 15 33 31 32 31 1 39 7 38 1 32 34 24 24 25 31 3 29 13 38 9 31
split_gain=482.532 380.659 173.525 171.199 140.113 97.3444 114.994 74.9422 53.2749 49.4279 41.7125 42.2219 41.3422 38.1792 58.099 36.824 36.2416 35.2511 35.1508 30.8775 26.2286 25.7798 25.4024 25.2204 22.131 21.7389 21.5426 20.2075 20.1621 19.4602
threshold=4.29020118713379 457.92652893066412 5.8607802391052255 4.2026333808898935 1.7123453617095949 5.9297959804534921 0.91041103156745151 0.37460504472255712 69.396816253662124 0.25800412893295294 8.3754739761352557 -0.011525997426360844 5.7800872325897226 0.48730044813530754 1808.2006835937502 -0.1084065440869918 45.500000000000007 0.20562467340505755 -0.021476117894053456 -4.5484135150909415 6.5538189411163339 3.325623750686646 0.93933823529411775 3.4396425485610966 62.685159683227546 0.16246875375509265 1.0000000180025095e-35 40.500000000000007 0.324561403508772 30.93304538726807
decision_type=2 2 2 2 2 2 2 2 2 2 2 2 2 2 2 2 2 2 2 2 2 2 2 2 2 2 2 2 2 2
left_child=1 3 -2 5 12 6 8 10 27 -4 -7 -12 18 -6 20 -8 17 23 25 -19 -15 -17 -22 -5 26 -3 -13 -1 -20 -18
right_child=2 4 9 16 13 7 15 -9 -10 -11 11 24 -14 14 -16 21 29 19 28 -21 22 -23 -24 -25 -26 -27 -28 -29 -30 -31
leaf_value=0.0010684695449038094 -0.0053341673919565444 0.14587917167342354 0.011773312876737078 0.13799815361358747 -0.0022313627456763967 0.0058630256514200169 -0.0040197984366358783 0.10020358920351696 0.012331466299597889 0.11417207412111008 0.094885057289815972 0.15720605230364665 0.10462482991198448 -0.0068429605970341994 -0.027133414364712567 -0.038949261563719417 -0.035300102173079759 -0.042846446577668368 0.067055479523009595 -0.014281841951639465 0.094487293195393882 -0.016514307734957396 0.030412946565711377 0.014946260530563305 -0.048134907395385035 0.06163509721291574 0.011840248957381385 -0.024532565920877464 -0.026259019335023011 0.075968226477588163
leaf_weight=147.40946905314922 47.516866698861122 9.1595307886600477 13.107686892151831 5.1235572099685696 120.10729378461838 180.85022580623627 241.92750100791454 30.940606698393822 769.21407128870487 129.88424842059612 30.405542686581612 3.307339325547221 76.860193774104118 12.425419613718985 25.227622240781784 256.26789225637913 528.28416070342064 115.06932383775711 8.5885666310787219 538.79920122027397 43.904799267649651 258.54047678411007 24.472643449902534 21.336890980601311 10.453224524855612 51.098978504538536 10.555188342928885 160.61602041125298 17.196180239319801 3.8404940813779822
leaf_count=932 307 46 78 31 719 1097 1532 143 4739 560 163 20 338 68 155 1736 3538 793 48 3572 230 1701 137 137 63 259 64 1036 100 23
internal_value=-0.000238351 -0.00423407 0.077342 -0.00972996 0.0425446 -0.00109172 -0.00519766 0.0271355 0.0052923 0.104835 0.0174789 0.0556965 0.0778929 0.0170354 0.0388888 -0.0201358 -0.0246896 -0.0170258 0.0538622 -0.0193221 0.0595716 -0.0276974 0.0717057 0.039391 0.00630068 0.0747438 0.0477574 -0.0122683 0.00476865 -0.0344735
internal_weight=3892.49 3701.98 190.509 3312.94 389.041 2100.49 1833.98 266.512 1077.24 142.992 235.572 54.7213 162.903 226.138 106.03 756.736 1212.45 680.329 86.0433 653.869 80.8029 514.808 68.3774 26.4604 24.3158 60.2585 13.8625 308.025 25.7847 532.125
internal_count=24365 23420 945 21320 2100 13226 11676 1550 6707 638 1407 310 791 1309 590 4969 8094 4533 453 4365 435 3437 367 168 147 305 84 1968 148 3561
is_linear=0
shrinkage=0.05


Tree=7
num_leaves=31
num_cat=0
split_feature=33 31 3 2 28 31 38 38 34 34 2 31 2 34 1 1 31 31 1 15 3 31 18 28 39 25 28 27 23 5
split_gain=429.829 488.87 180.541 152.659 99.6577 77.3773 67.5085 66.9162 67.1205 98.2501 94.3232 63.3595 57.3963 51.9784 51.4753 44.7006 42.9306 39.5758 39.3093 33.0491 29.0113 28.6003 26.1332 30.532 25.1071 22.9683 22.8696 25.9983 24.6871 22.2346
threshold=0.36230225861072546 5.3412973880767831 84.555599212646499 1.0000000180025095e-35 1.4586749076843264 8.1932497024536151 52.500000000000007 28.500000000000004 -2.743648767471313 3.0800255537033085 1.0000000180025095e-35 5.7800872325897226 1.0000000180025095e-35 -2.1049129962921138 4.0023730919554241 1.0930193686507526 5.9975888729095468 7.6130082607269296 0.78863941652496139 540.87219238281261 87.687561035156264 30.93304538726807 22.899999618530277 1.1820021867752077 1356.1453247070315 0.46862745098039221 1.0803368091583254 0.37500000000000006 0.022000014781951908 0.89181286549707617
decision_type=2 2 2 2 2 2 2 2 2 2 2 2 2 2 2 2 2 2 2 2 2 2 2 2 2 2 2 2 2 2
left_child=2 19 4 5 6 14 11 8 10 15 -6 18 -11 -3 24 -10 20 -18 -1 -2 -15 25 23 -13 26 -9 -4 -28 -29 -20
right_child=1 13 3 -5 7 -7 -8 21 9 12 -12 22 -14 16 -16 -17 17 -19 29 -21 -22 -23 -24 -25 -26 -27 27 28 -30 -31
leaf_value=0.020444873118265858 -0.03564201756316434 0.019407399149943563 0.089583443798415111 -0.027089740561812098 -0.031342684701049554 0.11638150836737769 -0.010187573952692298 -0.018112076758787676 0.027060916918677957 0.15066108085277183 0.1803019563862274 0.11188807503817998 -0.026434611132444559 0.077568523977581974 -0.038861275814159719 -0.010421732969878203 0.11014805824400803 0.028123273688411055 0.0016742401886046311 0.056539432599871521 -0.0084988295873050859 0.045671342100610093 0.1368399786022893 0.021254546597835357 -0.032633579158381575 -0.032389302781001487 0.012303459625643408 0.021075612737517475 0.11300432250637643 -0.035310458888381788
leaf_weight=318.32843048870564 127.3670200407505 26.063814014196396 39.241552218794823 70.173034280538559 255.7515712082386 45.272484466433525 540.00861246883869 628.61325976252556 312.24267663061619 4.56221880018711 5.2703501880168906 13.214967355132101 229.78449942171574 28.747464746236801 17.567180514335632 106.43297010660172 187.15110465884209 16.228732451796532 183.60368449985981 10.398045212030409 14.644559442996977 14.548911795020102 10.327984452247618 31.628569692373276 7.8717279881238928 515.21059454977512 36.264227643609047 12.680657893419268 17.809062317013741 52.007076427340508
leaf_count=1955 876 141 197 430 1702 207 3395 4123 1943 27 34 70 1536 156 117 699 790 82 1177 56 82 80 61 189 46 3457 212 74 102 349
internal_value=-0.000241134 0.0481252 -0.00596954 0.0352257 -0.00912905 0.0600017 0.00267712 -0.0156776 -0.00555521 0.00300484 -0.0269828 0.0140904 -0.0229028 0.0868874 0.04047 0.0175202 0.0939836 0.103644 0.00898469 -0.0286122 0.0484536 -0.0236594 0.0651534 0.0482642 0.0527763 -0.0245496 0.0591912 0.0411429 0.0751286 -0.00647981
internal_weight=3879.02 410.601 3468.42 246.88 3221.54 176.707 1149.12 2072.42 914.044 653.022 261.022 609.111 234.347 272.836 131.434 418.676 246.772 203.38 553.939 137.765 43.392 1158.37 55.1715 44.8435 113.867 1143.82 105.996 66.7539 30.4897 235.611
internal_count=24365 2183 22182 1385 20797 955 7196 13601 5941 4205 1736 3801 1563 1251 748 2642 1110 872 3481 932 238 7660 320 259 631 7580 585 388 176 1526
is_linear=0
shrinkage=0.05


Tree=8
num_leaves=31
num_cat=0
split_feature=8 15 29 31 29 35 31 1 28 39 33 24 38 28 1 28 39 1 1 2 8 31 35 29 32 29 38 1 31 31
split_gain=391.537 311.016 154.448 133.087 112.819 90.2327 55.978 86.8273 63.8198 61.492 36.0219 34.7741 34.5722 34.9705 31.9079 31.7094 37.6004 38.8538 29.9073 27.4799 30.993 28.159 25.5462 25.081 25.8432 24.4723 23.2901 23.2259 20.4385 20.1352
threshold=4.29020118713379 457.92652893066412 4.2026333808898935 5.8607802391052255 1.7123453617095949 2.3755122423172002 5.9975888729095468 0.91041103156745151 1.4248893857002261 1400.1772460937502 0.25800412893295294 5.7992093563079843 45.500000000000007 1.1886910796165469 0.20562467340505755 1.1633936762809756 1820.0407714843752 0.46103199305000847 4.2220542995804387 1.0000000180025095e-35 2.4737873077392583 8.041262626647951 6.5375480651855478 2.3846949338912968 0.22344898432493213 0.45015938580036169 58.500000000000007 0.29788510177290045 3.4396425485610966 4.9198448657989511
decision_type=2 2 2 2 2 2 2 2 2 2 2 2 2 2 2 2 2 2 2 2 2 2 2 2 2 2 2 2 2 2
left_child=1 2 5 -2 11 29 7 23 -8 19 -5 -3 14 26 28 16 17 -6 -9 21 -21 -10 -19 24 -7 -11 -14 -13 -4 -1
right_child=3 4 12 10 15 6 8 18 9 25 -12 27 13 -15 -16 -17 -18 22 -20 20 -22 -23 -24 -25 -26 -27 -28 -29 -30 -31
leaf_value=-0.031301976307513871 -0.0044643547716023057 0.0034324210330566201 0.12244757031883768 0.012200977007599818 0.0048160694065884878 0.014742942224449621 0.067124358699579598 -0.011513191457310709 0.017743124814585117 0.067096318088873216 0.099754261892103666 0.015564721900802199 0.031258408042547869 -0.039701672267576441 -0.018135011177523305 -0.0047848169039478982 -0.021472451492702702 -0.020640576021341419 -0.053414803279714367 -0.009886628538444079 0.10327472208078435 0.10801208681013352 0.082314950090551092 -0.00049909985464567121 0.10015172272952924 -0.022146139132312809 -0.021711567439419294 0.083118687381409165 0.014700303260290912 0.022436405737712849
leaf_weight=254.18121436238289 46.906548783183098 18.291074752807617 5.5057679414749172 13.045392841100691 35.256522133946419 549.82090689241886 66.742903903126717 586.31982193887234 13.928921535611151 8.2322511225938779 134.83863089978695 14.296053141355513 28.405645966529846 411.7406075745821 640.41437797248363 107.66408605873585 25.389962047338486 6.6536303013563147 45.930141314864159 28.983558744192123 7.5256572514772406 23.502403184771538 54.1292894333601 380.2652922719717 8.9283914268016797 95.766574397683144 75.865122005343437 136.18075302243233 21.370280608534813 18.53425507247448
leaf_count=1726 307 104 31 78 207 3326 353 3876 83 48 560 75 185 2870 4365 638 156 37 329 176 34 114 271 2408 50 596 506 612 137 107
internal_value=-0.000244223 -0.00391291 -0.00899022 0.0688142 0.0378214 -0.000810918 0.00321446 -0.000247195 0.0254554 0.00976891 0.0920781 0.0688389 -0.0234221 -0.0331499 -0.0158883 0.0149297 0.0324401 0.0467525 -0.014573 0.0446142 0.0135212 0.0746913 0.0709474 0.00939376 0.0161343 -0.0149763 -0.00721735 0.0767485 0.0373306 -0.0276246
internal_weight=3864.62 3669.83 3271.96 194.791 397.861 2088.66 1815.95 1571.26 244.682 177.939 147.884 168.768 1183.3 516.011 667.29 229.093 121.429 96.0394 632.25 73.9405 36.5092 37.4313 60.7829 939.015 558.749 103.999 104.271 150.477 26.876 272.715
internal_count=24365 23420 21320 945 2100 13226 11393 9989 1404 1051 638 791 8094 3561 4533 1309 671 515 4205 407 210 197 308 5784 3376 644 691 687 168 1833
is_linear=0
shrinkage=0.05


Tree=9
num_leaves=31
num_cat=0
split_feature=33 31 29 15 29 31 31 7 1 31 2 28 38 31 35 21 35 38 1 31 24 29 38 31 3 28 35 39 31 38
split_gain=353.186 394.881 176.559 115.774 75.4858 72.1995 71.9753 53.5964 48.4892 40.0147 39.1274 39.0435 51.1418 34.7721 32.7372 32.431 31.6242 30.8629 30.3008 31.3556 29.5882 28.0215 25.6 24.3861 23.3485 23.2702 30.8283 23.2634 22.6619 22.2936
threshold=0.36230225861072546 5.3412973880767831 2.650039911270142 524.98736572265636 8.3435435295104998 12.51772451400757 3.5536077022552495 -0.39214438827844111 0.21256889613346849 5.9975888729095468 1.0000000180025095e-35 1.2281655073165896 29.500000000000004 6.7166330814361581 6.182140827178956 0.0079559935256838816 6.9260520935058603 60.500000000000007 1.1890333601099812 6.6285204887390146 7.1972825527191171 4.9276463985443124 55.500000000000007 9.0745458602905291 87.687561035156264 1.4774423241615298 4.3220958709716806 1875.8984375000002 8.5683336257934588 54.500000000000007
decision_type=2 2 2 2 2 2 2 2 2 2 2 2 2 2 2 2 2 2 2 2 2 2 2 2 2 2 2 2 2 2
left_child=2 16 3 6 9 8 7 15 13 24 -7 17 14 -4 -13 -1 -2 20 25 -20 -10 -14 -9 -11 -3 -8 29 -22 -28 -27
right_child=1 4 5 -5 -6 10 18 22 11 23 -12 12 21 -15 -16 -17 -18 -19 19 -21 27 -23 -24 -25 -26 26 28 -29 -30 -31
leaf_value=-0.014273366376052738 -0.04093211480600021 0.064788090519617633 0.035155366346598708 0.055169784904666355 -0.035778305573086276 0.069031198779631306 0.031149295627822496 -0.013884734363418179 -0.011938887424452593 0.095555650896712807 -0.012222676214124388 0.0023481862885584306 -0.020816390732594645 -0.039312509748335972 -0.020790478388627687 0.022593977607090948 0.01593664115044368 -0.017384138632829289 -0.013655159550506835 0.052873659445842242 0.051450413926883078 -0.038936271952948687 -0.044870192104984254 0.0020253634550865432 -0.0098863717371490099 0.048893638853539229 -0.0031869436966644317 -0.009699645858450583 0.047082527451688214 -0.0079832053669546144
leaf_weight=95.650975599884987 101.53796344995499 34.205176264047623 70.167743757367134 116.94333964586258 13.932096064090727 38.069955512881279 239.05185921490192 288.38509064912796 58.235182404518127 209.27671252191067 24.020858898758888 254.76606129109859 413.16407157480717 20.032077312469482 380.66539837419987 157.70720230042934 31.981985867023468 158.6918153911829 141.31982454657555 20.131383195519447 57.565702214837074 446.15309901535511 87.041763707995415 7.3267018347978583 14.874173298478125 71.599289834499359 228.22591461241245 21.083467751741409 24.752423375844955 22.455668687820435
leaf_count=603 729 182 432 554 85 193 1345 1940 370 865 153 1674 2792 128 2603 984 203 1035 925 103 342 3177 610 36 83 426 1385 135 137 136
internal_value=-0.000244285 0.0434273 -0.00549798 0.00742718 0.0772024 -0.0154358 0.00336324 -0.00909833 -0.0171898 0.083157 0.0375473 -0.0189935 -0.0222771 0.0185365 -0.0115066 0.00865549 -0.0272712 -0.00236902 0.0138517 -0.00530112 0.0150017 -0.0302334 -0.021092 0.0924174 0.0420812 0.0191363 0.0108403 0.0350029 0.00172853 0.0352671
internal_weight=3849.01 413.135 3435.88 1493.26 279.615 1942.62 1376.32 628.785 1880.52 265.683 62.0908 1790.32 1494.75 90.1998 635.431 253.358 133.52 295.576 747.536 161.451 136.884 859.317 375.427 216.603 49.0793 586.085 347.033 78.6492 252.978 94.055
internal_count=24365 2183 22182 9148 1251 13034 8594 4137 12688 1166 346 12128 10246 560 4277 1587 932 1882 4457 1028 847 5969 2550 901 265 3429 2084 477 1522 562
is_linear=0
shrinkage=0.05


Tree=10
num_leaves=31
num_cat=0
split_feature=8 15 29 29 29 36 1 1 32 16 28 7 38 34 2 34 39 24 15 28 38 38 34 28 28 3 2 3 23 38
split_gain=337.306 242.343 129.301 111.922 95.3231 69.1466 66.6453 51.1058 42.0712 31.4418 29.0188 28.5962 28.407 29.7755 56.1304 32.5359 27.5755 26.5746 25.1857 24.7472 33.7377 24.3663 25.7055 23.8719 23.7946 23.8898 65.5105 23.438 22.3901 21.0053
threshold=3.9546096324920659 524.98736572265636 2.9475910663604741 3.9201580286026005 1.6553367972373965 0.20031446963548663 3.6063305077709802 0.41504838213009004 0.42392663657665258 52.676342010498054 1.3344519138336184 -0.089005997541130158 44.500000000000007 -3.1739140748977657 1.0000000180025095e-35 3.5274252891540532 1599.3275146484377 5.8727309703826913 185.52619934082034 1.2659162878990176 51.500000000000007 31.500000000000004 -5.4885568618774405 1.9864840507507326 1.3641711473464968 70.772388458251967 1.0000000180025095e-35 18.812461853027347 0.16000002622604373 29.500000000000004
decision_type=2 2 2 2 2 2 2 2 2 2 2 2 2 2 2 2 2 2 2 2 2 2 2 2 2 2 2 2 2 2
left_child=1 2 5 -2 -3 -1 11 10 23 -6 -4 24 13 14 -9 28 -11 -8 -13 20 -14 22 -12 -5 27 -26 -27 -7 29 -15
right_child=3 4 7 8 9 6 17 12 -10 16 21 18 19 15 -16 -17 -18 -19 -20 -21 -22 -23 -24 -25 25 26 -28 -29 -30 -31
leaf_value=-0.021660762679186804 0.082324717599531722 0.071235067641660474 0.022369980578643638 0.075232473845300962 0.0011495662518538183 0.056982792079542315 -0.047429028710188635 -0.039380022596352544 0.076584086164342063 0.06481818106822855 -0.042143034526567986 -0.0070974368303981308 0.029208953044726978 0.008103334237405932 0.17224798333861441 -0.029238243701125568 -0.015194438453550228 0.061181342102274328 0.018277847895984557 -0.038385964425535553 -0.026209314524215661 -0.023985267596321455 0.0098087267394869788 -0.021067425624958877 0.0045584453817708879 0.078338844364706589 -0.013197869765026014 0.019817099500478781 0.1239236331893004 -0.016620380675410943
leaf_weight=259.25685779005289 155.65586273372173 127.30637861788273 88.272160559892654 7.1707339435815802 128.02256639301777 53.695790573954582 70.492787420749664 153.33507132530212 18.075402587652206 44.265237092971802 27.699758052825928 359.74797205626965 33.50164657831192 192.22407321631908 3.093243956565856 153.69482132792473 14.052179947495459 5.9965392202138892 134.16647091507912 388.67660813033581 148.92668145895004 161.34737330675125 165.41218404471874 55.19667287170887 448.33795386552811 40.715849846601486 37.30903485417366 206.32502084970474 3.4131438732147208 155.01393814384937
leaf_count=1734 689 558 556 47 753 312 519 1094 84 203 196 2343 221 1252 19 1080 82 27 809 2804 998 1099 1072 363 2764 220 225 1182 23 1091
internal_value=-0.000297686 -0.00409217 -0.00809648 0.0575852 0.0378928 0.00199004 0.00651422 -0.0178328 0.00960959 0.0150607 -0.00324859 0.00922698 -0.0230695 -0.0159912 -0.0350559 -0.0100624 0.0454597 -0.0387802 -0.000192092 -0.0312462 -0.0159943 -0.00964708 0.00231299 -0.00981253 0.0151486 0.00901854 0.034544 0.0275302 -0.00163713 -0.00292103
internal_weight=3840.4 3604.3 3290.65 236.099 313.646 1616.04 1356.79 1674.61 80.4428 186.34 442.731 1280.3 1231.88 660.774 156.428 504.346 58.3174 76.4893 493.914 571.105 182.428 354.459 193.112 62.3674 786.384 526.363 78.0249 260.021 350.651 347.238
internal_count=24419 23236 21640 1183 1596 10135 8401 11505 494 1038 2923 7855 8582 4559 1113 3446 285 546 3152 4023 1219 2367 1268 410 4703 3209 445 1494 2366 2343
is_linear=0
shrinkage=0.05


Tree=11
num_leaves=31
num_cat=0
split_feature=8 29 31 31 28 19 35 28 38 38 24 31 33 34 34 7 16 2 1 31 28 38 11 31 29 18 31 2 35 16
split_gain=302.744 178.612 179.565 112.318 76.0163 74.5265 68.7963 50.5781 66.1635 50.2553 44.4544 42.8165 41.4128 34.5061 42.0731 32.6737 32.1245 30.0495 29.922 29.06 28.6565 27.5423 26.6829 23.773 39.2289 23.4643 34.9663 35.4447 28.159 22.7408
threshold=3.9546096324920659 2.3846949338912968 5.7800872325897226 5.8076336383819589 1.1698571443557741 0.78751900792121898 2.3755122423172002 1.1886910796165469 44.500000000000007 58.500000000000007 8.9440736770629901 6.3714060783386239 0.25800412893295294 -5.4885568618774405 3.5971024036407475 -1.0901986462624118 102.91300582885744 1.0000000180025095e-35 0.28406156941636784 30.93304538726807 1.5629401206970217 52.500000000000007 0.095087401568889632 5.6282815933227548 6.2701127529144296 119.64999771118165 7.4982073307037362 1.0000000180025095e-35 6.9957456588745126 77.257961273193374
decision_type=2 2 2 2 2 2 2 2 2 2 2 2 2 2 2 2 2 2 2 2 2 2 2 2 2 2 2 2 2 2
left_child=1 2 5 -2 -4 6 -1 9 13 11 -8 15 -5 -9 18 -3 -11 -16 -15 20 21 22 -10 -24 -25 26 28 -28 -6 -29
right_child=3 7 4 12 25 -7 10 8 19 16 -12 -13 -14 14 17 -17 -18 -19 -20 -21 -22 -23 23 24 -26 -27 27 29 -30 -31
leaf_value=-0.025798499077068104 -0.00094637756264570594 0.094491108209399058 0.084468183599356317 0.0071437871339070829 0.022981816562769885 -0.04108696016739305 0.0065121755401619926 -0.038186301503980863 -0.027256802226538049 -0.016899060685800254 0.046199601960713696 0.10351880296169563 0.084540104326367313 0.028218867300130991 0.082243691049304693 0.0083557845244176254 0.056726453550965263 -0.028298541255088072 -0.0039045410054822311 0.043004626118118956 -0.039504212325670508 -0.033169070886956135 0.005790937339154683 0.15848983784650772 -0.045493959437699384 0.087322911979644008 0.083127877681606649 0.038682402010361411 -0.031422822873479299 -0.059934868148439568
leaf_weight=159.20878645032644 66.094867572188377 12.210333719849585 86.986165091395378 19.686094164848328 71.345058336853981 96.505061648786068 899.34558014571667 91.93474668264389 62.459417819976807 193.18266162276268 76.543591409921646 16.35469414293766 151.77131059765816 81.460510388016701 6.2113250195980063 106.60646131634712 15.923960275948046 216.23130610585213 651.58908535540104 13.640761062502859 377.98164343088865 157.17778866738081 69.726035840809345 6.6275144368410093 3.5217384099960327 15.161376297473906 37.236577153205872 18.532381758093837 35.517756551504135 8.4027397334575635
leaf_count=1109 436 72 371 121 404 702 5542 673 429 1255 379 72 626 504 33 655 84 1521 4375 71 2753 1089 484 40 23 67 177 106 200 46
internal_value=-0.000294641 -0.00391613 0.00920693 0.0543564 0.0458729 0.00106691 0.0046585 -0.0133995 -0.0168671 0.00409692 0.00963459 0.0278566 0.0756922 -0.00893558 -0.00611223 0.0173216 -0.011244 -0.0251538 -0.000324629 -0.0288773 -0.0303381 -0.0187445 -0.00276854 0.016328 0.0874674 0.0277797 0.0224243 0.0515755 0.00484025 0.0076247
internal_weight=3825.18 3587.63 1504.79 237.552 273.182 1231.6 1135.1 2082.84 1738.56 344.278 975.889 135.171 171.457 1047.43 955.492 118.817 209.107 222.443 733.05 691.135 677.494 299.512 142.335 79.8753 10.1493 186.196 171.035 64.1717 106.863 26.9351
internal_count=24419 23236 9103 1183 1371 7732 7030 14133 11995 2138 5921 799 747 7106 6433 727 1339 1554 4879 4889 4818 2065 976 547 63 1000 933 329 604 152
is_linear=0
shrinkage=0.05


Tree=12
num_leaves=31
num_cat=0
split_feature=8 15 29 31 31 29 1 7 31 1 29 31 28 29 8 16 38 34 32 34 32 39 28 38 31 34 19 29 36 31
split_gain=273.152 200.386 109.669 101.052 95.7561 76.7149 46.6298 43.8724 42.608 41.8655 37.7265 30.2555 26.7827 30.9742 28.2185 25.8378 25.5127 27.7492 51.9053 29.1376 24.5248 23.0443 22.6198 29.7633 26.096 22.4512 22.1521 21.9576 21.5416 21.4129
threshold=3.9546096324920659 524.98736572265636 2.9475910663604741 5.8076336383819589 3.3319280147552495 1.6553367972373965 0.41504838213009004 -0.068996059716186678 6.4602801799774179 2.382566118024116 7.6388983726501474 4.6401395797729501 1.6195238232612612 1.6287364959716799 2.3174606561660771 52.676342010498054 44.500000000000007 -3.1739140748977657 0.05255143158137799 4.3752684593200692 -0.11825498193502425 1599.3275146484377 1.2659162878990176 51.500000000000007 4.9198448657989511 3.0800255537033085 0.18926781415939334 5.1822919845581064 0.19560386240482333 9.6939144134521502
decision_type=2 2 2 2 2 2 2 2 2 2 2 2 2 2 2 2 2 2 2 2 2 2 2 2 2 2 2 2 2 2
left_child=1 2 4 -2 7 -3 11 28 9 12 -5 20 13 -6 25 -7 17 18 -8 -19 -4 -17 23 24 -18 -14 -10 29 -1 -13
right_child=3 5 6 10 8 15 16 -9 26 -11 -12 27 14 -15 -16 21 22 19 -20 -21 -22 -23 -24 -25 -26 -27 -28 -29 -30 -31
leaf_value=-0.019213923535757533 -0.00089966333999146053 0.063692910927584445 0.12151200403636855 0.078407734555149683 0.030742161687329201 0.00096585048810238444 -0.038088508248045161 -0.028175850769625733 0.024416348916048887 -0.027951359500849565 -0.010758024979172694 -0.0028481594326267182 -0.0011150343680891043 0.0035462627925190297 0.035953995256466212 0.058274827535120949 0.011492880147448786 -0.0028293615149992835 0.16208880194853137 -0.0321652597055457 0.008467264020621203 -0.014873391378886977 -0.036665316421824239 -0.024873622319835947 0.15247965199941693 -0.049359594163509685 0.068566683059525763 -0.027122623455798512 0.0074242974436273647 0.085675022090701797
leaf_weight=114.00690989196301 66.056653045117855 129.94803430140018 4.8235320746898642 159.05456775426865 243.31282176077366 127.9965595304966 147.94030255824327 281.76651386916637 104.1207861751318 77.015923269093037 12.688581466674803 78.957837402820587 270.69775342941284 184.56160126626492 47.705580204725266 45.197931841015816 30.620350241661072 389.59027427434921 3.2049324065446845 108.22162418067455 203.92420290410519 13.946624830365179 370.65212490409613 145.11821088194847 3.596137434244155 26.4017014503479 39.444856598973274 143.37310937047005 226.34170646965504 7.3704318404197684
leaf_count=760 436 558 32 672 1387 753 1095 2034 576 543 75 518 1683 1101 285 203 200 2655 18 791 1338 82 2804 998 21 178 182 995 1406 40
internal_value=-0.000290435 -0.00374872 -0.00744894 0.0515841 0.00179154 0.0341836 -0.0165678 -0.0135855 0.0114282 0.00716189 0.0717885 -0.0026011 0.0106714 0.0190266 0.00028628 0.013643 -0.0216705 -0.0149366 -0.0337065 -0.00922205 0.0111603 0.0409457 -0.029603 -0.0149662 0.0268574 -0.00543427 0.0366208 -0.0151283 -0.00148707 0.0047422
internal_weight=3807.66 3569.86 3252.77 237.8 1615.38 317.089 1637.39 622.115 993.261 849.695 171.743 438.449 772.679 427.874 344.805 187.141 1198.94 648.957 151.145 497.812 208.748 59.1446 549.987 179.335 34.2165 297.099 143.566 229.701 340.349 86.3283
internal_count=24419 23236 21640 1183 10135 1596 11505 4200 5935 5177 747 2923 4634 2488 2146 1038 8582 4559 1113 3446 1370 285 4023 1219 221 1861 758 1553 2166 558
is_linear=0
shrinkage=0.05


Tree=13
num_leaves=31
num_cat=0
split_feature=8 29 31 31 7 3 32 36 28 28 1 33 29 31 31 31 32 39 38 28 31 8 33 39 21 8 37 39 7 39
split_gain=246.68 149.352 147.871 91.1424 63.4135 56.0172 54.9096 52.0191 51.6001 46.5554 39.2086 36.9128 35.6593 32.4141 27.0505 25.4545 23.2359 32.2961 21.854 26.2514 21.1364 20.795 21.4937 19.7515 19.6032 19.0761 20.0912 21.9024 18.9688 18.3724
threshold=3.9546096324920659 2.650039911270142 6.4217655658721933 5.8076336383819589 0.95808647758531007 86.678581237792983 0.030867177993059162 0.20031446963548663 1.4647009968757632 1.3276586532592776 0.28406156941636784 0.25800412893295294 6.1624386310577401 9.3380513191223162 5.2932419776916513 9.3380513191223162 0.025305610150098804 1340.0881958007815 60.500000000000007 1.0911276340484621 4.5793335437774667 2.3174606561660771 0.15275224298238757 1229.3592529296877 0.080033611506223692 0.48269948363304144 -0.22273931652307508 1311.9677734375002 -0.55465174000092787 1345.1789550781252
decision_type=2 2 2 2 2 2 2 2 2 2 2 2 2 2 2 2 2 2 2 2 2 2 2 2 2 2 2 2 2 2
left_child=1 2 4 -2 7 10 13 -1 -4 28 20 -5 15 23 -6 18 17 -10 19 -12 25 22 24 -7 -11 -3 27 -27 -9 -14
right_child=3 5 8 11 14 6 -8 9 16 21 12 -13 29 -15 -16 -17 -18 -19 -20 -21 -22 -23 -24 -25 -26 26 -28 -29 -30 -31
leaf_value=-0.017252016466586969 -0.00085522962756187648 -0.016362234974707218 0.077086917980866337 0.0044632473064747588 -0.027630083532148172 -0.053986228327851639 -0.024005310728853806 0.040379005273483648 0.075642720098813565 0.0032720937768179375 0.037240879232589473 0.076651119465813711 -0.012453446778696253 0.11003904133319101 0.020592190010662655 0.045979916838787181 -0.0035046899619773208 0.0031366754083415136 -0.02733986675728789 -0.011269217331806173 -0.0085146353155856336 0.035831095109579957 -0.023951727383652782 0.044340130697895358 0.11010393039290178 0.026684690044838477 0.017449725349225387 0.12590971722550839 0.016861106279481133 -0.033392249182190213
leaf_weight=189.66443105787039 66.020328484475613 21.963907271623611 87.259221807122231 20.232635051012039 213.36231485754251 5.9234796911478034 35.168622046709061 132.80822026729584 35.498730555176735 503.90434618294239 28.753792285919189 151.54197153449059 142.50368558615446 18.308460563421249 33.472786411643028 18.295595444738865 42.438737705349922 27.289096176624298 219.50109069049358 802.01187005639076 114.96081953495741 44.566218800842762 78.171991758048534 32.582266509532928 4.2348215878009787 11.61209285259247 44.680026784539223 10.986328616738318 246.06035675853491 406.53122882544994
leaf_count=1273 436 141 375 121 1555 35 223 713 165 3095 172 626 999 82 184 110 238 153 1560 5615 752 267 507 182 26 72 280 66 1383 3013
internal_value=-0.00028608 -0.00358809 0.00748873 0.0490037 0.00200429 -0.0130754 0.0249554 0.00675737 0.0486477 0.0112734 -0.0149996 0.068185 -0.0176065 0.0553394 -0.0210648 -0.0122748 0.0249663 0.0442645 -0.0132987 -0.00957993 0.00562445 0.00294324 0.000429189 0.0289841 0.00419375 0.0238833 0.037101 0.0754859 0.0251267 -0.0279699
internal_weight=3790.31 3552.51 1638.73 237.795 1446.25 1913.78 91.9828 1199.41 192.486 1009.75 1821.8 171.775 1617.6 56.8142 246.835 1068.56 105.227 62.7878 1050.27 830.766 204.203 630.877 586.311 38.5057 508.139 89.2424 67.2784 22.5984 378.869 549.035
internal_count=24419 23236 9934 1183 9003 13302 522 7264 931 5991 12780 747 11469 299 1739 7457 556 318 7347 5787 1311 3895 3628 217 3121 559 418 138 2096 4012
is_linear=0
shrinkage=0.05


Tree=14
num_leaves=31
num_cat=0
split_feature=8 15 33 16 7 28 3 32 35 24 28 28 3 1 0 35 33 21 21 37 34 1 28 34 19 21 21 26 33 8
split_gain=223.391 170.284 71.9565 56.4768 49.5496 40.4386 37.1775 60.2419 30.3539 29.31 30.6705 27.8185 24.7823 20.9782 20.793 19.6738 18.4266 21.0083 27.1008 33.7468 18.42 19.6512 17.8167 17.6109 17.1128 15.4544 15.9071 14.9268 14.5166 14.2819
threshold=3.9546096324920659 446.77388000488287 0.37460504472255712 53.58343696594239 -0.068996059716186678 1.3344519138336184 68.871910095214858 -0.011525997426360844 2.6598474979400639 6.2112905979156503 1.1886910796165469 8.5697116851806658 57.29370307922364 1.1890333601099812 3.4000000000003188 6.8948919773101816 0.061289120465517051 0.043167145922780044 0.047343991696834571 -0.24996419996023175 -5.2243282794952384 0.30638653450869718 1.7039645314216616 -0.43179133534431452 0.013069082517176868 0.027243709191679958 0.017623333260416988 4.6250000000000009 0.23873329162597659 1.8124327063560488
decision_type=2 2 2 2 2 2 2 2 2 2 2 2 2 2 2 2 2 2 2 2 2 2 2 2 2 2 2 2 2 2
left_child=1 4 22 -3 5 24 20 11 -6 -5 12 -8 -11 14 16 -12 25 -18 19 -19 -7 29 -2 -9 -1 26 -10 28 -24 -22
right_child=2 3 -4 9 8 6 7 23 13 10 15 -13 -14 -15 -16 -17 17 18 -20 -21 21 -23 27 -25 -26 -27 -28 -29 -30 -31
leaf_value=0.039083024920520126 0.10731736995895971 0.0097070363576492649 0.066589440766258418 0.0076273376273214497 -0.035854454893965666 -0.035308741453539148 0.022638585444152554 0.034619836575389133 0.010432854245110423 -0.013888689345775439 0.092161484758176801 0.081424722132217284 0.07193888809397013 -0.0203524542454422 0.08557917568317841 -0.021551118931750712 -0.014462535035566227 0.2130424404060981 0.0015551126025897487 0.015124799700089529 0.0011501124537463107 -0.010891168271981156 0.0027129144252146628 -0.028944250868698951 0.0066973365674893376 -0.028559941561899588 0.065003730009715432 -0.022815547181253365 0.06480614037169502 0.041359300562593862
leaf_weight=44.805295273661613 4.2222649455070487 227.85295507311821 155.76337943971157 38.670824840664864 161.02415458858013 66.355924986302853 57.564165934920311 13.114860638976095 52.458116918802261 8.908504441380499 4.7300184369087246 31.239703230559826 120.04016894102097 451.63982506841421 6.0603822320699683 17.759153246879578 399.01471760123968 3.7015763074159622 32.652651496231556 5.1455979347228986 158.95885747671127 1055.7582234963775 31.237379789352417 60.871718890964985 457.24348597973585 16.863229587674141 17.986792586743832 32.43408291041851 13.493320271372793 25.604666218161583
leaf_count=252 24 1289 683 205 1235 506 343 80 348 47 20 158 513 3235 34 95 2729 23 228 35 1013 7217 200 392 2840 112 117 213 63 170
internal_value=-0.000279736 -0.00343226 0.0466864 0.0265304 -0.00745094 -0.00264095 -0.00682851 0.0156852 -0.0157165 0.046652 0.0565726 0.0434431 0.0659645 -0.0124178 -0.00569357 0.00244617 -0.00676703 -0.0109326 0.0228407 0.0999462 -0.00963817 -0.00825805 0.0084985 -0.0175779 0.00960476 0.0141814 0.0245098 0.00289476 0.0216581 0.00677482
internal_weight=3773.18 3536.03 237.15 417.962 3118.06 1971.52 1469.47 162.79 1146.55 190.109 151.438 88.8039 128.949 985.523 533.883 22.4892 527.823 440.515 41.4998 8.84717 1306.68 1240.32 81.387 73.9866 502.049 87.3081 70.4449 77.1648 44.7307 184.564
internal_count=24419 23236 1183 2169 21067 12971 9879 973 8096 880 675 501 560 6861 3626 115 3592 3015 286 58 8906 8400 500 472 3092 577 465 476 263 1183
is_linear=0
shrinkage=0.05


Tree=15
num_leaves=31
num_cat=0
split_feature=29 31 3 33 1 24 29 38 31 19 32 24 8 31 31 1 35 7 23 31 32 29 31 34 25 24 23 3 29 38
split_gain=229.847 246.504 72.5324 66.4862 65.6624 47.2202 43.4236 38.0845 36.3948 38.3745 47.1918 34.8212 34.8625 30.9866 29.3823 31.6936 33.3546 27.9022 25.7514 25.5927 24.4722 23.253 22.0129 21.8788 21.7392 20.5358 20.3698 18.9452 22.4842 19.0246
threshold=1.7123453617095949 5.8607802391052255 64.395797729492202 0.35053879022598272 4.2220542995804387 4.6728951930999765 7.6388983726501474 52.500000000000007 6.4602801799774179 0.24260164052248004 0.04114105552434922 6.2112905979156503 0.49862423539161688 9.0745458602905291 2.9349832534790044 1.1890333601099812 6.1577987670898446 -0.45137371572250873 0.013499975204467775 7.4982073307037362 -0.03660913556814193 4.8942360877990732 8.3754739761352557 -5.6415369510650626 0.57518796992481214 8.6457943916320819 0.0050000250339508065 88.714653015136733 1.2860081195831301 61.500000000000007
decision_type=2 2 2 2 2 2 2 2 2 2 2 2 2 2 2 2 2 2 2 2 2 2 2 2 2 2 2 2 2 2
left_child=1 4 6 19 5 14 7 11 17 10 22 -2 18 -5 24 16 -16 -4 21 -3 -21 26 -10 -9 -1 -14 -13 29 -29 -7
right_child=2 3 8 13 -6 27 -8 23 9 -11 -12 12 25 -15 15 -17 -18 -19 -20 20 -22 -23 -24 -25 -26 -27 -28 28 -30 -31
leaf_value=-0.0034914202808831634 -0.0085548286123406786 0.013190580877092612 0.017284109470234187 0.079713133874488917 -0.051812011417218765 0.01185361273927487 -0.029086509786245437 0.022346038303974646 -0.012676177631554209 0.079236677461280269 -0.039055870256862003 0.0036259608838759036 0.020207567847076634 -0.043512190455520842 0.027234888950343594 -0.012960081355577949 -0.030212651252592489 -0.015577434969358653 -0.023297898438668127 0.083640767498307289 0.017926247257742368 -0.019245685907495948 0.057361879485131197 -0.023904433138792307 -0.03483603925350464 0.070348163042198833 0.15786870015971199 0.072149708922194439 -0.037265134098940188 0.043712432318617517
leaf_weight=163.81272166222334 1064.7721440792084 88.571211934089661 126.81813866645098 168.79208110272884 49.067660234868526 233.9509422108531 334.89215136319399 26.887524984776974 14.599717795848845 33.509050503373146 26.650830693542957 3.5598788335919398 95.572176054120064 5.1478316336870185 191.2446174621582 112.32525005191565 28.947502106428146 131.42587724328041 71.363204650580883 33.699852213263512 24.893924281001091 7.4447222873568526 46.413256511092186 459.76293871551752 83.768604703247547 26.124233618378639 5.5568019449710846 31.915139436721802 5.3740713894367209 58.822618775069714
leaf_count=1117 7392 468 755 698 397 1329 2502 175 90 141 177 21 644 23 1131 770 177 834 476 146 132 53 225 3241 612 154 34 148 25 323
internal_value=-3.82648e-05 0.0171585 -0.00893537 0.0550717 0.00445737 0.00750176 -0.012578 -0.00943433 0.0111718 0.0337672 0.0162593 -0.0048847 0.0137291 0.0760146 -0.00108124 0.00861833 0.0196496 0.00054126 -0.0102113 0.0302497 0.0558848 0.0456804 0.0405274 -0.0213347 -0.0141268 0.0310611 0.0988754 0.0225976 0.0561898 0.0182843
internal_weight=3755.69 1280.33 2475.35 321.105 959.229 910.161 2095.94 1761.04 379.417 121.173 87.6638 1274.39 209.621 173.94 580.099 332.517 220.192 258.244 87.9246 147.165 58.5938 16.5614 61.013 486.65 247.581 121.696 9.11668 330.063 37.2892 292.774
internal_count=24410 7496 16914 1467 6029 5632 14692 12190 2222 633 492 8774 1382 721 3807 2078 1308 1589 584 746 278 108 315 3416 1729 798 55 1825 173 1652
is_linear=0
shrinkage=0.05


Tree=16
num_leaves=31
num_cat=0
split_feature=29 31 33 3 6 29 35 38 28 31 8 31 16 15 31 7 32 31 6 32 8 38 2 35 31 5 13 38 28 31
split_gain=208.009 223.722 69.7998 65.9597 59.3783 40.7476 38.7994 34.7762 44.6773 33.9453 35.1606 32.8203 37.1903 28.7007 28.3374 25.1569 24.7083 24.4169 23.3834 21.8537 21.0335 20.5967 37.5617 20.3974 20.355 22.0756 19.8161 19.6724 27.3983 19.6472
threshold=1.7123453617095949 5.7800872325897226 0.35053879022598272 64.395797729492202 17.825742721557621 6.8189122676849374 2.3755122423172002 51.500000000000007 1.3891812562942507 4.5203840732574472 0.61070960760116588 6.4602801799774179 51.834911346435554 457.92652893066412 9.0745458602905291 -0.45137371572250873 0.04114105552434922 7.4982073307037362 1.5055937170982363 -0.03660913556814193 0.87483826279640209 26.500000000000004 1.0000000180025095e-35 8.3082170486450213 3.0214917659759526 0.78759398496240618 1.5000000000000002 44.500000000000007 1.209733843803406 9.3380513191223162
decision_type=2 2 2 2 2 2 2 2 2 2 2 2 2 2 2 2 2 2 2 2 2 2 2 2 2 2 2 2 2 2
left_child=1 4 17 5 6 7 21 8 9 -2 27 15 16 18 -4 -5 29 20 24 -19 -3 22 -1 -9 -8 -26 -12 -11 -29 -13
right_child=3 2 14 11 -6 -7 13 23 -10 10 26 12 -14 -15 -16 -17 -18 19 -20 -21 -22 -23 -24 -25 25 -27 -28 28 -30 -31
leaf_value=0.13386179798421008 0.0044155753123891134 -0.0058353396503616458 0.076556593882185539 0.016260966906663451 -0.050909363194960811 -0.025172118682685332 -0.0023019627268991262 -0.024675998842339605 -0.0085361581463446346 -0.0083175651486386889 0.035181686792153367 -0.016933580604112024 0.062773038533560893 0.037998243942409693 -0.041802379374049584 -0.014935808209215111 -0.03592082417485707 0.078750697661017943 -0.0078667133949102391 0.016895229967187859 0.041782250852779784 -0.026153286382991012 -0.042465354432617008 0.0024362800297444602 0.014480879638115885 0.05051971764177951 0.13371887643093144 0.16374905956578692 0.016787238667607028 0.052484566849080497
leaf_weight=5.7372756451368314 166.66163485497236 61.842835605144501 171.2902879267931 128.03171879798174 46.895899377763271 461.09002695977688 152.04796948283911 384.38752200454473 920.66399940848351 24.433012589812279 8.3494271039962786 15.406939044594763 54.301431231200695 86.57863076031208 5.0958968102931967 130.2530878931284 22.199476324021816 34.000640153884888 182.75311943143606 25.093212932348251 36.850934594869614 110.55559748411179 6.1247751340270042 84.222490333020687 305.63759225606918 49.49378390610218 14.118771865963934 4.6437374204397193 9.9285721182823163 29.286458402872086
leaf_count=36 1072 328 717 755 395 3487 978 2775 6449 149 48 98 243 395 23 834 153 146 1266 132 194 811 44 546 1739 292 79 24 63 139
internal_value=-4.25725e-05 0.0163 0.051462 -0.00855538 0.0038674 -0.0120562 0.00673594 -0.00831275 -0.00362414 0.016172 0.0479047 0.0106046 0.0320598 0.0108648 0.0730871 0.000509383 0.00699674 0.0272253 0.00744765 0.0526422 0.0119181 -0.0194009 0.0428063 -0.019793 0.0129762 0.0195304 0.0976411 0.0189509 0.064757 0.0284584
internal_weight=3737.98 1280 334.174 2457.98 945.825 2078.5 898.929 1617.41 1148.8 228.135 61.4735 379.479 121.194 776.511 176.386 258.285 66.8929 157.788 689.932 59.0939 98.6938 122.418 11.8621 468.61 507.179 355.131 22.4682 39.0053 14.5723 44.6934
internal_count=24410 7496 1540 16914 5956 14692 5561 11205 7884 1435 363 2222 633 4670 740 1589 390 800 4275 278 522 891 80 3321 3009 2031 127 236 87 237
is_linear=0
shrinkage=0.05


Tree=17
num_leaves=31
num_cat=0
split_feature=29 31 3 1 33 29 15 31 38 28 31 31 16 38 34 34 32 36 31 7 31 32 32 9 28 38 34 7 33 7
split_gain=188.331 204.083 59.9773 56.2127 53.2807 38.4897 36.9118 40.3966 32.7692 42.3074 38.4168 29.5868 33.286 27.6523 30.4329 42.5041 39.4975 23.7304 23.4022 22.6889 22.5588 22.4525 21.2176 21.1305 22.5193 29.2487 19.6939 19.4875 20.4689 18.8238
threshold=1.7123453617095949 5.9975888729095468 64.395797729492202 3.6063305077709802 0.25800412893295294 7.6388983726501474 384.32913208007818 3.2144814729690556 52.500000000000007 1.4586749076843264 4.5203840732574472 6.4602801799774179 51.834911346435554 29.500000000000004 -2.900495052337646 3.5971024036407475 0.053728232160210616 0.75314465165138256 9.0745458602905291 -0.45137371572250873 7.7481749057769784 0.04114105552434922 -0.03660913556814193 0.85357142857142865 1.209733843803406 44.500000000000007 -5.6415369510650626 1.1170921885911145 0.14721994102001193 0.33053085252672282
decision_type=2 2 2 2 2 2 2 2 2 2 2 2 2 2 2 2 2 2 2 2 2 2 2 2 2 2 2 2 2 2
left_child=1 3 5 6 20 8 7 -1 9 10 -2 19 21 14 16 17 -11 27 -6 -4 29 -13 -22 24 25 -12 -10 28 -16 -3
right_child=2 4 11 -5 18 -7 -8 -9 26 13 23 12 -14 -15 15 -17 -18 -19 -20 -21 22 -23 -24 -25 -26 -27 -28 -29 -30 -31
leaf_value=-0.0095496536705079842 0.00073662764975914547 0.02201696145994006 0.01530866506376953 -0.040338889381403016 0.073663495536355997 -0.027416290244479877 0.034434685611081838 0.013235600853081585 0.021386136462343181 -0.025663204554462072 0.017302043265994615 0.026820699952360007 0.059383414455369314 -0.018836419791406069 0.032886019673058701 -0.021308321275589591 0.14177904643662434 0.0045469527141651853 -0.01944167301905203 -0.014316202138125718 0.077803489032868753 -0.034949655154105704 0.013221466181120321 0.12999558057386587 0.015998007070331454 0.13065666261434944 -0.022343573425750159 -0.030512533200795302 0.10220268430883923 -0.039783109683967005
leaf_weight=327.09734760224819 222.5442344173789 52.519294798374176 129.1722723543644 64.935039162635803 165.77647398412228 322.76312259584665 113.56417028605938 479.19463737308979 27.127905033528805 139.25391316413879 11.418796449899675 45.022993698716164 54.530230924487114 438.23618368059397 80.439465388655663 104.87716404348612 3.5069144666194907 168.25234622508287 6.9090243875980368 129.12956251204014 30.8520138412714 21.691380098462105 22.025257602334023 6.0302874371409407 56.481073223054409 11.550136193633078 446.54904313385487 10.058177843689917 12.339375570416449 15.958155766129492
leaf_count=2259 1455 278 755 530 704 2502 539 2823 175 1030 66 237 243 3213 518 771 19 1108 31 834 131 153 116 35 351 57 3241 70 81 85
internal_value=-4.57097e-05 0.0154956 -0.00819019 0.00457378 0.0520437 -0.0115543 0.00775376 0.00398582 -0.00860543 -0.00439921 0.0117081 0.0100664 0.030432 -0.0095897 -0.00176604 0.00568679 -0.0214186 0.0161529 0.0699004 0.000479522 0.0265562 0.00663972 0.0510729 0.0401794 0.0331446 0.0748395 -0.0198246 0.0350701 0.0422589 0.007505
internal_weight=3719.81 1278.83 2440.97 984.791 294.04 2061.43 919.856 806.292 1738.67 1264.99 308.025 379.546 121.245 956.964 518.727 375.967 142.761 271.089 172.685 258.302 121.355 66.7144 52.8773 85.4803 79.45 22.9689 473.677 102.837 92.7788 68.4775
internal_count=24410 7496 16914 6151 1345 14692 5621 5082 12190 8774 1964 2222 633 6810 3597 2548 1049 1777 735 1589 610 390 247 509 474 123 3416 669 599 363
is_linear=0
shrinkage=0.05


Tree=18
num_leaves=31
num_cat=0
split_feature=8 28 35 31 31 38 34 34 38 16 32 38 1 28 11 5 31 34 32 9 32 38 38 3 31 32 18 31 27 1
split_gain=155.107 94.5152 104.189 64.5318 63.1514 40.3089 36.5275 49.4541 53.4678 31.9488 30.5982 30.3122 29.2878 29.0914 38.9441 27.7762 26.3403 25.5333 49.1965 26.2695 24.5822 23.6912 23.6155 31.0636 22.0711 23.0631 20.738 20.3808 19.5018 19.336
threshold=3.9546096324920659 1.2401117086410525 4.3703632354736337 5.8076336383819589 6.4602801799774179 45.500000000000007 3.5971024036407475 -2.9432151317596431 26.500000000000004 62.70170974731446 0.05255143158137799 59.500000000000007 1.1890333601099812 1.556079685688019 0.090652287006378188 0.67543859649122817 7.6130082607269296 1.6020014286041262 -0.047465272247791283 0.95119047619047625 -0.028338470496237275 26.500000000000004 52.500000000000007 76.48465728759767 9.3380513191223162 -0.011525997426360844 18.250000000000004 5.225367784500123 0.37500000000000006 0.21877203100133319
decision_type=2 2 2 2 2 2 2 2 2 2 2 2 2 2 2 2 2 2 2 2 2 2 2 2 2 2 2 2 2 2
left_child=1 2 -1 -2 15 6 7 10 12 11 -3 -6 17 14 -7 22 -5 19 -19 29 -8 -12 26 -24 -15 28 -4 -22 -26 -9
right_child=3 5 4 16 9 13 20 8 -10 -11 21 -13 -14 24 -16 -17 -18 18 -20 -21 27 -23 23 -25 25 -27 -28 -29 -30 -31
leaf_value=-0.02893226553294518 -0.0020924720249334964 -0.020292599670749218 0.023103828199927554 0.06423227283605891 0.072431188133562696 -0.025905912279631967 0.062204182833593608 0.090106358710430656 -0.0051693090190254552 0.075244955718705611 0.13632714349135713 -0.0024525829304725688 -0.0036665174585322822 -0.026425876346736696 0.0071685193040066202 -0.0033673134480350047 -0.0011756777234465524 0.1601629680850688 -0.0015932284111810392 0.10813430229896843 -0.012468893044614402 -0.013531565621384141 0.0011577659431159014 0.052000033298663588 -0.0018917925500970536 -0.030399514486152059 0.061777013797832341 -0.042961197975051414 0.075753156837899571 0.02605729372227138
leaf_weight=136.09038973599672 64.008485928177834 297.83583437651396 153.28274179250002 142.96679302304983 20.846775233745575 141.54069531708956 8.5454623103141767 12.385252922773359 572.48715060949326 65.367647178471088 5.5372143536806089 37.725277811288834 128.3149878680706 499.60864465683699 239.06093995273113 197.67066039144993 17.076003454625607 4.794915333390235 117.19299848377705 10.973550885915754 152.58695489168167 4.8209978491067886 205.55177637189627 35.132233843207359 17.159880273044109 23.936939492821693 45.157822787761688 86.140051551163197 14.984989225864409 243.13241880387068
leaf_count=1013 430 2149 838 645 97 985 46 68 3814 277 29 221 880 3809 1625 1233 86 29 738 67 1125 28 1290 172 103 169 246 644 86 1468
internal_value=-4.85464e-05 -0.00264807 0.0113321 0.0402637 0.0185446 -0.00750791 -0.00278944 0.000341898 0.00534873 0.0511976 -0.017334 0.0241926 0.0170087 -0.0157901 -0.00512186 0.0121744 0.0572259 0.0238498 0.00484986 0.0325232 -0.0204996 0.0666382 0.0191811 0.0086184 -0.0230858 0.00657459 0.0319563 -0.0235058 0.0342716 0.0292154
internal_weight=3701.92 3477.87 896.825 224.051 760.735 2581.04 1644.75 1397.48 1089.28 123.94 308.194 58.5721 516.794 936.292 380.602 636.795 160.043 388.479 121.988 266.491 247.272 10.3582 439.125 240.684 555.69 56.0818 198.441 238.727 32.1449 255.518
internal_count=24410 23249 5387 1161 4374 17862 11085 9270 7064 595 2206 318 3250 6777 2610 3779 731 2370 767 1603 1815 57 2546 1462 4167 358 1084 1769 189 1536
is_linear=0
shrinkage=0.05


Tree=19
num_leaves=31
num_cat=0
split_feature=29 8 15 3 35 29 8 2 27 17 1 39 8 24 35 5 33 3 36 25 7 35 7 33 7 35 24 36 33 34
split_gain=163.999 114.06 86.1229 51.461 36.0741 35.5595 28.8871 26.9749 37.8488 33.8833 26.3806 21.5816 18.9921 20.5871 20.6806 18.1887 18.1651 17.1658 16.3978 16.6143 16.3176 16.1839 15.831 14.8656 14.6072 14.314 13.9284 27.215 20.6513 26.6734
threshold=1.7123453617095949 4.4769163131713876 457.92652893066412 58.736301422119148 2.2592852115631108 6.8189122676849374 0.092268556356430068 1.0000000180025095e-35 0.37500000000000006 7.2700002193450937 0.80337389978854346 1899.499694824219 2.2695070505142216 1.2158815264701845 4.186183214187623 0.4188596491228071 0.26350396871566778 89.249279022216811 0.3872325867414475 0.048809523809523817 0.0096837055073894923 18.197442054748539 2.6801989929244199 0.2869675904512406 0.070079844484819492 3.0662442445755009 4.6920142173767099 1.248491168022156 0.14855381101369861 2.0083962678909306
decision_type=2 2 2 2 2 2 2 2 2 2 2 2 2 2 2 2 2 2 2 2 2 2 2 2 2 2 2 2 2 2
left_child=1 2 4 5 20 10 -6 8 17 15 16 24 26 -14 -15 -9 18 -5 19 -2 -1 -7 -20 -11 25 -10 28 -28 29 -8
right_child=3 -3 -4 7 6 21 12 9 11 23 -12 -13 13 14 -16 -17 -18 -19 22 -21 -22 -23 -24 -25 -26 -27 27 -29 -30 -31
leaf_value=-0.0023884749214659832 0.1001105912363725 0.063902134906804964 0.043086453553744089 -0.0050028558791557634 -0.025631868965422317 -0.025406953409185508 0.013949266535087435 -0.00038564957530716308 0.14691383564779634 -0.033495233198217358 -0.015513995012185056 -0.018037885133362932 -0.041302365468926676 0.087164353076817427 0.02448188671799096 -0.033413599096080972 0.065485131861334964 0.035921988004459171 0.00033596725163448875 -0.016280941167227291 -0.038677285226596837 0.039686009848524328 0.099772823629353607 0.044879535000580451 0 0.057929169349673251 0.013460855147577383 0.089758704756314062 -0.018251354180438443 -0.023031079021388106
leaf_weight=61.505475573241711 2.9996386319398871 106.84166589379311 167.62386511266232 113.71311520785093 59.498167105019093 418.90077524632215 306.70139988511801 91.525604449212551 4.9649035632610312 7.0047534927725783 628.44678968936205 11.119975887238978 7.5063951611518851 20.051782108843327 39.264594115316868 76.932752907276154 9.7019182741641981 32.927742503583431 674.48388669639826 221.13554730266333 62.985287360846996 9.6266639009118062 3.9275567233562461 39.085661090910435 10.096367470920084 57.474518924951553 276.80037603527308 12.139108121395109 93.531757660210133 57.799104869365692
leaf_count=420 21 487 743 691 439 3317 1876 580 26 47 4639 71 52 100 220 521 59 165 4534 1595 517 61 26 198 64 299 1548 64 666 364
internal_value=-5.20218e-05 0.0144732 0.00993227 -0.00770937 0.00435372 -0.01118 0.00794787 0.00764216 0.019527 -0.00509492 -0.00763082 0.0463482 0.0104119 0.035953 0.0458668 -0.0155096 -0.00219352 0.00417083 -0.00293375 -0.014657 -0.020805 -0.0239241 0.00093363 0.0328133 0.0562989 0.0653084 0.00811589 0.0167136 0.00267885 0.00806684
internal_weight=3686.32 1272.25 1165.41 2414.07 997.783 1969.22 873.293 444.845 230.297 214.549 1540.7 83.6558 813.795 66.8228 59.3164 168.458 912.249 146.641 902.547 224.135 124.491 428.527 678.411 46.0904 72.5358 62.4394 746.972 288.939 458.032 364.501
internal_count=24410 7496 7009 16914 6266 14252 5329 2662 1316 1346 10874 460 4890 372 320 1101 6235 856 6176 1616 937 3378 4560 245 389 325 4518 1612 2906 2240
is_linear=0
shrinkage=0.05


Tree=20
num_leaves=31
num_cat=0
split_feature=29 31 1 33 31 29 24 25 2 11 34 5 11 31 16 35 7 29 19 32 31 15 19 32 15 33 38 26 34 1
split_gain=151.293 149.555 53.5321 44.7495 39.2185 40.1553 34.6023 31.0974 29.9177 27.5522 25.7147 25.3696 24.9298 22.3871 22.5394 21.4267 20.7668 20.356 19.5061 19.4892 18.9597 18.3802 17.8298 17.1416 16.5025 15.3687 18.8973 15.2017 14.8136 16.2784
threshold=1.7123453617095949 5.9975888729095468 3.6063305077709802 0.23873329162597659 12.51772451400757 8.3435435295104998 3.325623750686646 0.62202380952380965 1.0000000180025095e-35 0.59999999403953563 -5.3497889041900626 0.40588235294117653 1.2521186470985415 4.8554246425628671 10.457832813262941 2.6598474979400639 0.7150779419004184 0.13109872490167621 0.011648203711956741 0.10778068378567697 4.9960105419158944 221.51373291015628 0.089185938239097609 0.095146823674440398 100.5807571411133 0.3170850276947022 63.500000000000007 55.504999160766609 2.1730643510818486 1.0930193686507526
decision_type=2 2 2 2 2 2 2 2 2 2 2 2 2 2 2 2 2 2 2 2 2 2 2 2 2 2 2 2 2 2
left_child=1 2 6 16 5 11 7 28 10 17 -6 25 15 14 -14 -13 21 18 -8 -15 22 24 27 -20 -3 26 -2 -7 29 -1
right_child=4 3 -4 -5 8 20 9 -9 -10 -11 -12 12 13 19 -16 -17 -18 -19 23 -21 -22 -23 -24 -25 -26 -27 -28 -29 -30 -31
leaf_value=0.01371798300404739 0.0023701314268153926 0.038998700991799279 -0.039804256857696459 0.062498410820584806 -0.023530160751003219 -0.0012381188462664188 -0.035114609767139891 -0.037609834452325103 -0.014759489922212028 0.094771010153913524 0.066904894897270376 -0.038953416983995487 0.11151191387656829 -0.00068475211363008782 -0.027134895578274296 -0.011085931038351348 -0.031129073432877564 0.010825372753512766 0.078440065114252513 0.066316983701621965 -0.03887515607368202 0.054548501726189406 -0.034364428163218948 0.0095977249788688386 -0.013868563009677766 0.050364492908614437 -0.018690135387500219 0.1051974621434924 -0.040362638399844136 -0.01310931385063702
leaf_weight=179.49436235427856 745.29964870214462 28.680207818746567 63.070605531334877 167.32897919416428 9.5402317494153959 68.379916414618492 6.5108485221862784 59.47537574917078 27.246844366192818 10.643524363636969 41.595005311071873 74.196714781224728 3.1248933374881736 17.966306939721107 31.352417141199112 1001.4212882965803 15.624014139175413 505.9277156740427 29.139250203967094 26.753136865794659 146.10383685678244 44.808169901371002 52.445222638547421 13.388478137552736 30.045038685202599 14.927635528147219 124.15459816902876 3.4238628447055808 18.973795011639595 82.28252374380827
leaf_count=1141 5036 151 534 744 50 499 35 447 184 59 197 605 24 107 243 7191 82 2867 160 132 1168 204 420 82 161 79 886 21 124 587
internal_value=2.43899e-05 0.0140776 0.00468594 0.0458102 -0.00736189 -0.00854439 0.00779323 -0.0047948 0.0273838 0.0153735 0.049922 -0.0061399 -0.0110201 0.0160108 -0.0141377 -0.0130163 0.0223007 0.013825 0.0445851 0.0393456 -0.0266533 0.0304342 -0.0122218 0.0569579 0.0118881 0.000227499 -0.000633244 0.00390682 0.00214999 0.00526466
internal_weight=3643.32 1255.39 968.906 286.486 2387.93 2309.55 905.836 340.226 78.3821 565.61 51.1352 2039.2 1154.81 79.1968 34.4773 1075.62 119.157 554.966 49.0386 44.7194 270.353 103.533 124.249 42.5277 58.7252 884.382 869.454 71.8038 280.751 261.777
internal_count=24220 7378 6036 1342 16842 16411 5502 2299 431 3203 247 14303 8302 506 267 7796 598 3144 277 239 2108 516 940 242 312 6001 5922 520 1852 1728
is_linear=0
shrinkage=0.05


Tree=21
num_leaves=31
num_cat=0
split_feature=8 29 15 29 31 28 31 31 28 38 31 26 2 19 1 34 34 33 37 15 35 37 7 31 11 28 34 21 35 38
split_gain=142.531 92.9071 62.4029 60.5319 43.279 40.537 37.9978 31.9741 29.8241 53.8842 44.0119 30.406 24.7839 24.7722 23.9771 21.9775 21.7866 21.5742 19.8451 24.1288 19.8292 19.7898 22.1982 22.5219 20.292 19.0464 18.8908 17.3272 16.3958 16.1361
threshold=3.0691885948181157 2.7113680839538579 400.39663696289068 2.6169059276580815 3.3319280147552495 1.6008849740028384 12.51772451400757 5.7800872325897226 1.2146195173263552 45.500000000000007 4.5029757022857675 1.825000047683716 1.0000000180025095e-35 0.84581381082534801 0.19812873285987376 -4.4463846683502188 3.0800255537033085 0.2942671030759812 0.0046041274908930072 505.42819213867193 5.3112297058105478 -0.25316692888736719 -0.089005997541130158 4.1274290084838876 0.36425061523914343 1.6554551124572756 3.5274252891540532 0.014121774584054949 8.3082170486450213 54.500000000000007
decision_type=2 2 2 2 2 2 2 2 2 2 2 2 2 2 2 2 2 2 2 2 2 2 2 2 2 2 2 2 2 2
left_child=1 2 4 -2 17 21 8 13 11 10 14 -3 -8 -4 -10 -16 -7 27 -5 -20 -13 -6 24 -24 -23 -11 -17 -1 -12 -22
right_child=3 6 7 18 5 16 12 -9 9 25 28 20 -14 -15 15 26 -18 -19 19 -21 29 22 23 -25 -26 -27 -28 -29 -30 -31
leaf_value=-0.014959993858247695 0.052736729893931647 0.11821009641096142 0.022083813085165001 0.034297321084659521 0.0057330634548615296 0.00069431411757713165 0.049838285029024765 0.050531653655708025 0.059196846017891519 -0.019928852470755747 -0.014663657971271116 -0.033248841431084128 -0.015709862422185573 -0.036340108272305174 -0.034101238463587286 0.0091866558573265068 -0.040744045674015926 -0.04939199118912932 -0.0086969252722117266 0.12375843236943958 0.019492299542153761 0.036901747318339916 -0.017393738585718962 0.029320967005925399 0.14149685321578687 -0.039916093250225715 -0.017111445567468419 0.0038624833342059484 -0.038347569651352553 -0.0054727050442386982
leaf_weight=294.49154340475798 166.94464004784822 5.3390158116817465 130.90202572196722 51.174130469560623 164.27802958339453 357.72229412198067 41.022525802254677 99.390466541051865 17.568005844950676 257.49900202453136 279.662832275033 41.400389797985554 22.000577457249165 20.912897624075413 43.055872157216072 313.45480927079916 34.684451028704643 32.128511652350426 96.378133788704872 3.4629687517881385 102.96715047210455 146.57225857675076 43.05244867503643 63.801783725619316 4.7435366958379737 225.0382326990366 87.121649146080017 208.37535806000233 99.636603072285652 173.4653857126832
leaf_count=2086 824 30 619 328 930 2172 200 440 100 2000 2056 304 154 128 352 2169 239 295 704 19 597 795 297 367 27 1906 679 1430 789 1184
internal_value=1.84467e-05 -0.00305188 0.00560071 0.0319903 0.00133766 0.0085949 -0.0111596 0.0284786 -0.0126208 -0.015947 -0.0082914 0.000981373 0.0268884 0.0139842 0.00207512 -0.000188485 -0.00296509 -0.00970609 0.00900273 -0.00393347 -0.00100869 0.0193428 0.027978 0.0104538 0.040305 -0.0292669 0.00345174 -0.00715128 -0.0209067 0.00381201
internal_weight=3628.25 3310.29 1601.06 317.96 1349.85 814.855 1709.23 251.205 1646.21 1323.04 840.5 323.172 63.0231 151.815 461.2 443.632 392.407 534.995 151.015 99.8411 317.833 422.448 258.17 106.854 151.316 482.537 400.576 502.867 379.299 276.433
internal_count=24220 22345 9825 1875 8638 4827 12520 1187 12166 10051 6145 2115 354 747 3300 3200 2411 3811 1051 723 2085 2416 1486 664 822 3906 2848 3516 2845 1781
is_linear=0
shrinkage=0.05


Tree=22
num_leaves=31
num_cat=0
split_feature=8 29 24 29 25 31 31 31 1 38 35 2 29 39 16 3 33 31 35 21 34 34 31 7 1 1 25 8 35 26
split_gain=128.766 84.5352 61.5468 55.1075 42.3933 34.4199 32.0071 27.7715 42.0168 28.219 24.4504 22.0148 21.8523 26.3203 21.5678 21.3522 17.5156 29.8525 17.2077 16.7394 15.711 15.4604 15.4053 16.4037 16.1645 17.7448 16.5652 16.2659 16.433 17.3085
threshold=3.0691885948181157 2.7113680839538579 4.6728951930999765 2.6169059276580815 0.64852941176470602 12.51772451400757 6.4217655658721933 4.2448725700378427 0.50709770121728781 41.500000000000007 3.3849225044250493 1.0000000180025095e-35 8.3435435295104998 1892.5520629882815 67.45343399047853 34.708799362182624 0.39050157368183142 5.9650449752807626 4.8746438026428232 0.014121774584054949 -5.3497889041900626 -3.230282068252563 4.2241389751434335 -1.3500931396245941 0.4837165703236958 0.49134713860303947 0.51190476190476197 0.50811895728111278 2.7656044960021977 0.42500001192092901
decision_type=2 2 2 2 2 2 2 2 2 2 2 2 2 2 2 2 2 2 2 2 2 2 2 2 2 2 2 2 2 2
left_child=1 2 4 21 19 7 -4 8 22 -10 -6 20 13 16 -8 -5 -9 -18 -11 -1 -7 -2 23 -3 27 26 -26 -25 -29 -30
right_child=3 5 6 15 10 11 14 12 9 18 -12 -13 -14 -15 -16 -17 17 -19 -20 -21 -22 -23 -24 24 25 -27 -28 28 29 -31
leaf_value=-0.0040752653964595993 -0.039088778059641435 0.049324036861702662 0.011731110268432775 -0.0095389535621148297 -0.04473718225652315 -0.017329102245461536 0.020529331245770464 -0.01043362679182424 -0.002588206883396837 -0.041789139166679923 -0.0097930516004913586 -0.01508097125217976 -0.03555635672398573 -0.028658281063510246 0.063703749650124736 0.02797854249877238 -0.017449791296342734 0.080241106059118453 -0.014709438421340704 0.011477506280306077 0.061355910029721031 0.052828192297375856 0.10590284436556344 -0.016141218516524274 0.02205376469016436 0.0092234747487736236 0.18214129037750845 -0.052630066396548637 0.077587941985664405 0.010693660637595286
leaf_weight=387.12195985764265 4.5763901174068442 22.834706179797649 565.53594653308392 78.439229972660542 78.330286040902138 7.6388268992304793 63.54814201593399 438.17859319597483 264.56247933954 102.6596353277564 140.00493316352367 21.781987644731998 152.37961069494486 225.45486955344677 53.955940067768097 73.028073512017727 16.528244607150558 14.587368518114088 139.08851554989815 312.25797905772924 33.893738299608231 161.88895136862993 4.060748264193534 82.593384586274624 2.9398755207657841 9.962114602327345 3.8099157959222794 9.2651098668575269 10.381589680910109 131.85615992546082
leaf_count=2546 23 153 3109 590 673 40 310 3225 1955 878 957 154 1272 1740 240 461 110 67 1055 1990 160 801 26 556 21 72 26 72 59 879
internal_value=1.08147e-05 -0.00292007 0.00531716 0.0303951 -0.00313652 -0.0107046 0.0166814 -0.0121111 -0.00531947 -0.0138951 -0.0223673 0.0254139 -0.0183895 -0.0146125 0.0404341 0.00852318 -0.0078494 0.028299 -0.0262422 0.00286221 0.0467569 0.0502493 0.010297 0.00882185 0.00509623 0.0524631 0.114485 0.00167245 0.011421 0.0156623
internal_weight=3613.15 3295.21 1600.76 317.933 917.715 1694.46 683.04 1631.14 784.014 506.311 218.335 63.3146 847.129 694.749 117.504 151.467 469.294 31.1156 241.748 699.38 41.5326 166.465 277.704 273.643 250.808 16.7119 6.74979 234.096 151.503 142.238
internal_count=24220 22345 9825 1875 6166 12520 3659 12166 5752 3888 1630 354 6414 5142 550 1051 3402 177 1933 4536 200 824 1864 1838 1685 119 47 1566 1010 938
is_linear=0
shrinkage=0.05


Tree=23
num_leaves=31
num_cat=0
split_feature=8 29 24 29 25 28 31 31 31 1 28 36 19 29 35 29 2 26 37 15 35 8 35 36 28 2 16 16 36 23
split_gain=116.419 76.9215 55.3546 50.3132 38.9091 32.1745 39.0363 31.4469 26.8441 38.2068 31.7851 25.8936 25.1959 29.403 23.395 20.5958 19.3867 18.4465 17.2288 20.3308 16.9533 16.949 17.6776 22.0355 15.6889 29.4379 24.979 22.1 21.8949 19.1966
threshold=3.0691885948181157 2.7113680839538579 4.6728951930999765 2.6169059276580815 0.64852941176470602 1.2509842514991762 5.7800872325897226 11.541790008544924 4.5203840732574472 0.50709770121728781 1.2733201384544375 0.34038409590721136 0.84581381082534801 0.24043481051921847 3.3849225044250493 5.9057719707489023 1.0000000180025095e-35 1.5650000572204592 0.0046041274908930072 505.42819213867193 13.227461338043215 0.52070888876914989 2.7656044960021977 0.067111112177371993 1.95683228969574 1.0000000180025095e-35 49.216819763183601 54.497600555419929 0.82672801613807689 0.044499993324279792
decision_type=2 2 2 2 2 2 2 2 2 2 2 2 2 2 2 2 2 2 2 2 2 2 2 2 2 2 2 2 2 2
left_child=1 2 4 -2 24 6 12 8 9 21 20 -11 13 -4 -6 -12 -9 -17 -5 -20 -10 -3 -23 -24 29 26 -26 -27 -28 -1
right_child=3 7 5 18 14 -7 -8 16 10 11 15 -13 -14 -15 -16 17 -18 -19 19 -21 -22 22 23 -25 25 27 28 -29 -30 -31
leaf_value=0.0021683272930838149 0.047958245805333928 -0.0072149224394893593 0.064866907174850261 0.031359318892571729 -0.043937795862469965 0.0027886507225754285 0.050584232279788956 0.040440373452191897 0.008545809856010356 -0.033596319755429378 -0.015486938399933493 -0.0079141361404479731 -0.033252255165161899 0.013752912255919778 -0.0093610760393051298 -0.0019029399101534374 -0.014611374796737584 -0.040082383400085991 -0.0085727599570119377 0.10959098723646304 -0.034525820977119488 -0.037228674960780465 0.12662156670806254 0.017964616527715159 -0.0012004720069357924 -0.010419988002607759 0.069515303811983897 -0.054949952163347908 -0.0027161974446025514 0.027372458183860977
leaf_weight=236.48933161795139 165.70948178321123 116.04033450782299 31.885030895471573 52.090319812297821 75.833199366927147 281.33532825112343 107.92498350143433 47.853372782468796 129.99323249608278 126.46481106430292 302.51514881849289 441.67733446508646 24.245479881763458 240.07094152271748 139.1687987819314 37.149415075778961 23.765756629407406 224.83373539149761 96.087376706302166 3.6803639680147162 27.605289660394192 13.972464025020598 4.7099915370345107 183.59747647494078 139.89746884256601 133.53653779625893 27.244062826037407 35.293382585048676 16.799967490136623 111.27223544567823
leaf_count=1522 824 785 158 328 673 1594 490 243 851 1025 2284 3385 152 1265 957 282 171 1964 704 19 177 108 34 1211 879 879 173 262 112 709
internal_value=5.00519e-06 -0.00279168 0.0050487 0.0289085 -0.00299137 0.0157936 0.0248317 -0.0102654 -0.0117112 -0.00587227 -0.0188704 -0.0136445 0.0154177 0.0197857 -0.0215946 -0.0244127 0.0221076 -0.0346904 0.00807035 -0.00405834 0.000952477 0.00798398 0.016727 0.0207747 0.00271332 -0.00470566 0.00911134 -0.0197855 0.0419066 0.0102527
internal_weight=3598.74 3281.18 1601 317.568 915.535 685.462 404.126 1680.18 1608.56 886.462 722.097 568.142 296.201 271.956 215.002 564.498 71.6191 261.983 151.858 99.7677 157.599 318.32 202.28 188.307 700.533 352.771 183.941 168.83 44.044 347.762
internal_count=24220 22345 9825 1875 6166 3659 2065 12520 12106 6548 5558 4410 1575 1423 1630 4530 414 2246 1051 723 1028 2138 1353 1245 4536 2305 1164 1141 285 2231
is_linear=0
shrinkage=0.05


Tree=24
num_leaves=31
num_cat=0
split_feature=29 8 24 16 6 3 29 8 35 39 6 32 18 36 34 8 36 24 35 23 24 18 32 18 32 39 34 37 8 15
split_gain=106.331 80.2753 50.6262 37.7875 32.6417 28.2319 34.6789 25.0785 29.3585 25.0238 25.0083 22.6777 26.5347 22.4849 21.0862 19.9931 18.3021 19.2758 17.5585 15.5632 15.4284 15.0293 14.8033 16.0296 14.322 15.7389 20.5342 15.6694 21.424 13.6857
threshold=1.7123453617095949 4.8864035606384286 5.8343129158020028 53.58343696594239 10.833619117736818 86.678581237792983 6.0076489448547372 3.1367582082748418 2.1417890787124638 1325.968200683594 0.59392929077148449 0.030867177993059162 125.60000228881837 0.067111112177371993 3.0800255537033085 1.2106033563613894 0.81931093335151683 3.879704594612122 4.186183214187623 0.058000028133392341 1.8737820982933047 33.100000381469734 0.10458096861839296 142.55000305175784 0.060382353141903884 1285.3250732421877 -0.24426506459712979 -0.075882282108068452 1.4677189588546755 288.89129638671881
decision_type=2 2 2 2 2 2 2 2 2 2 2 2 2 2 2 2 2 2 2 2 2 2 2 2 2 2 2 2 2 2
left_child=1 2 4 24 13 6 7 8 -2 -8 -10 -7 -13 -1 15 16 21 19 -19 -18 -17 -15 -9 -24 25 26 -4 28 -26 -27
right_child=5 -3 3 -5 -6 11 9 22 10 -11 -12 12 -14 14 -16 20 17 18 -20 -21 -22 -23 23 -25 27 29 -28 -29 -30 -31
leaf_value=-0.029262348388597904 -0.033745573484929257 0.06079484568320901 0.095354886992581156 0.047528310348337127 -0.030505316112063155 0.033944777806479746 -0.001664032409631218 0.005275429223529019 0.0021879310869870323 -0.023452366885572323 -0.011461744736873832 -0.029999473002409016 0.051982065677832118 0.0014121893810123941 -0.024339537909904656 -0.00039787836259691446 -0.0096989944620337696 0.097203370402060868 0.024816930044276882 0.03596805668610057 0.034131976788791901 -0.031127327852159631 0.086815806924046821 0.01553133255531338 -0.026681620696935374 0.031659015341244247 0.0056165618346963112 0.042572555233604675 0.087692203715308725 -0.0077906193721281811
leaf_weight=44.566284954547882 83.68404483050108 78.214332863688469 14.73893488943577 122.17749381810427 69.561266124248505 75.886061497032642 184.20076513290405 42.819065034389496 839.2470632866025 467.62083679437637 558.51678887009621 38.41718951612711 13.148839242756365 286.83078508079052 49.221667505800724 43.995517306029797 80.008759997785091 9.1502426117658597 98.279743850231171 24.213305324316025 119.17090303450823 40.362891852855682 15.479005455970766 16.491587162017822 52.237267568707466 44.561085402965546 11.416441798210142 13.192342475056646 4.328740492463111 42.93144391477108
leaf_count=341 708 387 69 554 599 386 1341 284 5603 3849 4157 255 68 1806 317 269 492 53 550 144 666 285 94 97 272 231 54 68 22 199
internal_value=0 0.0117739 0.00849029 0.0259837 0.00230481 -0.00629828 -0.00762077 -0.00356094 -0.00499048 -0.017304 -0.00326304 0.0165621 -0.00893805 0.00518252 0.0072362 0.00946041 0.00480357 0.0162604 0.0311135 0.000886945 0.0247963 -0.00259492 0.0246577 0.0503637 0.0115862 0.0225352 0.0565464 -0.00618664 -0.0177016 0.0122577
internal_weight=3584.67 1249.16 1170.95 305.584 865.361 2335.51 2208.06 1556.24 1481.45 651.822 1397.76 127.452 51.566 795.8 751.234 702.012 538.846 211.652 107.43 104.222 163.166 327.194 74.7897 31.9706 183.406 113.648 26.1554 69.7584 56.566 87.4925
internal_count=24220 7378 6991 1469 5522 16842 16133 10943 10468 5190 9760 709 323 4923 4582 4265 3330 1239 603 636 935 2091 475 191 915 553 123 362 294 430
is_linear=0
shrinkage=0.05


Tree=25
num_leaves=31
num_cat=0
split_feature=8 15 29 15 8 28 29 38 34 34 19 34 28 25 29 35 39 26 38 28 26 29 38 8 37 39 28 38 3 1
split_gain=97.7076 72.4423 48.8596 34.9543 32.5274 32.5023 31.3657 31.251 37.4164 30.2805 28.9139 23.158 23.1035 21.4274 21.2657 20.9919 23.7819 23.2173 20.6885 42.3425 21.072 20.6477 20.2056 20.1353 19.3001 18.0709 18.0662 25.0906 17.7319 17.6334
threshold=4.6673896312713632 400.39663696289068 4.487786293029786 63.443399429321296 2.3174606561660771 1.1633936762809756 3.8863706588745122 29.500000000000004 -4.4463846683502188 3.0800255537033085 0.59829968214035045 -2.6822012662887569 0.76739129424095165 0.68990384615384626 0.92940384149551403 5.7002444267272958 1356.1453247070315 111.3050003051758 51.500000000000007 1.3716647028923037 0.56499999761581432 5.6561520099639901 22.500000000000004 1.7821906805038454 -0.092987373471260057 1181.8356933593752 1.1026334166526797 58.500000000000007 36.604181289672859 0.27962969658639708
decision_type=2 2 2 2 2 2 2 2 2 2 2 2 2 2 2 2 2 2 2 2 2 2 2 2 2 2 2 2 2 2
left_child=1 2 3 13 10 12 -2 8 -4 11 14 29 -3 -1 -5 17 -17 -14 19 25 -21 -7 -11 -13 -22 -16 27 -9 -8 -10
right_child=6 5 7 4 -6 21 28 26 9 22 -12 23 15 -15 18 16 -18 -19 -20 20 24 -23 -24 -25 -26 -27 -28 -29 -30 -31
leaf_value=-0.0079210861096873919 0.056370509633972304 -0.005866856804527607 -0.033152981935607166 0.013716854929382427 0.028743401430201355 0.01348004722978715 -0.023920125409865212 0.082445671218764713 0.063747864894998549 -0.035520452461505064 -0.026185008073385377 0.025781112815169562 0.06715593642234173 -0.037594891837226467 -0.04187137364954166 0.047205392155294776 0.0099178666647862911 -0.045109395014621467 -0.01198268863510852 0.039769079489365838 -0.014540672518088117 -0.019646244174178304 0.0035382458362869986 0.10401738182369705 0.0042485919150138498 0.027706581061293891 -0.025303133464298518 -0.0099777078137562661 0.037375203175217614 -0.021388495583302549
leaf_weight=412.97635589540005 97.079906344413757 45.710537515580654 82.861844643950462 339.02144788205624 113.98090736567974 118.22025469690561 23.607202842831612 8.7577783167362195 6.9961493015289298 55.932877093553543 91.425152540206909 102.26493323594332 6.3143303245306042 71.45972491055727 9.6991086453199369 163.58779440075159 58.463127680122852 16.115628466010094 292.36871381103992 27.154318168759346 276.75227802991867 77.97533767670393 80.41556715965271 8.9245581179857236 269.27188268303871 180.2998073771596 478.85038986057043 42.626683302223682 23.325394228100777 41.907398328185081
leaf_count=2928 488 256 735 1997 658 615 160 53 44 463 748 678 36 576 60 753 324 119 1971 152 1833 535 643 58 1791 1056 4065 327 123 317
internal_value=-0.000189071 -0.00186092 -0.00476985 -0.000547859 0.00301253 0.016032 0.0401529 -0.0144389 -0.00346381 0.00482648 0.00103372 0.0195806 0.026657 -0.0123155 0.00282346 0.0327583 0.0374195 -0.0131255 -0.000671522 0.00365617 -0.00311766 0.000285669 -0.0124621 0.0321935 -0.00526651 0.0241083 -0.0222783 0.00580702 0.0064519 -0.00900161
internal_weight=3624.35 3480.33 2993.95 2084.41 1599.97 486.387 144.013 909.538 379.303 296.441 1485.99 160.093 290.191 484.436 1394.57 244.481 222.051 22.43 1055.55 763.177 573.178 196.196 136.348 111.189 546.024 189.999 530.235 51.3845 46.9326 48.9035
internal_count=24562 23791 21153 13770 10266 2638 771 7383 2938 2203 9608 1097 1488 3504 8860 1232 1077 155 6863 4892 3776 1150 1106 736 3624 1116 4445 380 283 361
is_linear=0
shrinkage=0.05


Tree=26
num_leaves=31
num_cat=0
split_feature=8 15 16 7 31 16 31 18 28 11 34 9 23 38 31 18 34 3 31 19 3 34 28 19 34 18 34 38 24 11
split_gain=89.4981 65.5234 36.0409 30.8497 30.2523 26.9749 23.5333 33.384 20.518 23.9407 23.668 19.2277 18.5026 18.0191 17.3767 17.3206 16.9274 16.8892 16.8822 17.333 16.815 24.0002 14.9603 14.8046 15.3734 17.6092 14.0523 27.9074 17.1834 15.5985
threshold=4.6673896312713632 400.39663696289068 57.804216384887702 -0.39706137106355804 5.4820966720581064 355.76571655273443 2.5870641469955449 18.44999980926514 1.4774423241615298 0.085825894027948393 -1.9754664897918699 0.95119047619047625 0.10600012540817262 85.500000000000014 6.0687773227691659 18.10000038146973 1.9230725169181826 71.774806976318374 6.4217655658721933 0.034135727211833007 70.772388458251967 0.26308430731296545 1.1886910796165469 0.27988468110561376 -2.2785180807113643 4.9500000476837167 2.7932021617889409 26.500000000000004 2.6157597303390507 0.35218492150306707
decision_type=2 2 2 2 2 2 2 2 2 2 2 2 2 2 2 2 2 2 2 2 2 2 2 2 2 2 2 2 2 2
left_child=1 3 -3 20 -2 22 7 -5 9 -8 17 26 15 16 -7 -13 18 -10 19 -11 -1 23 -4 24 -22 -26 27 28 -12 -30
right_child=4 2 5 6 -6 14 8 -9 10 13 11 12 -14 -15 -16 -17 -18 -19 -20 -21 21 -23 -24 -25 25 -27 -28 -29 29 -31
leaf_value=-0.00057450660819245139 -0.011089380552418857 0.0035635358329455936 0.045014822252037574 -0.0052391803887534717 0.049360104397276255 -0.05327503456105568 -0.0084732483996604237 -0.038119725324863823 -0.02820461174628678 0.06311326764473589 -0.011929454953200381 0.092222538726907693 0.097987257792515714 -0.02581281043286239 0.04196181699728644 0.0031100291323093183 -0.0079282823456438261 0.03037757896642625 0.085823541710078499 0.014755490917827541 0.0033459755134155563 -0.0082128042431950186 0.010670453164113261 -0.037438643053506589 0.021227894065481229 0.083126326271501738 -0.024223768739211615 -0.014213376974445356 0.01573413910663353 0.070713900872045599
leaf_weight=1175.9132944718003 24.942954555153847 280.57852389663458 142.69584544748068 156.94177661836147 117.04911401867867 14.379490531980993 247.8979235291481 152.66937105357647 209.83263090997934 21.914006493985653 48.345959410071373 5.6927857771515837 6.0043494477868071 24.991516165435314 7.0150746107101432 96.184497207403183 44.691156290471554 12.907819062471388 11.241003468632696 121.7771128565073 17.285894528031349 47.991367369890213 41.379014395177364 5.9229114651679984 19.469082221388817 29.192829571664333 128.21367383003235 297.9511341303587 83.227716490626335 15.304425746202467
leaf_count=8062 175 1615 676 1204 596 102 1729 1310 1653 124 309 37 44 183 33 674 300 77 59 808 95 291 212 34 102 154 1048 2231 532 93
internal_value=-0.000185718 -0.00178076 0.015238 -0.00455721 0.0387058 0.0311461 -0.00901636 -0.0214758 -0.00620825 0.00222573 -0.0106235 -0.00598403 0.0133525 0.0140545 -0.0217652 0.00822412 0.0190811 -0.0247752 0.0269045 0.022204 0.00124048 0.0190738 0.0373315 0.0373499 0.044189 0.0585583 -0.00963475 -0.00541401 0.0123996 0.0243876
internal_weight=3609.6 3467.61 486.048 2981.56 141.992 205.469 1685.79 309.611 1376.18 472.513 903.665 680.925 107.882 224.615 21.3946 101.877 199.623 222.74 154.932 143.691 1295.78 119.862 184.075 71.8707 65.9478 48.6619 573.043 444.829 146.878 98.5321
internal_count=24562 23791 2638 21153 771 1023 12415 2514 9901 3203 6698 4968 755 1474 135 711 1291 1730 991 932 8738 676 888 385 351 256 4213 3165 934 625
is_linear=0
shrinkage=0.05


Tree=27
num_leaves=31
num_cat=0
split_feature=33 31 29 31 15 24 29 2 25 31 31 16 28 2 26 25 31 28 8 39 37 37 5 29 31 3 35 37 39 16
split_gain=86.8409 124.133 53.6912 45.4978 31.2837 31.1501 30.3582 29.9735 23.6781 23.6778 32.8726 23.9699 22.7571 21.1569 20.2478 20.115 19.8288 19.5738 19.2898 18.7024 18.5728 18.2516 19.7797 25.5083 16.5402 19.9301 15.5896 18.5688 15.4846 16.0119
threshold=0.36230225861072546 5.3412973880767831 4.487786293029786 8.3754739761352557 73.295322418212905 8.5455908775329608 8.3435435295104998 1.0000000180025095e-35 0.85357142857142865 17.056469917297367 4.4637451171875009 3.9803382158279423 1.3753306865692141 1.0000000180025095e-35 0.56499999761581432 0.65833333333333344 9.0745458602905291 4.5607964992523202 2.9560115337371831 1351.7769775390627 -0.28499399125576014 -0.38704377412796015 0.097619047619047633 2.6169059276580815 5.9975888729095468 90.234252929687514 4.8746438026428232 -0.30672800540924067 1348.0101318359377 54.497600555419929
decision_type=2 2 2 2 2 2 2 2 2 2 2 2 2 2 2 2 2 2 2 2 2 2 2 2 2 2 2 2 2 2
left_child=2 5 3 4 15 -2 16 19 12 10 11 -4 21 -11 -14 -1 24 -9 -16 -5 -7 22 23 -6 25 -3 -10 -28 29 -12
right_child=1 6 9 7 8 20 -8 17 26 13 28 -13 14 -15 18 -17 -18 -19 -20 -21 -22 -23 -24 -25 -26 -27 27 -29 -30 -31
leaf_value=-0.0055315588211517011 -0.03059755723217597 0.040933691210471072 0.070865613980729977 0.067287224682184454 -0.00043315294673488039 0.078987247058700555 -0.036569236002849038 0.03512881573371842 -0.033949952555904432 0.057899876346294656 -0.014067086134894925 -0.0058153665439658201 0.037928178013077948 -0.023688970571393474 -0.0022696023502194575 -0.030089900028148899 -0.026608938817171135 -0.041305924828899297 0.036349522834796734 -0.0033309069741255257 -0.026478449611542221 0.020387103592012418 -0.012080239465676898 0.12757575442727651 0.057639005920943988 -0.03518500047158292 -0.024733542509990512 0.0052277471489919 -0.027827507304883783 0.041193272017033454
