tree
version=v4
num_class=1
num_tree_per_iteration=1
label_index=0
max_feature_idx=39
objective=binary sigmoid:1
feature_names=breakout_strength atr14_at_entry breakout_side adx_14_15m adx_50_flag atr14_percentile_20d atr14_sq atr14_zscore_20d breakout_strength_atr_ratio breakout_strength_percentile_20d breakout_strength_sq breakout_strength_vs_orb breakout_strength_zscore_10d day_of_week ema_slope_1h int_adx_x_orb_range int_atr14_x_adx int_breakout_strength_x_range int_breakout_strength_x_session int_vwap_distance_x_atr14 mac_dxy_trend mac_oil_volatility mac_spx_regime mac_us10y_change orb_range_atr_ratio orb_range_percentile_20d orb_range_sq pre_bo_bullish_ratio pre_bo_compression_ratio pre_bo_drift_atr pre_bo_inside_bar_flag pre_bo_last_candle_range_ratio price_vs_vwap_pct price_vs_vwap_pct_abs sm_first_30m_direction sm_first_30m_range sm_pre_breakout_volume_ratio sm_pre_breakout_volume_z time_in_session_min vwap_at_breakout
feature_infos=[0.099999999999454303:52.100000000000364] [0.061728832256556634:27.045098402884662] [0:1] [5.968195915222168:98.037620544433594] [0:1] [0.047619047619047616:1] [0.0038104488048702478:731.4373779296875] [-4.1034915548447195:10] [0.0059899007901549339:9.2009458541870117] [0.047619047619047616:1] [0.0099999997764825821:2714.409912109375] [0.00085984525503590703:61] [-5.2765618790243485:10] [0:4] [-1:1] [1.0180106163024902:18719.85546875] [1.0445084571838379:1552.31005859375] [0.0099999997764825821:1994.699951171875] [1.6000000238418579:4367.39990234375] [1.8744805856840685e-05:45.598564147949219] [-1:1] [0:3.0596606731414795] [0:1] [0:0.32200002670288086] [0.042417705059051514:210.84843444824219] [0.047619047619047616:1] [0.0099999997764825821:13525.6904296875] [0:1] [0.028938906267285347:132] [0:163.30654907226562] [0:1] [0:322.08389282226562] [-1.969296932220459:3.0380980968475342] [9.3792441475670785e-05:3.0380980968475342] [-96.721832275390625:81.546577453613281] [0:218.5968017578125] [0.0068376068957149982:3.9328670501708984] [-2.408865213394165:4.9923982620239258] [16:179] [1051.523193359375:4556.34765625]
tree_sizes=3397 3450 3458 3454 3442 3455 3454 3468 3449 3460 3462 3468 3453 3463 3460 3457 3458 3456 3450 3454 3451 3457 3461 3456 3444 3461 3450 3460 3458 3459 3456 3458 3458 3452 3468 3459 3472 3469 3472 3460 3435 3475 3435 3474 3472 3453 3446 3464 3460 3453 3462 3470 3451 3449 3465 3477 3458 3443 3456 3450 3482 3481 3459 3469 3476 3473 3451 3457 3442 3460 3463 3482 3479 3463 3473 3462 3462 3450 3470 3453 3485 3471 3449 3456 3470 3462 3447 3457 3447 3444 3465 3440 3454 3472 3454 3441 3464 3458 3454 3448 3466 3461 3433 3468 3435 3425 3478 3437 3421 3422 3450 3454 3448 3432 3453 3447 3462 3438 3437 3434 3444 3429 3434 3435 3453 3440 3437 3473 3454 3421 3433 3453 3450 3437 3456 3439 3470 3431 3472 3431 3476 3452 3464 3462 3456 3413 3428 3437 3433 3440 3479 3444 3444 3423 3451 3476 3456 3437 3408 3409 3420 3432 3438 3450 3403 3478 3442 3472 3438 3470 3436 3444 3442 3432 3424 3473 3412 3436 3473 3424 3435 3455 3444 3457 3440 3449 3426 3444 3416 3429 3440 3432 3451 3475 3476 3476 3431 3482 3445 3498 3423 3441 3431 3444 3461 3418 3455 3412 3431 3432 3436 3457 3452 3443 3459 3476 3476 3434 3438 3459 3446 3474 3448 3429 3433 3442 3446 3416 3428 3442 3446 3458 3451 3415 3440 3415 3460 3431 3445 3417 3433 3436 3416 3434 3416 3440 3399 3433 3443 3411 3433 3457 3422 3427 3435 3440 3403 3401 3430 3420 3436 3449 3436 3438 3454 3455 3423 3454 3409 3418 3430 3440 3413 3433 3419 3449 3434 3457 3429 3446 3425 3399 3420 3421 3436 3441 3448 3450 3423 3403 3415 3426 3419 3463 3426 3452 3431 3418 3449 3449 3434 3452 3428 3445 3426 3426 3396 3439 3381 3435 3475 3439 3460 3427 3462 3456 3403 3422 3427 3441 3436 3395 3404 3456 3385 3465 3441 3404 3403 3469 3377 3379 3452 3416 3406 3440 3435 3414 3404 3419 3426 3441 3416 3441 3388 3430 3436 3418 3419 3412 3455 3395 3401 3389 3441 3387 3420 3394 3434 3436 3382 3422 3394 3389 3400 3471 3433 3434 3427 3401 3453 3456 3445 3436 3432 3422 3425 3460 3429 3443 3460 3408 3437 3389 3452 3440 3437 3445 3450 3425 3395 3415 3386 3439 3390 3473 3441 3468 3419 3407 3429 3400 3445 3433 3421 3391 3422 3421 3424 3402 3425 3404 3430 3417 3441 3458 3478 3433 3419 3436 3427 3460 3437 3431 3410 3416 3451 3420 3430 3420 3448 3426 3453 3420 3462 3411 3426 3435 3439 3419 3401 3392 3413 3428 3424 3430 3414 3418 3399 3460 3405 3449 3413 3441 3422 3416 3398 3405 3409 3420 3435 3399 3435 3438 3432 3454 3438 3443 3448 3413 3418 3365 3421 3421 3415 3453 3415 3453 3458 3419 3423 3411 3414 3427 3413 3433 3434 3414 3416 3442 3410 3452 3415 3452 3441 3411 3450 3417 3432 3415

Tree=0
num_leaves=31
num_cat=0
split_feature=29 19 16 31 31 28 8 39 29 15 39 28 38 8 28 38 31 28 2 34 8 11 28 11 3 8 28 19 38 34
split_gain=1609.64 587.974 280.583 255.393 227.804 203.947 142.267 108.982 99.4779 96.5251 81.52 80.6109 108.276 71.5451 54.0466 60.9288 54.0028 53.8213 52.685 50.3248 49.573 48.4361 51.2549 43.9956 41.4633 41.0592 40.5604 36.0332 36.0031 34.7833
threshold=2.3603980541229252 0.32719852030277258 113.33028411865236 4.9437518119812021 2.867586731910706 1.2659162878990176 1.7821906805038454 1356.1453247070315 5.2706151008605966 284.47721862792974 2206.3415527343755 1.3641711473464968 44.500000000000007 2.0915734767913823 1.4009202122688296 52.500000000000007 17.056469917297367 1.6008849740028384 1.0000000180025095e-35 2.9109526872634892 4.8864035606384286 0.35218492150306707 1.9096016287803652 0.15356541424989703 67.970684051513686 0.43342514336109167 1.2862395048141482 1.564663350582123 53.500000000000007 3.1355882883071904
decision_type=2 2 2 2 2 2 2 2 2 2 2 2 2 2 2 2 2 2 2 2 2 2 2 2 2 2 2 2 2 2
left_child=1 5 3 11 9 24 17 -4 13 -3 27 25 -13 14 15 -5 20 23 -18 -19 26 -14 -23 -7 -1 -2 28 -6 -10 -8
right_child=2 4 7 8 10 6 29 -9 16 -11 -12 12 21 -15 -16 -17 18 19 -20 -21 -22 22 -24 -25 -26 -27 -28 -29 -30 -31
leaf_value=-0.27824566725955124 -0.32968958948257809 -0.32863277045948291 -0.22427955350765982 -0.27707215977806116 -0.23283152696825965 -0.31460883520826932 -0.258299402940741 -0.32263857362806053 -0.28408105707285369 -0.2203041363876328 -0.29170110118660048 -0.32638518234335251 -0.36904636175744043 -0.2975343012451574 -0.36016673062044913 -0.34714642249198796 -0.26503093483040935 -0.31967761607705009 -0.37432389779609848 -0.36706368566311981 -0.29846027555214383 -0.30835146732504887 -0.35398246160257596 -0.28194317835944543 -0.2403230189107407 -0.30396403394273153 -0.37950806176504642 -0.20293345182610745 -0.35997978036255751 -0.33535918071938897
leaf_weight=373.24894730746746 277.4378197491169 89.472477898001671 71.919294223189354 47.539872452616692 215.02650001645088 254.03357484936714 148.71447280049324 46.077107146382332 19.50353741645813 26.573569729924202 42.176399663090706 956.892304494977 275.24367178976536 78.257943883538246 327.65942859649658 88.741095244884491 23.648039117455482 685.54934018850327 20.478714287281036 60.948554426431656 21.697685375809669 89.716272115707397 194.54778572916985 173.82527722418308 89.960066333413124 351.30746771395206 631.67081807553768 197.47331634163857 76.063795924186707 16.090418368577957
leaf_count=1531 1138 367 295 195 882 1042 610 189 80 109 173 3925 1129 321 1344 364 97 2812 84 250 89 368 798 713 369 1441 2591 810 312 66
internal_value=-0.317407 -0.285441 -0.338487 -0.341059 -0.241214 -0.299451 -0.309349 -0.262702 -0.358228 -0.303807 -0.225256 -0.330369 -0.33661 -0.341698 -0.349162 -0.322653 -0.369518 -0.315461 -0.315879 -0.323559 -0.372684 -0.354084 -0.339565 -0.301321 -0.270855 -0.315324 -0.374908 -0.218482 -0.344419 -0.265859
internal_weight=5971.5 2373.09 3598.4 3480.41 570.722 1802.37 1339.16 117.996 1335.26 116.046 454.676 2145.15 1516.4 542.198 463.94 136.281 793.063 1174.36 44.1268 746.498 748.936 559.508 284.264 427.859 463.209 628.745 727.238 412.5 95.5673 164.805
internal_count=24494 9734 14760 14276 2341 7393 5493 484 5477 476 1865 8799 6220 2224 1903 559 3253 4817 181 3062 3072 2295 1166 1755 1900 2579 2983 1692 392 676
is_linear=0
shrinkage=1


Tree=1
num_leaves=31
num_cat=0
split_feature=29 33 32 31 28 31 28 38 3 29 2 3 3 18 29 33 34 1 34 31 34 38 39 34 0 31 1 34 38 0
split_gain=1450.63 676.187 250.373 248.695 219.154 167.977 105.074 109.297 85.3677 76.5464 74.739 65.4075 65.2011 62.2233 54.9929 52.0527 50.5514 48.5335 47.1944 39.1454 37.6952 34.7174 36.4178 34.5206 32.3396 31.1116 33.3307 31.3282 30.1064 29.8627
threshold=2.3603980541229252 0.23873329162597659 0.45762243866920477 5.225367784500123 1.2659162878990176 3.0679445266723637 1.3079963326454165 44.500000000000007 82.631389617919936 4.3255488872528085 1.0000000180025095e-35 54.086221694946296 76.48465728759767 23.44999980926514 4.8942360877990732 0.37460504472255712 1.8785920739173891 4.2220542995804387 -5.0946476459503165 2.867586731910706 3.1355882883071904 52.500000000000007 1835.9734497070315 -2.7935580015182491 2.8499999999999095 2.9114540815353398 0.88192809402310257 3.5971024036407475 25.500000000000004 1.5000000000001139
decision_type=2 2 2 2 2 2 2 2 2 2 2 2 2 2 2 2 2 2 2 2 2 2 2 2 2 2 2 2 2 2
left_child=1 4 3 6 12 17 21 18 9 -5 -10 -4 19 16 29 -7 23 -3 -8 -1 -20 -2 -23 -6 -11 -15 27 -27 -25 -9
right_child=2 5 11 8 13 15 7 14 10 24 -12 -13 -14 25 -16 -17 -18 -19 20 -21 -22 22 -24 28 -26 26 -28 -29 -30 -31
leaf_value=0.017239233212451261 0.020420425932707407 0.049414325964588571 0.00708851544567227 -0.022278195573902232 -0.021234983916780928 0.066392544362243039 -0.044009636617072218 -0.030193978852022598 0.050477879406941907 -0.054907626566350225 -0.052771770230271221 0.10373389951697161 0.081624707001367189 0.0048753313925994383 -0.050926499960466554 0.10498101451062661 -0.024814562335861236 -0.025549395795362237 5.2350598191239922e-06 0.049055082744709523 -0.022001027970471008 0.0064175617632189061 -0.029484364015546095 0.025737856184732979 -0.01648453933030803 0.057541028622409743 0.015200941581039268 -0.042380780342404493 0.00207127616637898 0.0021842712045660202
leaf_weight=165.50888434052467 245.20301012694836 51.68406967818737 27.271399080753326 296.45251967012882 110.27866411209106 124.51119835674763 87.329488828778267 271.0104012042284 46.13413605093956 742.24627813696861 28.103835269808769 49.45800544321537 97.32568447291851 163.72864112257957 288.14912724494934 306.64396119117737 180.57465712726116 36.853899881243706 748.94898922741413 234.9830422103405 262.59004504978657 236.10056433081627 100.60411761701107 190.04140591621399 59.650415703654289 119.34621351957321 133.75224789977074 8.2670162916183454 460.1409977376461 96.185334742069244
leaf_count=675 1005 211 112 1221 452 506 359 1118 189 3071 116 201 395 670 1189 1241 742 151 3077 958 1079 968 413 779 246 487 547 34 1886 396
internal_value=0.000322824 0.0305534 -0.0197737 -0.0217294 0.0164862 0.0809847 -0.0122944 -0.0184023 -0.0405195 -0.0440276 0.0113056 0.0695029 0.0448856 0.00613127 -0.0345645 0.0938668 -0.00103612 0.0181607 -0.00875664 0.0359268 -0.00570414 0.00610959 -0.00430031 0.00460611 -0.0520581 0.0220061 0.0327123 0.0510006 0.00899935 -0.0217007
internal_weight=5969.08 2383.64 3585.44 3508.71 1863.95 519.693 2336.12 1754.21 1172.59 1098.35 74.238 76.7294 497.818 1366.13 655.345 431.155 941.036 88.538 1098.87 400.492 1011.54 581.908 336.705 760.461 801.897 425.094 261.365 127.613 650.182 367.196
internal_count=24494 9734 14760 14447 7625 2109 9604 7218 4843 4538 305 313 2028 5597 2703 1747 3859 362 4515 1633 4156 2386 1381 3117 3317 1738 1068 521 2665 1514
is_linear=0
shrinkage=0.05


Tree=2
num_leaves=31
num_cat=0
split_feature=16 28 11 31 39 31 32 11 24 28 11 28 26 11 19 24 31 32 18 17 31 31 2 32 18 28 31 32 26 35
split_gain=1077.8 357.336 209.63 231.151 203.636 136.579 135.199 114.094 98.2199 79.9612 71.0099 85.1389 61.4768 61.4326 53.763 48.6514 41.7607 40.9757 36.8143 36.6014 36.0906 35.9198 48.7964 34.2547 33.051 33.0291 31.4631 31.4165 31.4313 31.1367
threshold=85.023303985595717 1.4196773767471316 0.35218492150306707 5.0983538627624521 1468.5145263671877 3.0214917659759526 0.24913627654314044 1.8047618865966799 2.8138862848281865 1.7181292772293093 0.093095477670431151 1.1886910796165469 25.505000114440922 0.80178570747375499 0.10216293483972551 7.2520351409912118 1.3911983370780947 -0.19789675623178479 6.0499999523162851 31.759999275207523 3.648666620254517 14.127468585968019 1.0000000180025095e-35 -0.011525997426360844 3.0499999523162846 1.1751288175582888 4.2617769241333017 -0.011525997426360844 122.10499954223634 2.7656044960021977
decision_type=2 2 2 2 2 2 2 2 2 2 2 2 2 2 2 2 2 2 2 2 2 2 2 2 2 2 2 2 2 2
left_child=1 10 3 26 5 8 9 25 27 16 11 18 -8 -11 23 -13 -4 19 -1 -15 -12 -5 -23 -7 -17 29 -3 28 -2 -6
right_child=4 2 6 21 7 14 12 -9 -10 13 20 15 -14 17 -16 24 -18 -19 -20 -21 -22 22 -24 -25 -26 -27 -28 -29 -30 -31
leaf_value=0.037028069829116356 0.040183633372939287 -0.0089208424441217758 -0.028796530200993889 -0.049064759578623524 -0.049972042998163206 0.066119916739357798 0.080470864451372734 0.10365995157659601 0.075951877622507269 -0.019902552462100417 0.012388138536202329 -0.0030523577741973324 -0.0031717438323455409 0.0654165283280492 0.094968673526188679 0.050677051801983487 0.042958449943819532 -0.0012483743566461254 0.0081038507135987262 -0.028496522175073081 0.035561293204608838 0.033318066637184625 -0.054300465788493714 -0.071968212492623057 -0.048105332733620193 -0.015318722533547805 -0.025248310509613809 -0.048326368175851293 -0.077052699360250568 0.054127379237608665
leaf_weight=147.95789679884911 32.506146192550659 1085.5839978158474 24.386702045798302 780.3805940747261 8.7371816486120206 10.298146948218347 71.683394402265549 30.567912518978119 64.72716212272644 601.13768963515759 331.19214847683907 289.45349541306496 31.482759460806847 45.08172769844532 355.39334100484848 9.0246850997209531 116.46631370484829 355.30087779462337 431.25002419948578 13.320406824350355 343.14176650345325 32.125032797455788 31.203867167234421 7.7957693487405768 112.90547677874565 118.84616826474667 406.14131237566471 29.812495857477188 6.815833091735839 37.69187206029892
leaf_count=603 133 4468 100 3246 36 42 291 123 262 2481 1353 1187 129 184 1430 37 477 1463 1765 55 1405 132 130 32 465 488 1674 122 28 153
internal_value=0.000301325 -0.00747146 -0.0163422 -0.0252072 0.0584344 0.0751515 0.000100904 0.0150855 0.0317295 -0.00479261 0.0116758 0.00314964 0.0549192 -0.00969676 0.0906883 -0.0142353 0.030488 0.00512206 0.0155063 0.0438992 0.024191 -0.0461244 -0.00979268 0.00628123 -0.0407174 -0.00131906 -0.013371 -0.00965144 0.0195919 0.0343648
internal_weight=5962.41 5259.22 3594.29 2335.43 703.192 507.349 1258.86 195.843 133.862 1155.69 1664.93 990.592 103.166 1014.84 373.487 411.384 140.853 413.703 579.208 58.4021 674.334 843.709 63.3289 18.0939 121.93 165.275 1491.73 69.1345 39.322 46.4291
internal_count=24494 21645 14830 9650 2849 2049 5180 800 545 4760 6815 4057 420 4183 1504 1689 577 1702 2368 239 2758 3508 262 74 502 677 6142 283 161 189
is_linear=0
shrinkage=0.05


Tree=3
num_leaves=31
num_cat=0
split_feature=33 28 31 16 31 8 35 3 32 35 35 28 28 39 9 33 26 39 35 10 8 39 18 28 36 33 31 25 8 33
split_gain=1003.85 499.691 225.628 158.949 157.243 106.882 91.1495 84.2172 92.8547 62.2756 60.8545 57.5353 46.5871 45.1298 43.5874 42.9563 48.4904 35.4283 37.5107 35.0802 34.1688 33.7441 30.0903 29.4872 37.6585 33.7735 28.0303 26.2248 25.2627 24.0605
threshold=0.41966044902801519 1.2659162878990176 5.225367784500123 93.381301879882827 3.0882208347320561 3.1367582082748418 7.8190202713012704 80.863616943359389 0.027599574998021129 6.361192226409913 2.7656044960021977 1.6256313323974612 1.4196773767471316 1754.5081176757815 0.68990384615384626 0.26350396871566778 11.225000381469728 1935.3376464843752 7.0250942707061776 0.30500000715255743 0.45456734299659735 1572.845642089844 13.750000000000002 1.7039645314216616 0.53357750177383434 0.15565976500511172 9.3380513191223162 0.39444444444444454 0.95126742124557506 0.029696457087993625
decision_type=2 2 2 2 2 2 2 2 2 2 2 2 2 2 2 2 2 2 2 2 2 2 2 2 2 2 2 2 2 2
left_child=1 3 9 17 -2 7 -6 11 -9 12 -5 19 -3 27 -14 -7 -17 20 -19 29 26 -8 -16 -24 25 -25 -1 -13 -11 -4
right_child=4 2 5 10 6 15 21 8 -10 28 -12 13 14 -15 22 16 -18 18 -20 -21 -22 -23 23 24 -26 -27 -28 -29 -30 -31
leaf_value=0.0079862431118721544 -0.011554891707029341 0.017054147898284477 0.061997325266309501 -0.012540624938562006 0.091254280189509041 -0.0074259781816007307 0.055038609835208842 0.05075280153032824 -0.050962933304769586 -0.027383481544841156 0.083542912317156687 -0.020813255533799001 -0.010527983040059988 -0.057855042652133398 0.034092153894633756 0.091962244728687081 -0.026164450520624077 0.020028126574759369 -0.020789870236351198 0.0068453575845122674 0.02999275231042331 -0.02640559870693452 0.021469067186060699 -0.002497800009181486 -0.016524652977747533 0.037641316291889507 0.085748707946352407 -0.046052661226786251 -0.0079665803274126465 -0.03532660190038369
leaf_weight=415.61527499556541 50.225354880094528 278.7722106128931 6.4645777195692053 18.790973380208015 351.82446771860123 79.996492609381676 29.37425908446312 55.888629198074341 37.317520350217819 400.30587041378021 127.6235022097826 192.5831384062767 1235.9284377843142 409.00964963436127 78.284146890044212 28.102484822273254 12.418198868632315 104.5599978864193 121.6206394135952 86.415686160326004 444.87069542706013 22.196510225534439 142.70539955794811 162.57857589423656 282.88569737970829 77.085261330008507 11.840398058295248 224.19013173878193 289.7157334536314 175.14871065318584
leaf_count=1694 206 1141 27 77 1412 331 119 228 156 1654 513 805 5093 1716 322 113 51 426 499 357 1812 91 585 669 1168 315 48 940 1195 731
internal_value=0.000282426 -0.00561278 -0.0137641 0.0222477 0.0717657 -0.0310518 0.0821524 -0.0356078 0.00996369 -0.00609469 0.0711772 -0.0394961 -0.00207498 -0.0460339 -0.00477222 0.0137728 0.0556621 0.0157157 -0.0018977 -0.0193255 0.020288 0.0199043 0.00478856 0.00132813 -0.00416574 0.010402 0.0101715 -0.0344098 -0.0192406 -0.0318026
internal_weight=5954.34 5500.72 4255.8 1244.92 453.621 1307.54 403.395 1187.02 93.2061 2948.26 146.414 1093.81 2258.24 825.783 1979.47 120.517 40.5207 1098.51 226.181 268.029 872.326 51.5708 743.539 665.255 522.55 239.664 427.456 416.773 690.022 181.613
internal_count=24494 22666 17597 5069 1828 5455 1622 4960 384 12142 590 4576 9293 3461 8152 495 164 4479 925 1115 3554 210 3059 2737 2152 984 1742 1745 2849 758
is_linear=0
shrinkage=0.05


Tree=4
num_leaves=31
num_cat=0
split_feature=29 19 16 31 31 29 39 15 15 39 0 31 29 39 2 16 0 11 24 31 32 34 5 15 9 34 3 11 24 15
split_gain=1199.19 366.935 195.109 189.444 154.734 100.249 76.6614 71.7231 55.9896 54.1003 47.7099 46.5414 44.6966 41.9222 41.728 38.9181 38.6265 32.9915 29.9681 30.9176 26.2729 26.1009 24.7434 24.5078 23.7833 26.6679 22.7277 22.5792 25.6938 21.8884
threshold=2.3603980541229252 0.32719852030277258 113.33028411865236 4.8134498596191415 2.867586731910706 5.2706151008605966 1356.1453247070315 284.47721862792974 400.39663696289068 2206.3415527343755 1.3499999999999093 17.056469917297367 4.4099361896514901 1717.7943115234377 1.0000000180025095e-35 22.448971748352054 1.699999999999932 2.9128788709640507 4.0898339748382577 5.6567072868347177 0.53458940982818615 2.9109526872634892 0.95119047619047625 44.452360153198249 0.57518796992481214 -2.7935580015182491 39.605136871337898 0.066666666418313994 6.730525255203248 262.86662292480474
decision_type=2 2 2 2 2 2 2 2 2 2 2 2 2 2 2 2 2 2 2 2 2 2 2 2 2 2 2 2 2 2
left_child=1 8 3 12 7 13 -4 -3 10 20 18 17 23 16 -13 -10 29 -7 21 -20 -6 22 24 -2 -1 -26 -18 -25 -29 -5
right_child=2 4 6 5 9 11 -8 -9 15 -11 -12 14 -14 -15 -16 -17 26 -19 19 -21 -22 -23 -24 27 25 -27 -28 28 -30 -31
leaf_value=0.003275585379185029 -0.022699637284566684 -0.010956621789810325 0.076229164032648913 -0.022593725183458022 0.068275928683403139 -0.050177624190687733 -0.0058747494701416299 0.081599332761980004 0.0030326538718802969 0.021219887050933434 0.039603039027948886 0.048573491344262275 -0.017596326364222131 -0.031313587296009505 -0.049503618301747931 0.059791818490254646 0.0082400336017357766 0.041443724609906557 0.024549967229570539 -0.0039118048468180797 0.093506506362959249 -0.03191605365060237 -0.024129722482383664 -0.013500714583500171 -0.027291122447286348 0.027802575772603214 0.083976197726386509 0.0021601083968191127 0.038703387917757757 0.011028314641158636
leaf_weight=509.17458269000053 133.17789375782013 89.356785491108894 73.563747972249985 158.45259554684162 216.8767031878233 749.25948145985603 46.103624165058136 27.205372214317322 41.039084896445274 42.591142416000366 161.8977572619915 23.839677363634109 1096.6693953722715 309.160410374403 19.713393971323967 116.40679667890072 23.61016982793808 9.825350955128668 514.62227390706539 116.73940639197826 205.10852691531181 45.406741440296173 59.061569646000862 215.38881170749664 24.238577306270599 219.2354059368372 17.207008078694344 556.62090553343296 52.600104570388794 69.38251419365406
leaf_count=2089 550 367 295 662 870 3171 189 109 167 173 658 97 4532 1293 84 470 97 40 2100 481 822 189 242 886 100 897 70 2292 215 287
internal_value=0.00026546 0.0276613 -0.0181456 -0.0203334 0.0622231 -0.0346594 0.0445772 0.0106543 0.0165455 0.0751459 0.0138215 -0.0460957 -0.0107038 -0.0187594 0.00405468 0.0450403 -0.00428748 -0.0489798 0.0110115 0.0192797 0.0805705 0.00491368 0.00698375 -0.00280551 0.0094348 0.0222883 0.040417 0.000403775 0.00532929 -0.0123325
internal_weight=5943.54 2388.96 3554.58 3434.91 581.139 1380.45 119.667 116.562 1807.82 464.576 1650.38 802.638 2054.46 577.813 43.5531 157.446 268.652 759.085 1488.48 631.362 421.985 857.117 811.71 957.788 752.649 243.474 40.8172 824.61 609.221 227.835
internal_count=24494 9734 14760 14276 2341 5801 484 476 7393 1865 6756 3392 8475 2409 181 637 1116 3211 6098 2581 1692 3517 3328 3943 3086 997 167 3393 2507 949
is_linear=0
shrinkage=0.05


Tree=5
num_leaves=31
num_cat=0
split_feature=29 33 28 28 31 31 32 16 38 29 38 18 3 34 11 11 35 39 29 31 39 34 28 38 35 31 29 34 31 18
split_gain=1080.74 493.104 190.713 161.072 140.556 139.254 131.372 106.902 82.661 70.4225 64.0233 61.547 59.9741 44.8979 40.4959 39.3463 36.6737 32.8213 32.5576 31.3485 46.4056 34.8268 30.8029 28.8157 35.794 28.7621 29.6372 28.2863 28.2634 27.9396
threshold=2.7667475938797002 0.30818596482276922 1.2281655073165896 1.2733201384544375 4.2617769241333017 3.0214917659759526 0.45762243866920477 98.166500091552749 44.500000000000007 5.2706151008605966 54.500000000000007 23.44999980926514 75.706295013427749 2.9109526872634892 0.33333332836627966 0.26719160377979284 2.7656044960021977 1745.9436035156252 4.3255488872528085 2.958530187606812 3026.5456542968755 2.736203789710999 1.5460605621337893 29.500000000000004 6.6056163311004648 3.5152893066406254 1.6068834066390993 3.2691348791122441 10.137025833129885 5.4500000476837167
decision_type=2 2 2 2 2 2 2 2 2 2 2 2 2 2 2 2 2 2 2 2 2 2 2 2 2 2 2 2 2 2
left_child=1 3 7 12 8 16 9 10 27 14 -2 13 25 -5 28 -8 -3 -12 -10 -13 21 -21 -16 24 -11 -1 -27 -4 -6 -28
right_child=2 5 4 11 6 -7 15 -9 18 23 17 19 -14 -15 22 -17 -18 -19 -20 20 -22 -23 -24 -25 -26 26 29 -29 -30 -31
leaf_value=0.016279451945386225 0.025185806460422372 -0.040781196488023752 0.0040469707176599501 0.0017170650551285465 -0.035507189213328065 0.083703703306904173 -0.058807724226825557 0.077081438951806802 -0.013038118084144325 -0.0026122855510913442 0.00066735515973452347 0.0032994088222704793 0.065150765369570818 -0.032577297882884 0.077212885505036244 0.088230314869555737 0.037983112137387413 -0.032059816332588087 -0.039120846214962438 0.040676737131769836 -0.019984279256466644 -0.012584682273755962 -0.0096062928389056158 -0.054512136253903824 -0.043595250012484744 0.055201152901808631 0.07712464711949972 -0.019624360373234048 0.03234386163114792 0.0079498821131606459
leaf_weight=279.84371513128281 168.51557250320911 27.707045033574104 540.02681958675385 945.79506856203079 401.26246856153011 370.1540095359087 5.3476290851831427 49.97409400343895 207.19842426478863 66.320439696311951 182.89373774826527 206.76347705721855 130.70949041843414 106.0299506187439 10.794676527380942 27.114435464143753 31.435256451368332 131.36311930418015 285.8311426192522 273.96165588498116 44.148391604423523 34.361590921878815 162.66368067264557 510.83007062971592 276.67441061139107 136.91808217763901 17.52098873257637 164.53812423348427 15.806367978453634 86.656639948487282
leaf_count=1133 688 115 2229 3890 1686 1489 22 201 857 280 750 846 525 442 44 109 127 544 1192 1113 181 141 676 2183 1180 552 71 682 66 351
internal_value=-0.000159839 0.0231981 -0.0197675 0.0138727 -0.0252097 0.0723235 -0.0355334 0.0075424 -0.0124729 -0.0377725 0.000319251 0.00538385 0.0348477 -0.00173802 -0.0244725 0.0637483 0.000992578 -0.0130029 -0.0281744 0.0187857 0.0278524 0.0347226 -0.00413317 -0.0469613 -0.0356886 0.0272237 0.039894 -0.00147594 -0.0329166 0.0196947
internal_weight=5899.16 2692.01 3207.16 2262.71 2674.41 429.296 1476.81 532.747 1197.59 1444.35 482.772 1611.06 651.649 1051.83 590.527 32.4621 59.1423 314.257 493.03 559.235 352.472 308.323 173.458 853.825 342.995 520.939 241.096 704.565 417.069 104.178
internal_count=24365 10976 13389 9245 11206 1731 6246 2183 4960 6115 1982 6613 2632 4332 2472 131 242 1294 2049 2281 1435 1254 720 3643 1460 2107 974 2911 1752 422
is_linear=0
shrinkage=0.05


Tree=6
num_leaves=31
num_cat=0
split_feature=29 33 16 31 31 33 3 32 29 8 3 38 24 29 34 29 38 31 39 15 29 34 33 34 39 34 34 34 38 24
split_gain=978.271 449.398 172.84 159.188 126.873 96.0004 89.9834 79.8926 61.2386 60.8396 56.9487 40.3518 55.933 40.8762 39.4618 39.4196 37.907 37.4346 32.1053 31.1937 29.6609 37.9155 37.7437 29.2599 30.6996 26.4325 32.884 24.0341 27.8259 24.1534
threshold=2.7667475938797002 0.30818596482276922 119.1574172973633 4.7570178508758554 3.0214917659759526 0.40420421957969671 85.957183837890639 -0.011525997426360844 5.2706151008605966 2.0915734767913823 74.63965225219728 44.500000000000007 3.325623750686646 1.4523704051971438 2.9109526872634892 7.8033049106597909 41.500000000000007 14.127468585968019 1764.013122558594 266.45339965820318 6.8189122676849374 -4.9810774326324454 0.19877532869577411 3.2691348791122441 1537.1160888671877 3.0198273658752446 -2.5109536647796626 -2.7935580015182491 25.500000000000004 6.3247773647308358
decision_type=2 2 2 2 2 2 2 2 2 2 2 2 2 2 2 2 2 2 2 2 2 2 2 2 2 2 2 2 2 2
left_child=1 6 3 16 19 8 9 -8 18 11 -4 14 -13 -14 27 -7 23 -10 -5 -3 22 -22 -18 -2 -25 26 -11 29 -29 -1
right_child=2 4 10 5 -6 15 7 -9 17 25 -12 12 13 -15 -16 -17 20 -19 -20 -21 21 -23 -24 24 -26 -27 -28 28 -30 -31
leaf_value=-0.023776202657200655 0.0012990858175916118 -0.020181812838556499 -0.0053846597613436409 -0.010469119557085222 0.08000530395998251 0.063211628591292243 0.063278093098237009 -0.016568773708545044 -0.048648897143415276 -0.00047561622325052266 0.074580831399839967 -0.0017506863560097698 0.03893184266309796 0.012194717855513225 -0.026692846102770937 -0.032960757122282719 -0.018893294417697992 -0.0038485290946026966 -0.036065451717164285 0.063150648010514288 0.0045494108223555511 -0.047518157700744863 0.011978148715843887 0.0070518723218891358 -0.03284013377712424 -0.014643671778320622 0.063752111884622376 0.02108741107130381 0.0014472165937692997 0.038539449670247174
leaf_weight=113.18566162884235 667.94095782935619 44.035882562398911 34.082985073328018 249.51789745688438 367.95839051902294 34.636614501476288 147.6376097202301 39.595932766795158 717.23919585347176 24.936125904321671 63.439405009150505 296.74049007892609 274.1296684294939 300.41369426250458 112.08371342718601 15.218957170844076 580.71161127090454 50.149962812662125 242.15462678670883 14.959954306483267 45.124289989471436 152.38308951258659 119.0742104947567 71.437000066041946 146.98226346075535 17.695313736796379 96.150325462222099 267.05895048379898 556.93574184179306 17.879077613353729
leaf_count=467 2759 182 140 1045 1489 141 596 163 3108 101 256 1214 1110 1224 467 64 2412 212 1027 60 187 638 491 297 612 73 388 1091 2278 73
internal_value=-0.0001551 0.0220444 -0.0188859 -0.0209542 0.0690941 -0.0341979 0.0131685 0.0463656 -0.0368947 0.0101717 0.0466057 0.00787764 0.0158613 0.024965 0.00135371 0.0337467 -0.0112313 -0.0457285 -0.0230906 0.000935832 -0.0184768 -0.0356008 -0.0136322 -0.0038895 -0.0197728 0.0421486 0.0504945 0.00465288 0.00782051 -0.0152144
internal_weight=5881.49 2691.4 3190.09 3092.57 426.954 1308.92 2264.44 187.234 1259.06 2077.21 97.5224 1938.43 871.284 574.543 1067.14 49.8556 1783.65 767.389 491.673 58.9958 897.293 197.507 699.786 886.36 218.419 138.782 121.086 955.059 823.995 131.065
internal_count=24365 10976 13389 12993 1731 5597 9245 759 5392 8486 396 7924 3548 2334 4376 205 7396 3320 2072 242 3728 825 2903 3668 909 562 489 3909 3369 540
is_linear=0
shrinkage=0.05


Tree=7
num_leaves=31
num_cat=0
split_feature=33 28 31 31 16 11 38 3 15 33 28 11 28 3 2 28 11 1 38 34 34 39 28 39 31 39 34 11 11 38
split_gain=707.396 391.071 176.365 119.608 115.121 93.3516 56.0556 55.4196 52.0639 49.5733 49.8948 47.9563 50.7926 47.7405 73.2894 60.9155 44.3087 40.6471 40.4901 54.6114 62.6435 38.8601 38.1624 37.2737 34.3642 34.1524 33.4058 33.307 33.0792 31.2049
threshold=0.41966044902801519 1.2659162878990176 5.225367784500123 3.0020285844802861 58.994552612304695 0.61938297748565685 52.500000000000007 48.175853729248054 284.47721862792974 0.25323383510112768 2.0592625141143803 0.33333332836627966 1.7039645314216616 84.555599212646499 1.0000000180025095e-35 1.6008849740028384 0.085825894027948393 1.214485072491615 43.500000000000007 3.0800255537033085 -2.9432151317596431 1754.5081176757815 1.4196773767471316 1974.9787597656252 4.3012976646423349 1882.2193603515627 -3.4988253116607662 0.080106951296329512 0.52223318815231334 25.500000000000004
decision_type=2 2 2 2 2 2 2 2 2 2 2 2 2 2 2 2 2 2 2 2 2 2 2 2 2 2 2 2 2 2
left_child=1 4 11 -2 6 13 24 28 -6 10 -7 18 -13 15 26 16 -4 -11 19 20 -3 -17 27 -8 -1 -10 -15 -20 -5 -22
right_child=3 2 5 7 8 9 23 -9 25 17 -12 12 -14 14 -16 21 -18 -19 22 -21 29 -23 -24 -25 -26 -27 -28 -29 -30 -31
leaf_value=0.017716061110137564 -0.015448440061955794 -0.022781832273445834 -0.038063171138917058 0.013530437259948597 0.015980076282780403 0.09721314802191415 0.008019507330295805 0.081395179352005131 0.076600682305982104 0.082116762729307916 -0.018188356870275764 0.027706591301692875 -0.0019950458786386362 -0.059303728843141737 -0.055042802249753865 -0.032753581902679324 0.0042267491850513303 -0.015881567386350062 -0.028907298559729455 -0.02652815598580693 0.018817238879704032 -0.055809729471729123 -0.02976615555120652 -0.026150797020330838 0.050604474715263414 0.0088983397820183423 0.066719091823568652 0.010177686106207014 0.068288258164292098 -0.0012258726936692033
leaf_weight=286.05280718207359 45.975245803594589 241.14583833515644 115.62467713654041 58.442306756973267 71.986898466944695 9.9246951937675458 521.58118289709091 283.619404733181 137.09437049925327 30.617027416825294 140.91186420619488 175.7805205732584 791.36167372763157 6.0466462075710288 29.145712673664093 373.49322159588337 132.82374842464924 15.980914652347563 86.708637237548828 244.27572482824326 307.00433614850044 362.28325948119164 406.89602628350258 94.089453339576721 110.44659596681595 21.783710986375809 35.554002821445465 146.19035522639751 52.711024910211563 527.01457089185715
leaf_count=1159 190 1003 497 240 292 41 2130 1162 553 124 597 718 3276 25 125 1615 558 67 362 1025 1260 1585 1704 390 448 89 144 601 215 2170
internal_value=-0.000150107 -0.00510338 -0.012428 0.0607581 0.0195152 -0.0281298 0.012239 0.0696474 0.0513752 0.00340068 -0.0105027 -0.00570561 0.00340044 -0.0340352 0.00556864 -0.0368873 -0.0154417 0.0484388 -0.0102031 -0.00519209 -0.000337909 -0.0441189 -0.0205271 0.00278593 0.0269003 0.0673609 0.0481835 -0.00435841 0.0395806 0.00614742
internal_weight=5862.57 5421.82 4178.78 440.748 1243.04 1252.41 1012.17 394.773 230.865 197.435 150.837 2926.38 967.142 1054.97 70.7464 984.225 248.448 46.5979 1959.24 1319.44 1075.16 735.776 639.795 615.671 396.499 158.878 41.6006 232.899 111.153 834.019
internal_count=24365 22558 17497 1807 5061 5378 4127 1617 934 829 638 12119 3994 4549 294 4255 1055 191 8125 5458 4433 3200 2667 2520 1607 642 169 963 455 3430
is_linear=0
shrinkage=0.05


Tree=8
num_leaves=31
num_cat=0
split_feature=29 33 29 28 33 39 31 33 31 28 8 39 28 38 38 38 24 35 39 33 38 16 31 15 11 35 28 31 11 39
split_gain=848.373 350.124 169.087 118.289 102.411 101.853 85.1013 80.5245 58.0681 56.2917 52.7489 49.3467 48.9484 51.9812 45.4222 39.664 36.6361 36.1753 39.9862 32.9423 32.572 31.7741 30.0671 29.0546 28.1065 28.0625 28.2599 26.5001 25.4247 24.9175
threshold=2.2424745559692387 0.22335907071828845 5.2706151008605966 1.2401117086410525 0.26350396871566778 1351.7769775390627 3.0020285844802861 0.43592345714569097 4.7350413799285898 1.3144462704658511 1.4308000802993777 1371.1757812500002 1.4196773767471316 46.500000000000007 52.500000000000007 45.500000000000007 3.8240509033203129 7.7719969749450692 1634.6510009765627 0.71732258796691906 67.500000000000014 77.257961273193374 3.9776439666748051 272.86346435546881 0.087068006396293654 6.361192226409913 1.4379280805587771 3.648666620254517 0.38918128609657293 1327.3445434570315
decision_type=2 2 2 2 2 2 2 2 2 2 2 2 2 2 2 2 2 2 2 2 2 2 2 2 2 2 2 2 2 2
left_child=1 3 4 21 12 7 16 9 -7 20 25 -6 14 29 24 22 -3 -8 -19 -10 -4 -1 -11 -23 -2 26 -5 -26 -15 -14
right_child=2 6 5 10 11 8 17 -9 19 15 -12 -13 13 28 -16 -17 -18 18 -20 -21 -22 23 -24 -25 27 -27 -28 -29 -30 -31
leaf_value=0.028732968284018053 0.0039489301445854294 -0.010527174844206589 0.043830909017197911 0.021374232444234757 0.06016404348146414 -0.024268429321417165 0.073373389230012992 0.067791638404718926 -0.048804931016642163 0.012982818386659871 0.029278865799208267 0.006100622796837131 0.0042235803685491532 -0.043828183630815476 -0.010220576219134678 -0.042942306719548552 0.056390333766297901 0.05874238138839985 -0.032519951506971533 0.060102259928723478 -0.021578129065003851 0.014134250623262788 -0.023563008894062456 0.080720785736146383 0.014744590444458342 -0.015385758630806982 0.0001186625963050626 0.063043956081686836 -0.013591155529139469 -0.01401237009825409
leaf_weight=352.25090032815933 159.06877036392689 55.463009387254715 57.972746133804321 201.98602473735809 79.67128974199295 531.95088866353035 390.97810696065426 31.967204928398132 547.67948368191719 90.240991577506065 194.76800866425037 90.174795225262642 260.23483292758465 191.24696929752827 313.41055390238762 144.76191653311253 32.201691344380379 37.87140528857708 17.395866125822067 6.9111215919256201 28.12240369617939 22.611409366130829 148.7116711884737 61.779092043638229 63.983308777213097 209.89992760121822 693.4471640586853 51.589444115757942 110.27340669929981 664.72377362847328
leaf_count=1416 653 229 237 820 325 2230 1609 131 2427 374 791 371 1081 819 1291 630 130 154 70 28 117 91 646 251 261 870 2851 211 459 2792
internal_value=-0.000144535 0.0237517 -0.0153336 0.0128603 -0.00559832 -0.0274921 0.0591616 -0.00884478 -0.0360975 -0.0140833 0.00529244 0.0315106 -0.00907613 -0.0147628 0.00277628 -0.0222875 0.0140328 0.0680108 0.0299196 -0.0474282 0.0224072 0.0353757 -0.00974082 0.0629768 0.0176243 0.00105906 0.00492079 0.0363836 -0.0327945 -0.00887642
internal_weight=5843.35 2270.65 3572.7 1736.74 1984.38 1588.32 533.91 501.777 1086.54 469.81 1300.1 169.846 1814.53 1226.48 588.052 383.715 87.6647 446.245 55.2673 554.591 86.0951 436.641 238.953 84.3905 274.642 1105.33 895.433 115.573 301.52 924.959
internal_count=24365 9282 15083 7090 8263 6820 2192 2135 4685 2004 5332 696 7567 5151 2416 1650 359 1833 224 2455 354 1758 1020 342 1125 4541 3671 472 1278 3873
is_linear=0
shrinkage=0.05


Tree=9
num_leaves=31
num_cat=0
split_feature=29 33 28 28 29 31 38 32 31 38 33 38 3 24 39 31 10 35 3 2 31 35 10 39 39 31 29 28 38 38
split_gain=772.763 377.62 138.139 129.622 103.296 94.4561 72.8624 62.1275 68.2056 46.0119 41.3388 37.6719 37.062 34.5205 31.9012 31.4319 31.3322 30.7848 37.0519 48.5839 32.1863 29.2638 28.3181 27.1904 27.1612 27.0292 26.3566 26.2596 36.1155 25.2333
threshold=2.9803131818771367 0.26350396871566778 1.2146195173263552 1.4196773767471316 7.1306934356689462 3.0679445266723637 54.500000000000007 0.42392663657665258 4.6204609870910653 44.500000000000007 0.20127445459365848 44.500000000000007 75.706295013427749 2.9621798992156987 1623.3736572265627 4.7350413799285898 3.4249999523162846 4.3220958709716806 83.743160247802749 1.0000000180025095e-35 2.958530187606812 7.7719969749450692 2.7250000238418584 3324.332885742188 1634.6510009765627 4.3367407321929941 2.3042978048324589 1.4708013534545901 52.500000000000007 32.500000000000007
decision_type=2 2 2 2 2 2 2 2 2 2 2 2 2 2 2 2 2 2 2 2 2 2 2 2 2 2 2 2 2 2
left_child=1 3 6 12 7 13 25 8 9 -4 -8 15 -1 -3 -12 -6 -11 20 -19 -20 -5 -7 27 -22 -23 -2 -14 28 -10 -29
right_child=2 5 4 17 11 21 10 -9 22 16 14 -13 26 -15 -16 -17 -18 18 19 -21 23 24 -24 -25 -26 -27 -28 29 -30 -31
leaf_value=0.02068364760530016 0.018740870706781241 -0.018379111816722787 -0.00021896951310256888 -0.0013201811236165455 -0.013422463567001691 0.072970442389070952 -0.021320515866522598 0.054324956927026935 0.014986699457425652 -0.029231205805181477 0.03827803883375544 -0.052004444704837317 0.056651755220479709 0.044701671046000452 -0.015898137218152152 -0.040758152628422813 0.003181361121252137 -0.0093454041098886952 0.070739084000060945 -0.027277150478094453 0.024731123207248747 0.056670915519276867 -0.0069983686248650881 -0.035052343450259538 -0.023131937162171143 0.061376409731154241 -0.020985850692457418 -0.027579484048064019 -0.041433597031148538 -0.050434829523180014
leaf_weight=784.31023432314396 105.64664851129055 46.945628181099892 607.27409490942955 374.00971089303493 187.04769195616245 362.39113967120647 195.40180720388889 30.668317288160324 59.523080796003342 322.89236496388912 67.942179813981056 300.93600779771805 118.41603454947472 40.055889576673508 45.007458865642548 242.55016930401325 96.562952965497971 698.58297604322433 33.380285441875458 20.153055548667908 279.26724824309349 33.738373383879662 121.36288221180439 20.255863845348358 15.39540511369705 57.819544643163681 11.892109826207159 253.32373179495335 53.881200149655342 234.36327442526817
leaf_count=3171 430 195 2520 1536 784 1513 814 126 252 1365 279 1330 482 162 188 1091 404 2894 135 84 1145 138 518 84 62 236 48 1106 231 1042
internal_value=-0.000138892 0.0185321 -0.0179138 0.0101117 -0.0225794 0.0580409 0.00689924 -0.0160751 -0.0173154 -0.0090248 -0.00739437 -0.0384148 0.0248021 0.0106241 0.0166511 -0.0288737 -0.0217586 0.000682516 -0.00626622 0.0337648 0.00844919 0.0680482 -0.0290878 0.0206611 0.031568 0.0338803 0.0495174 -0.0335376 -0.0117888 -0.0385812
internal_weight=5821 2838.79 2982.2 2340.27 2510.39 498.526 471.818 1779.85 1749.18 1026.73 308.351 730.534 914.618 87.0015 112.95 429.598 419.455 1425.65 752.116 53.5333 673.533 411.525 722.454 299.523 49.1338 163.466 130.308 601.091 113.404 487.687
internal_count=24365 11649 12716 9579 10769 2070 1947 7564 7438 4289 1281 3205 3701 357 467 1875 1769 5878 3113 219 2765 1713 3149 1229 200 666 530 2631 483 2148
is_linear=0
shrinkage=0.05


Tree=10
num_leaves=31
num_cat=0
split_feature=29 33 16 28 29 8 15 39 28 8 38 38 3 34 8 34 28 34 38 34 1 24 16 33 38 8 28 37 34 34
split_gain=734.476 290.488 130.108 99.3113 99.0073 59.964 90.0307 54.1942 52.6871 62.0728 68.4274 48.3776 47.0984 45.8876 58.2452 44.2921 39.0407 38.4781 43.4924 48.3469 33.8975 33.2864 41.0444 31.0373 27.8747 27.6629 33.8894 24.8312 24.6498 24.3129
threshold=2.650039911270142 0.23414437472820285 119.1574172973633 1.2733201384544375 6.5681734085083017 2.4737873077392583 269.68855285644537 1348.0101318359377 1.3716647028923037 2.8747363090515141 44.500000000000007 52.500000000000007 74.63965225219728 2.9690225124359135 1.8124327063560488 -5.4885568618774405 1.2509842514991762 3.5274252891540532 29.500000000000004 -2.8472039699554439 2.6016699011885094 2.8626321554183964 77.257961273193374 0.19877532869577411 29.500000000000004 1.2417406439781191 1.8345771431922915 -0.45308323204517359 -2.330029964447021 -4.7559106349945059
decision_type=2 2 2 2 2 2 2 2 2 2 2 2 2 2 2 2 2 2 2 2 2 2 2 2 2 2 2 2 2 2
left_child=1 3 4 21 8 6 20 16 11 10 15 -2 -4 14 -5 -10 -6 18 19 -17 -3 -1 -23 -13 29 -12 -27 -20 -16 -9
right_child=2 5 12 13 7 -7 -8 24 9 -11 25 23 -14 -15 28 17 -18 -19 27 -21 -22 22 -24 -25 -26 26 -28 -29 -30 -31
leaf_value=-0.0081604732593208006 0.017458927996404569 0.033497813274748489 -0.0065303930521028218 0.0038320622277608534 0.025473613660888468 0.074857997196727685 0.067379413102007998 -0.049070284348852342 -0.058645178381388809 0.015363563167836061 -0.044005924601780821 -0.020523335636183707 0.064925347763782892 -0.023949332284898577 0.00092052074530188431 -0.019516221312850794 -0.021360642024888049 -0.03186346998393582 -0.053791605528530732 0.016386644238098769 -0.010868376698387121 0.027106497690441069 0.067134946947536467 0.01336377753086985 -0.046343447309519857 0.0021552736371654091 -0.039889959418446121 -0.013019986274298104 0.052216404356110857 -0.015548152946708136
leaf_weight=54.129713118076324 256.16575728356838 106.20870992541313 35.280638337135315 1212.9993872791529 53.254285901784897 195.62015749514103 158.5198757648468 77.211854532361031 46.992843002080917 139.0499744862318 302.93099138140678 248.03100635111332 65.739872574806213 129.5143678933382 31.359378173947334 134.03481616079807 266.01504962146282 149.21012453734875 45.394879162311554 311.02262386679649 72.067368447780609 440.12985149025917 75.217567324638367 92.591604828834534 428.25317314267159 92.07784378528595 99.343705624341965 212.97623817622662 94.838839083909988 183.17201180756092
leaf_count=218 1048 430 146 4980 218 831 669 343 206 583 1333 1034 273 546 127 569 1165 641 193 1303 300 1768 310 381 1902 389 426 905 382 800
internal_value=-3.23936e-05 0.019922 -0.0158719 0.0113271 -0.0176716 0.0528072 0.0399663 -0.030585 -0.011557 -0.0164635 -0.0196427 0.00103932 0.0399388 0.00444973 0.00720153 -0.0114205 -0.0135275 -0.00880525 -0.00390324 0.00556084 0.0155389 0.0290514 0.0329704 -0.0112959 -0.0384829 -0.0345904 -0.0196486 -0.0202208 0.0395201 -0.0255227
internal_weight=5809.35 2570.61 3238.75 2038.19 3137.73 532.416 336.796 1007.91 2129.82 1533.03 1393.98 596.788 101.021 1468.71 1339.2 899.632 319.269 852.639 703.429 445.057 178.276 569.477 515.347 340.623 688.637 494.353 191.422 258.371 126.198 260.384
internal_count=24419 10561 13858 8331 13439 2230 1399 4428 9011 6548 5965 2463 419 6035 5489 3817 1383 3611 2970 1872 730 2296 2078 1415 3045 2148 815 1098 509 1143
is_linear=0
shrinkage=0.05


Tree=11
num_leaves=31
num_cat=0
split_feature=29 33 28 28 38 35 31 11 8 16 38 31 28 8 38 7 11 35 16 11 28 33 34 28 2 16 16 34 31 8
split_gain=667.91 258.874 122.071 95.3658 90.1133 86.8441 83.1706 78.0739 71.5951 66.8239 57.6164 50.622 48.2364 41.4981 40.6757 38.3598 38.1365 36.3899 36.9857 35.0944 32.8734 31.2904 29.0313 28.7882 39.0702 74.3177 45.1091 29.9738 28.0463 28.301
threshold=2.3603980541229252 0.23873329162597659 1.3891812562942507 1.1886910796165469 44.500000000000007 7.7254223823547372 3.1097245216369633 0.39547662436962133 1.8996456861495974 68.943626403808608 52.500000000000007 5.4820966720581064 1.934057950973511 1.7821906805038454 25.500000000000004 1.3563132121499084 0.10538387298583986 2.9148445129394536 77.257961273193374 1.3021739125251772 1.1336523294448855 0.40420421957969671 -5.0946476459503165 1.6008849740028384 1.0000000180025095e-35 71.102470397949233 87.497306823730483 3.0198273658752446 5.2932419776916513 0.49371466040611273
decision_type=2 2 2 2 2 2 2 2 2 2 2 2 2 2 2 2 2 2 2 2 2 2 2 2 2 2 2 2 2 2
left_child=1 3 9 17 5 8 15 -6 11 10 16 22 -9 23 -7 -3 20 -1 -19 -14 -2 -10 -4 -5 25 -25 27 -26 29 -12
right_child=2 6 4 13 7 14 -8 12 21 -11 28 -13 19 -15 -16 -17 -18 18 -20 -21 -22 -23 -24 24 26 -27 -28 -29 -30 -31
leaf_value=-0.0067945303518713463 0.029798723470708874 0.041443571349602887 -0.051267470926326775 0.012117861224436935 -0.044311341772312142 -0.050642053498356765 0.062411480450772272 0.016221844461671183 0.016360581011158504 0.04108207231282706 -0.021602583251839863 -0.033768526800499764 -0.038184469891205088 0.032698344308389714 -0.018087876268951635 -0.022491721928062994 0.034574197025421791 0.031657709071103622 0.07342192526236066 0.00093449141626709357 -0.0097141063319983491 0.081071756419763663 -0.0034642497367417288 -0.0010887750641762177 -0.0036656462635317197 0.058960285130780436 -0.075203465431755157 -0.047471238758292282 -0.033825687565423083 0.0066713130460305733
leaf_weight=47.201788678765297 71.262423738837242 47.663822457194328 33.014080703258514 554.77397257089615 549.77000071108341 179.750537738204 404.2978557497263 95.123675599694252 137.9945525676012 93.636376112699509 173.96760872006416 194.20218543708324 174.54910750687122 133.29129518568516 207.52459447085857 45.921626701951027 119.14759406447411 267.66076985001564 66.496425718069077 84.977682948112488 200.46920345723629 21.603721782565117 792.26758325099945 346.14622533321381 290.92390683293343 60.405604898929596 28.335931062698364 45.074832335114479 138.06289349496365 179.609251126647
leaf_count=190 288 195 143 2255 2472 804 1728 399 583 388 728 885 761 538 908 191 488 1073 278 360 835 90 3325 1426 1197 245 117 195 594 740
internal_value=-3.2326e-05 0.0205939 -0.0140256 0.0119355 -0.0199398 -0.0126774 0.052579 -0.0325091 -0.00592365 0.00093937 -0.00331833 -0.0108024 -0.0141922 0.00611097 -0.0332197 0.0100271 0.0110007 0.0341975 0.0400031 -0.0253609 0.000637007 0.0251967 -0.00538858 0.00343166 -0.00281371 0.00783334 -0.0147071 -0.0095695 -0.0147128 -0.0072281
internal_weight=5785.13 2338.19 3446.93 1840.31 2470.78 1566.36 497.883 904.42 1179.08 976.155 882.519 1019.48 354.65 1458.95 387.275 93.5854 390.879 381.359 334.157 259.527 271.732 159.598 825.282 1325.66 770.887 406.552 364.335 335.999 491.64 353.577
internal_count=24419 9628 14791 7514 10730 6738 2114 3992 5026 4061 3673 4353 1520 5973 1712 386 1611 1541 1351 1121 1123 673 3468 5435 3180 1671 1509 1392 2062 1468
is_linear=0
shrinkage=0.05


Tree=12
num_leaves=31
num_cat=0
split_feature=29 33 39 19 31 28 31 29 8 31 7 28 38 8 33 3 39 26 28 3 32 28 11 28 38 34 38 8 34 34
split_gain=606.721 246.226 114.131 146.064 108.854 84.6795 77.8182 50.7212 44.3433 37.1511 35.3311 33.0578 38.5243 36.0655 32.2348 30.4794 28.8953 27.6374 30.2515 27.3579 50.5286 27.144 34.0793 26.6989 36.4849 31.6552 29.8854 23.556 22.9077 25.3951
threshold=2.650039911270142 0.23873329162597659 1362.9551391601565 0.23855072259902957 5.7800872325897226 1.4845187664031985 3.1097245216369633 7.0000724792480478 1.8124327063560488 3.3319280147552495 1.3563132121499084 1.1255630850791933 41.500000000000007 1.8703376054763796 0.57398954033851635 39.971012115478523 1335.6009521484377 52.565000534057624 1.2469862103462221 84.555599212646499 1.0000000180025095e-35 1.4196773767471316 0.080106951296329512 1.4919334053993227 45.500000000000007 -3.4988253116607662 64.500000000000014 4.6673896312713632 2.736203789710999 -2.330029964447021
decision_type=2 2 2 2 2 2 2 2 2 2 2 2 2 2 2 2 2 2 2 2 2 2 2 2 2 2 2 2 2 2
left_child=1 5 3 23 7 9 10 11 19 -1 -3 -4 -13 21 17 -5 -11 -8 -19 -7 -21 22 -14 26 25 -25 -2 -6 29 -10
right_child=2 6 4 15 27 8 14 -9 28 16 -12 12 13 -15 -16 -17 -18 18 -20 20 -22 -23 -24 24 -26 -27 -28 -29 -30 -31
leaf_value=0.010786974248797669 0.016827892042197944 0.039085560301226376 0.013050997336832735 0.01469448271636703 -0.042702143967998388 -0.0048315521006784198 0.059074749219892544 -0.031629126455917762 -0.0038318709409483364 0.052482284654119485 -0.020918945818035217 -0.0050674209796716602 -0.037997358675946342 0.0031468843983762625 0.073235819567824809 0.063479670879576997 0.024198797983771354 0.046827690644739503 -0.015546394244338872 0.050089088179683494 -0.0328753525260004 -0.04448918287681642 0.0062844128641355336 -0.034122888815465623 -0.029336465939257157 0.001499515942371563 -0.017599295653830779 0.019595301817613649 -0.018208913270061123 0.049503151013121874
leaf_weight=410.39564122259617 178.24442756175995 48.859871864318848 137.95629678666592 50.030399203300476 515.18110692501068 920.84894676506519 133.91057372093201 347.06484578549862 29.440396875143051 120.74414713680744 48.976278752088547 652.12498198449612 91.331340715289116 96.171097531914711 198.65267388522625 90.709924444556236 365.36229746043682 48.436817362904549 32.203825548291206 59.694528698921204 26.323557838797569 187.12775513529778 82.432570323348045 76.005116134881973 241.70685690641403 344.19080898165703 97.3092150837183 15.468349069356917 22.784348338842392 89.846168324351311
leaf_count=1662 739 200 571 208 2378 3809 565 1522 119 494 204 2756 387 406 890 381 1477 202 132 241 111 831 341 331 1071 1464 406 66 94 361
internal_value=-3.25301e-05 0.0181311 -0.0145313 -0.00127642 -0.0212543 0.0103706 0.0491746 -0.0147186 0.00137896 0.021887 0.00900587 -0.0100064 -0.0128796 -0.0240114 0.058669 0.0461958 0.0312438 0.0451304 0.0218683 -0.00230717 0.0246333 -0.0312614 -0.0169701 -0.00841292 -0.0138586 -0.00493856 0.00465014 -0.0408734 0.0275213 0.0363058
internal_weight=5759.54 2556.48 3203.06 1078.2 2124.86 2045.44 511.04 1594.21 1148.94 896.502 97.8362 1247.14 1109.19 457.063 413.204 140.74 486.106 214.551 80.6406 1006.87 86.0181 360.892 173.764 937.456 661.903 420.196 275.554 530.649 142.071 119.287
internal_count=24419 10561 13858 4600 9258 8368 2193 6814 4735 3633 404 5292 4721 1965 1789 589 1971 899 334 4161 352 1559 728 4011 2866 1795 1145 2444 574 480
is_linear=0
shrinkage=0.05


Tree=13
num_leaves=31
num_cat=0
split_feature=29 33 28 28 38 34 34 31 11 38 29 32 28 8 34 8 16 28 11 32 8 1 31 28 31 33 31 28 11 39
split_gain=551.871 221.507 104.312 83.2084 81.09 89.3184 99.6488 72.6595 68.3209 58.5903 44.9621 44.8628 45.7064 39.6616 39.1253 39.2968 38.1883 33.0463 45.8569 32.802 32.3988 32.3918 31.597 31.5746 29.0045 27.5135 25.9522 25.2443 24.7835 24.2822
threshold=2.3603980541229252 0.23873329162597659 1.3891812562942507 1.1191093325614931 29.500000000000004 -4.4463846683502188 3.5274252891540532 3.1097245216369633 0.30816714465618139 52.500000000000007 5.2706151008605966 0.45762243866920477 1.9175170063972475 3.3954547643661503 -2.9982912540435787 1.1016020178794863 98.166500091552749 1.1336523294448855 0.10538387298583986 -0.021476117894053456 1.7821906805038454 4.2220542995804387 3.235195636749268 1.4845187664031985 4.9437518119812021 0.57398954033851635 5.2932419776916513 1.1255630850791933 1.2521186470985415 1462.1696777343752
decision_type=2 2 2 2 2 2 2 2 2 2 2 2 2 2 2 2 2 2 2 2 2 2 2 2 2 2 2 2 2 2
left_child=1 3 9 -1 5 -4 14 21 10 17 -6 12 -10 19 -7 -16 26 22 -19 -8 23 -3 -2 -5 -21 -9 27 -11 -14 -18
right_child=2 7 4 20 8 6 13 25 11 16 -12 -13 28 -15 15 -17 29 18 -20 24 -22 -23 -24 -25 -26 -27 -28 -29 -30 -31
leaf_value=0.036673428374212579 0.0034668327968553161 0.033246945082429008 -0.037651689257792935 0.013890215231992908 -0.024259329518376567 -0.013641807868503296 0.076715632030934552 0.045137921111302076 0.0064021866408972439 0.0048031558687101853 -0.048466085910163749 0.05723788951090112 -0.033212563324575027 0.027044785828200801 0.0088754570213940686 0.042353318627118164 0.073445008425467723 -0.0071803310204190708 0.030666627030403251 -0.019555225286039764 0.029970875835016321 -0.026787777753017689 0.061455981281348576 -0.0014371198199795948 -0.052848374630708073 0.071825225200544116 -0.031592830500830449 -0.022017869219296337 -0.004347496526300041 -0.031027987907234725
leaf_weight=266.34572996199131 37.88396543264389 55.759143024682999 210.38911201059818 534.19509324431419 386.47093863785267 127.92290222644806 6.8527328073978415 199.02096301317215 157.75758473575115 212.07213208079338 384.03211227059364 21.495328307151794 280.89676269888878 33.518187761306763 336.38212159276009 118.77368552982807 21.033133924007419 212.84733666479588 128.01354487240314 161.78317837417126 133.88291727006435 37.422656178474426 62.606036007404327 904.00776851177216 110.80497336387634 192.38142339885235 140.79001350700855 149.24390336871147 101.73806807398796 7.406608670949935
leaf_count=1084 153 228 945 2158 1706 549 30 844 669 877 1801 91 1242 146 1414 499 90 890 523 693 540 158 257 3732 514 884 614 627 431 30
internal_value=-3.14968e-05 0.0187632 -0.0128341 0.0108316 -0.018354 -0.00834127 -0.00145019 0.0488358 -0.0266636 0.00101243 -0.0363356 -0.0133876 -0.0162162 -0.0242102 0.0107594 0.0176299 -0.0101782 0.0144753 0.00702361 -0.0303835 0.00644819 0.00907998 0.0396694 0.00425304 -0.0331214 0.058283 -0.0133815 -0.00626463 -0.0255539 0.0460484
internal_weight=5733.73 2323.02 3410.71 1838.43 2438.82 1106.43 896.038 484.584 1332.39 971.897 770.503 561.888 540.392 312.959 583.079 455.156 530.546 441.351 340.861 279.441 1572.09 93.1818 100.49 1438.2 272.588 391.402 502.106 361.316 382.635 28.4397
internal_count=24419 9628 14791 7514 10730 4790 3845 2114 5940 4061 3507 2433 2342 1383 2462 1913 2238 1823 1413 1237 6430 386 410 5890 1207 1728 2118 1504 1673 120
is_linear=0
shrinkage=0.05


Tree=14
num_leaves=31
num_cat=0
split_feature=33 28 35 16 3 26 8 28 15 24 35 24 8 3 8 18 12 1 28 8 35 24 32 35 9 28 33 26 28 28
split_gain=393.777 215.828 105.899 69.7955 50.8931 60.653 49.7705 50.8134 42.3295 37.6383 40.7143 37.3634 36.3901 32.7635 31.1649 30.2482 40.8029 29.1521 28.7703 28.4241 27.9491 27.6838 27.5588 27.0629 24.6306 23.4016 22.786 56.5005 29.7334 25.5223
threshold=0.41966044902801519 1.2659162878990176 7.1843366622924814 56.581014633178718 52.067956924438484 54.024999618530281 1.8703376054763796 1.6195238232612612 284.47721862792974 3.734403252601624 5.2041437625885019 4.9724388122558603 0.47690522670745855 87.16656875610353 2.4129351377487187 19.69999980926514 -0.42550132533922386 8.7437623209339179 16.630681991577152 0.81913796067237865 5.1330447196960458 5.1517260074615487 -0.017640864476561543 6.2086124420166025 0.20526315789473687 1.6342373490333559 0.2130149379372597 11.225000381469728 2.4508064985275273 1.9096016287803652
decision_type=2 2 2 2 2 2 2 2 2 2 2 2 2 2 2 2 2 2 2 2 2 2 2 2 2 2 2 2 2 2
left_child=1 3 6 12 5 -2 7 11 -5 10 15 -3 -1 20 18 16 -9 -6 -4 -13 -11 23 -20 24 -22 -16 29 -28 -29 -8
right_child=4 2 14 8 17 -7 26 9 -10 13 -12 19 -14 -15 25 -17 -18 -19 22 -21 21 -23 -24 -25 -26 -27 27 28 -30 -31
leaf_value=1.7881122637940737e-05 0.066935911751056551 0.010965786386469552 -0.030314815005047759 0.0079387437347922096 0.06317439679420099 -0.0039756346766088363 0.026749608115563418 -0.0039629349611943589 0.054687761674769124 -0.036020179237307305 -0.026049210581376325 -0.019697927766762484 0.019025704908207083 0.040779375330743294 0.046562550358390929 -0.012987089478166772 0.02561207195246128 -0.017075972394301524 0.064763536111877226 0.011956347834611622 -0.031516190951806411 -0.029707391322621724 -0.056473313983728915 -0.026100558063083586 0.019668178374220004 -0.011298138222108222 0.0624628089783065 0.018973452386054454 -0.049993836901260268 -0.0040350388629812693
leaf_weight=531.60570211708546 47.121485441923141 508.66965006291866 721.88409347832203 71.247828528285027 262.69808368384838 83.077475994825363 87.290138304233551 360.49135182797909 153.08763487637043 266.70512695610523 219.60740253329277 241.52611067891121 479.20648668706417 20.353362247347832 20.532006323337555 372.03128807246685 172.13790382444859 11.685064688324927 15.231361210346224 100.09489880502224 29.274969771504402 183.9340363740921 6.6233380734920493 85.059069156646729 116.69097082316875 113.80790348351002 60.978636533021927 49.053240433335304 22.799959108233452 292.57952587306499
leaf_count=2181 211 2100 3232 290 1208 352 365 1513 649 1193 938 1036 1959 86 87 1577 715 50 63 425 125 851 29 369 496 499 258 208 100 1254
internal_value=-3.11655e-05 -0.00366025 -0.00921987 0.0146429 0.0475089 0.0216819 -0.00498422 -0.00771895 0.0398729 -0.01242 -0.00674044 0.00237243 0.00903506 -0.0215062 -0.0245962 -0.00204533 0.0055889 0.0597336 -0.0285997 -0.0104078 -0.023379 -0.0152354 0.0277036 -0.00368381 0.00935385 -0.00238968 0.00928151 0.0271033 -0.00288035 0.00303098
internal_weight=5707.09 5302.5 4067.36 1235.15 404.582 130.199 3189.28 2676.58 224.335 1826.29 1124.27 850.291 1010.81 702.018 878.079 904.661 532.629 274.383 743.739 341.621 681.664 414.959 21.8547 231.025 145.966 134.34 512.702 132.832 71.8532 379.87
internal_count=24419 22598 17519 5079 1821 563 13609 11424 939 7863 4743 3561 4140 3120 3910 3805 2228 1258 3324 1461 3034 1841 92 990 621 586 2185 566 308 1619
is_linear=0
shrinkage=0.05


Tree=15
num_leaves=31
num_cat=0
split_feature=29 33 32 31 31 29 39 38 3 2 8 19 8 38 8 35 8 3 32 29 31 2 35 24 35 37 31 39 29 24
split_gain=455.042 223.508 88.3598 105.427 81.5016 53.5183 44.8288 41.0625 39.9026 69.083 43.7341 38.744 29.3657 26.6384 26.4314 26.083 25.7333 24.5456 23.5799 24.5631 23.5329 36.2701 22.0476 21.5439 27.3822 27.3537 21.8826 19.5955 19.4796 19.0574
threshold=2.9803131818771367 0.30818596482276922 0.49158689379692083 4.9437518119812021 3.0214917659759526 1.2328608036041262 1351.7769775390627 45.500000000000007 84.555599212646499 1.0000000180025095e-35 0.82618904113769542 0.23855072259902957 0.43342514336109167 44.500000000000007 2.5316178798675542 2.7656044960021977 1.8703376054763796 55.44905090332032 -0.19789675623178479 5.5998706817626962 12.51772451400757 1.0000000180025095e-35 8.2543892860412615 4.0898339748382577 4.9930632114410409 -0.23772283643484113 2.6696797609329228 1255.9195556640627 8.3435435295104998 3.9008961915969853
decision_type=2 2 2 2 2 2 2 2 2 2 2 2 2 2 2 2 2 2 2 2 2 2 2 2 2 2 2 2 2 2
left_child=1 5 3 7 15 8 11 -2 10 -10 23 20 -11 -12 -7 -3 28 -4 19 -9 -5 -22 -6 24 26 -25 -1 29 -8 -20
right_child=2 4 17 6 22 14 16 18 9 12 13 -13 -14 -15 -16 -17 -18 -19 27 -21 21 -23 -24 25 -26 -27 -28 -29 -30 -31
leaf_value=-0.0077848962855372435 -0.00032272470531335084 -0.039062502762042435 0.00042284677018342311 -0.024681999457000121 0.06365825117241225 0.00058147840790960688 -0.033745068350086026 0.031895015520506075 0.060262594629128079 -0.07330799149551219 0.01717996636821725 0.035009789031528453 0.035345767464429655 0.048373405464068507 0.035438215001622544 0.027818669941819599 -0.014953409835657372 0.071609959591515102 -0.024469301319804102 -0.02153513973307751 0.048868287152381666 -0.037492405618010739 0.016468504921233949 -0.0015735183542775145 -0.032668373969050639 0.028644437307193654 0.019532585177398556 -0.02271418105629151 -0.055164108383152159 0.012230828711052171
leaf_weight=165.73884582519531 928.62604163587093 28.166318565607071 18.098968580365181 243.68812099099159 296.85760000348091 1277.2514713555574 467.29425172507763 49.747057273983955 107.64814437925816 15.704941540956499 170.69213753938675 38.451216593384743 10.103634759783743 115.2189594656229 56.723414942622185 29.96102175116539 141.97769577801228 37.383919015526772 58.478786543011665 37.651992082595825 29.157877832651138 20.657559648156166 27.412487357854843 127.75330020487309 60.264804527163506 179.82692591845989 131.11367923021317 585.38501985371113 139.2043342590332 89.084181770682335
leaf_count=676 3917 120 75 1111 1389 5265 2193 205 455 65 700 164 42 467 233 123 644 169 254 162 123 96 117 520 252 734 536 2535 691 377
internal_value=4.32972e-05 0.0144011 -0.0138925 -0.0151198 0.0499193 0.00878025 -0.0274008 -0.00752927 0.0170319 0.0426426 0.013427 -0.0120793 -0.0306066 0.0297806 0.00206995 -0.00451498 -0.0341868 0.0485206 -0.0156799 0.00882156 -0.0182751 0.0129525 0.0596907 0.00638181 -0.00195992 0.0160807 0.00426635 -0.0186091 -0.0386777 -0.00228619
internal_weight=5685.32 2800.44 2884.89 2829.4 382.397 2418.04 1080.43 1748.97 1084.07 133.457 950.609 331.955 25.8086 285.911 1333.97 58.1273 748.476 55.4829 820.347 87.399 293.504 49.8154 324.27 664.698 357.117 307.58 296.853 732.948 606.499 147.563
internal_count=24410 11694 12716 12472 1749 9945 5022 7450 4447 562 3885 1494 107 1167 5498 243 3528 244 3533 367 1330 219 1506 2718 1464 1254 1212 3166 2884 631
is_linear=0
shrinkage=0.05


Tree=16
num_leaves=31
num_cat=0
split_feature=29 33 28 38 31 28 31 8 8 38 29 8 35 33 31 28 8 6 31 34 29 35 34 34 38 31 33 8 34 34
split_gain=412.803 188.946 107.764 90.2281 77.3927 70.9855 65.4005 60.6315 59.9852 59.9345 50.619 47.3869 35.0423 32.0644 30.9853 27.9681 32.8667 27.3049 25.4224 25.1935 23.5409 23.4335 23.4319 34.2428 50.2477 22.2945 21.8883 21.8521 21.5329 21.15
threshold=2.650039911270142 0.30818596482276922 1.2146195173263552 45.500000000000007 3.0214917659759526 1.3276586532592776 4.9437518119812021 0.81913796067237865 4.4769163131713876 54.500000000000007 6.0076489448547372 1.0762934088706972 6.2326083183288583 0.20127445459365848 2.958530187606812 1.8345771431922915 4.29020118713379 4.6111257076263437 3.5355529785156254 -4.4463846683502188 1.5819356441497805 2.7656044960021977 -3.7135105133056636 2.3177392482757573 27.500000000000004 9.3380513191223162 0.77365255355834972 1.8703376054763796 1.8785920739173891 3.4732546806335454
decision_type=2 2 2 2 2 2 2 2 2 2 2 2 2 2 2 2 2 2 2 2 2 2 2 2 2 2 2 2 2 2
left_child=1 5 9 6 21 18 22 28 19 -2 11 -5 14 -11 -9 -13 -17 -16 -1 -8 -20 -3 -4 24 -24 -6 -12 29 -7 -21
right_child=2 4 3 10 25 7 8 12 -10 13 26 15 -14 -15 17 16 -18 -19 20 27 -22 -23 23 -25 -26 -27 -28 -29 -30 -31
leaf_value=0.013352101908540132 0.030655793826858947 -0.040093050388877061 -0.017817918378216543 -0.03187791384086025 0.059973335037955357 -0.0018771778872419985 -0.046278507358513563 0.006116025287523516 0.050588819277130173 -0.016149299379416178 -0.042865362816987676 0.012212117699879094 -0.0066143079151362236 0.016368188572992465 0.035484482507181357 -0.026091743904862526 0.048889304902690583 -0.055803973077256236 0.04307699330444012 -0.017832416146530545 0.016182217747363524 0.025846846562993849 0.026171493893302783 -0.010300205505536938 -0.0056125091731023926 -0.03913276406006836 0.06050502766004634 0.0020233239278151377 -0.023403205765539198 -0.044845805007405364
leaf_weight=376.01036576926708 193.4755172431469 26.669257149100304 166.52887655794621 331.09748350083828 302.35414934158325 727.07471176981926 114.73895755410194 183.77265767753124 27.137521356344223 210.00357981026173 400.49204087257385 136.94420593976974 138.61237417161465 118.40866027772427 266.32376968860626 144.66318112611771 16.122718945145607 8.3229592293500883 203.05966393649578 257.91122826933861 137.26347278058529 26.96743606030941 258.56652687489986 308.49501496553421 239.00937937200069 5.6573985219001761 5.0640587955713263 89.899014994502068 138.33655649423599 101.50377498567104
leaf_count=1528 794 115 717 1500 1441 2994 551 749 118 892 1907 582 575 498 1089 639 68 34 834 1203 554 111 1069 1317 1002 26 22 401 584 496
internal_value=4.13713e-05 0.0150058 -0.0121415 -0.0163067 0.0484736 0.00944628 -0.00872307 0.00312542 -0.021837 0.00858441 -0.0277649 -0.0188627 0.0153835 -0.00440852 0.0220458 -0.00436627 -0.0185163 0.0326806 0.0223415 -0.0253388 0.0322521 -0.00686036 -0.000745231 0.00277744 0.010896 0.0581247 -0.0415477 -0.0199713 -0.00532621 -0.0254856
internal_weight=5660.49 2540.42 3120.06 2598.17 361.648 2178.78 1563.79 1462.44 591.19 521.888 1034.38 628.828 597.032 328.412 458.419 297.73 160.786 274.647 716.334 564.053 340.323 53.6367 972.6 806.071 497.576 308.012 405.556 449.314 865.411 359.415
internal_count=24410 10634 13776 11592 1693 8941 6874 6025 2769 2184 4718 2789 2447 1390 1872 1289 707 1123 2916 2651 1388 226 4105 3388 2071 1467 1929 2100 3578 1699
is_linear=0
shrinkage=0.05


Tree=17
num_leaves=31
num_cat=0
split_feature=29 33 28 38 31 28 38 35 29 10 38 34 34 2 34 9 3 16 1 35 38 16 16 33 31 33 38 1 12 31
split_gain=376.297 194.341 92.7145 79.6973 71.3358 69.14 58.4302 56.512 40.9302 44.8345 40.193 44.1136 55.4385 41.7263 37.8695 33.8212 29.0499 27.056 26.149 25.5862 25.165 24.8884 25.7999 24.8413 24.0315 27.0783 26.8054 23.9603 22.7327 22.3636
threshold=2.9803131818771367 0.30818596482276922 1.2146195173263552 44.500000000000007 3.0214917659759526 1.3276586532592776 54.500000000000007 7.9231750965118417 6.6907055377960214 2.404999971389771 29.500000000000004 -2.9432151317596431 2.0083962678909306 1.0000000180025095e-35 2.9690225124359135 0.69615384615384623 22.023311614990238 98.166500091552749 0.42275563148252043 2.7111492156982426 25.500000000000004 53.58343696594239 24.434345245361332 0.1215190850198269 5.2664039134979257 0.41966044902801519 30.500000000000004 2.1473531624882609 -0.47199610382249785 3.5355529785156254
decision_type=2 2 2 2 2 2 2 2 2 2 2 2 2 2 2 2 2 2 2 2 2 2 2 2 2 2 2 2 2 2
left_child=1 5 6 7 -3 17 21 10 9 18 11 -4 -13 -14 15 -7 -11 29 -5 -19 -9 22 -2 -8 26 -26 -12 -17 -15 -1
right_child=2 4 3 8 -6 14 23 20 -10 16 24 12 13 28 -16 27 -18 19 -20 -21 -22 -23 -24 -25 25 -27 -28 -29 -30 -31
leaf_value=0.0078406432651856161 0.036069600690951761 -0.0040638255202491173 -0.016780431491310858 -0.010449197776157753 0.056472499222023798 -0.00067698580957661469 -0.025736758688130579 -0.042917793693672851 -0.042341992366379921 -0.025432800024737252 -0.041939927776388913 0.028268164274815946 0.1245691742838243 -0.02826762277811868 -0.022019717121651305 0.018667738343006526 0.019575353248209918 -0.018892580903807993 -0.03577927797371723 0.05621432531386248 -0.015341777856008904 0.066232436129830194 -0.010804941737868223 0.0046641231895593856 -0.038184776956647647 0.069540186336433066 0.00065794188447624723 -0.02465545009237961 0.0029788283333556792 0.025835613521974273
leaf_weight=350.70552429556847 88.247310698032379 57.525625467300415 194.4146960824728 147.97442060709 310.0670403689146 1008.03286229074 102.09762959182262 143.49205952882767 324.10713464021683 56.590269640088081 45.209655851125717 245.9140906482935 5.9882852733135215 88.907259166240692 147.98665788769722 439.12417189776897 97.322130858898163 13.062698394060133 332.35752147436142 79.517405793070793 197.62000307440758 38.651046276092529 43.696187138557434 195.59665517508984 131.51446343958378 5.9830484092235556 198.52534590661526 34.234137997031212 167.50564906001091 342.23189263045788
leaf_count=1413 357 243 855 673 1506 4167 437 688 1572 244 192 1029 26 386 635 1799 417 53 1531 351 896 167 177 829 642 26 845 141 727 1386
internal_value=3.80972e-05 0.0131202 -0.0127247 -0.0167214 0.0469869 0.00796123 0.00760593 -0.00921733 -0.0278727 -0.0204653 -0.0036255 0.00346027 0.0112133 -0.00475557 0.00208317 0.00449568 0.00298859 0.0201458 -0.0279901 0.0455541 -0.0269657 0.0309325 0.0205117 -0.00575056 -0.0166974 -0.0334138 -0.00723686 0.0155194 -0.00784271 0.0167378
internal_weight=5634.2 2782.49 2851.71 2383.43 367.593 2414.9 468.289 1425.07 958.351 634.244 1083.96 702.73 508.315 262.401 1629.38 1481.39 153.912 785.518 480.332 92.5801 341.112 170.595 131.943 297.694 381.233 137.498 243.735 473.358 256.413 692.937
internal_count=24410 11694 12716 10749 1749 9945 1967 6312 4437 2865 4728 3023 2168 1139 6742 6107 661 3203 2204 404 1584 701 534 1266 1705 668 1037 1940 1113 2799
is_linear=0
shrinkage=0.05


Tree=18
num_leaves=31
num_cat=0
split_feature=33 28 31 31 11 16 35 38 24 3 2 34 34 35 28 11 8 35 8 26 38 8 33 1 33 28 28 38 31 39
split_gain=296.365 175.263 94.8102 68.0079 61.2812 50.4285 46.2 71.3531 42.6462 40.3632 54.5774 35.5648 40.4815 33.1034 30.9669 43.2163 30.6557 30.6087 29.4449 28.424 27.5449 26.1833 26.1383 26.1062 25.3818 25.3736 23.644 22.7057 27.529 24.7809
threshold=0.48200041055679327 1.2509842514991762 5.5716896057128915 3.0214917659759526 0.9574275314807893 87.497306823730483 6.307281732559205 25.500000000000004 4.3667972087860116 84.555599212646499 1.0000000180025095e-35 3.333800315856934 -1.9754664897918699 3.0217937231063847 1.6195238232612612 0.090652287006378188 0.84474328160285961 8.5406689643859881 0.45456734299659735 2.7250000238418584 19.500000000000004 1.2574322223663332 0.19162077456712726 1.4476850997397863 0.25323383510112768 1.6342373490333559 1.4845187664031985 52.500000000000007 3.7981889247894292 1964.8529052734377
decision_type=2 2 2 2 2 2 2 2 2 2 2 2 2 2 2 2 2 2 2 2 2 2 2 2 2 2 2 2 2 2
left_child=1 5 6 -2 9 18 7 8 11 14 -11 12 -3 -7 15 -4 -14 -5 -1 -16 25 -19 26 -24 -6 -8 -9 28 -20 -29
right_child=3 2 4 17 24 13 20 22 -10 10 -12 -13 16 -15 19 -17 -18 21 27 -21 -22 -23 23 -25 -26 -27 -28 29 -30 -31
leaf_value=0.0018285006039981358 -0.017761782485275591 -0.013368489090927197 -0.035741958592951796 0.060723483088681522 -0.0046764770911797244 -0.009386659578242959 -0.004343298216395888 0.0051385516034067359 0.058468028457146951 0.049130439186585502 -0.045935721642217035 -0.038492989271402205 0.014694365212830646 0.051904646380173586 -0.01737684903813029 0.01138515289209175 0.050210361237349788 -0.045325591230049825 0.015333822287131166 -0.041196213723234898 -0.0091002120345356902 0.061184756463707447 0.027770414536536475 -0.0051254564914426691 0.046072565099233881 -0.046066468026831918 -0.0096987776389584768 0.016036931261410824 0.053937242397458444 -0.024104462055882146
leaf_weight=530.72015483677387 35.398156061768532 88.927878051996231 93.641639813780785 253.74735771119595 63.089747622609138 26.582292184233665 55.071014568209648 338.94688431918621 55.820497408509254 39.222666725516319 24.373982325196266 32.128074333071709 209.26004184782505 124.15989635884762 177.95598624646664 100.826594799757 85.993694469332695 13.214338004589083 104.89338085055351 431.54423713684082 621.1531123071909 10.081210866570471 118.48968414962292 122.2520664781332 40.150850191712379 109.36601561307907 1283.9409233182669 289.71854361891747 83.272031873464584 44.149743273854256
leaf_count=2184 150 370 441 1276 278 110 234 1403 231 163 113 139 857 557 844 444 352 57 423 2119 2724 44 505 521 185 484 5478 1197 339 188
internal_value=3.51691e-05 -0.00275621 -0.00768989 0.0473488 -0.0213367 0.0140145 -0.00344329 8.25407e-05 0.017445 -0.0256722 0.0126021 0.0119197 0.0161575 0.0410642 -0.0287073 -0.0112888 0.025069 0.0556895 0.010133 -0.0342539 -0.0139315 0.000617838 -0.00431406 0.0110495 0.0150372 -0.0321346 -0.00659673 0.0185642 0.0324638 0.0107082
internal_weight=5608.09 5295.65 4092.16 312.441 970.806 1203.5 3121.35 2335.76 472.13 867.565 63.5966 416.31 384.182 150.742 803.968 194.468 295.254 277.043 1052.75 609.5 785.59 23.2955 1863.63 240.742 103.241 164.437 1622.89 522.034 188.165 333.868
internal_count=24410 22883 17885 1527 4587 4998 13298 9856 1949 4124 276 1718 1579 667 3848 885 1209 1377 4331 2963 3442 101 7907 1026 463 718 6881 2147 762 1385
is_linear=0
shrinkage=0.05


Tree=19
num_leaves=31
num_cat=0
split_feature=29 8 15 29 33 16 39 3 7 16 29 34 8 34 8 36 30 29 1 15 7 15 2 16 3 34 15 15 36 8
split_gain=331.27 146.145 93.2054 82.8153 80.199 70.1097 52.9254 33.1211 31.2741 27.9468 25.2688 23.1248 22.1128 21.9654 21.8753 19.9376 19.6282 17.9905 17.7666 25.1449 17.6795 16.4512 15.0296 33.8491 33.2589 15.3389 14.9971 14.9215 14.6246 14.1736
threshold=2.3042978048324589 2.5927989482879643 344.99504089355474 6.6907055377960214 0.24837801605463031 82.018550872802749 1351.7769775390627 41.272912979125984 2.9946105496551434 44.098253250122077 0.95731347799301159 2.736203789710999 0.81913796067237865 -2.6822012662887569 0.33978536725044256 1.1589662432670595 1.0000000180025095e-35 4.3652982711792001 0.40903185827253524 253.41999816894534 -0.13410376262795809 64.554161071777358 1.0000000180025095e-35 74.880500793457045 81.77988433837892 -4.1889853477478018 51.852264404296882 206.54915618896487 0.7845091223716737 2.658581137657166
decision_type=2 2 2 2 2 2 2 2 2 2 2 2 2 2 2 2 2 2 2 2 2 2 2 2 2 2 2 2 2 2
left_child=1 2 8 4 16 -4 9 -6 10 -5 12 13 15 -3 -12 18 17 26 -1 22 -18 -10 24 -24 25 -20 -2 -25 -13 -28
right_child=3 11 5 6 7 -7 -8 -9 21 -11 14 28 -14 -15 -16 -17 20 -19 19 -21 -22 -23 23 27 -26 -27 29 -29 -30 -31
leaf_value=-0.017819988292799432 -0.018215270659087273 -0.00018172753437824404 0.015582148916085418 -0.01187289444569337 0.0076925692515160977 0.064659746449551761 -0.031308973241433495 0.046095413008800129 -0.050832856652113595 0.031886383404291792 -0.0093100227118953598 0.052423882531870261 0.028978360590168874 0.065010849441543547 0.0076036117267731162 0.047616034566120631 0.033674563630121307 -0.014515952289547171 -0.067392528529454265 0.04449607954214721 -0.011198433273826136 -0.0064051320168059577 0.0059841514892326822 -0.06961638837098176 0.067205194179193406 0.010888135792696227 -0.003882201772244174 0.0065235790047858235 -0.053854107645498209 0.028283217649440147
leaf_weight=62.274130597710609 185.69711497426033 13.794476285576819 168.94639109075069 271.64390625059605 146.29996508359909 128.31790162622929 606.61190336942673 91.466037943959236 31.78559410572052 42.005996659398079 273.39418607950211 5.5196837782859784 204.0634837448597 173.39631581306458 634.05739209055901 32.332122147083282 52.077671363949776 876.38767786324024 6.398375764489173 48.791878968477249 37.603491708636284 61.156608507037163 161.95322301983833 24.243491753935814 27.422020569443703 160.78114268183708 1005.1089054644108 8.5672191828489286 7.4962301105260849 35.328402608633041
leaf_count=256 790 57 698 1245 615 640 2917 406 132 185 1123 26 840 867 2602 133 227 3926 27 218 164 263 664 102 112 656 4302 38 31 148
internal_value=3.33824e-05 0.014944 0.0109283 -0.00991105 -0.00507022 0.0367986 -0.022686 0.0224999 0.0064968 -0.00598814 0.00809437 0.0557003 0.0149738 0.0601824 0.00250195 0.00959578 -0.00806364 -0.00904242 0.00712034 0.0106797 0.014812 -0.0216912 0.00641896 -0.00337884 0.0162473 0.00782375 -0.00512523 -0.0496241 -0.00834731 -0.0027826
internal_weight=5584.92 2234.69 2034.49 3350.23 2429.97 297.264 920.262 237.766 1737.22 313.65 1644.28 200.207 736.827 187.191 907.452 532.764 2192.2 2102.52 500.431 438.157 89.6812 92.9422 389.365 194.764 194.602 167.18 1226.13 32.8107 13.0159 1040.44
internal_count=24410 9485 8504 14925 10578 1338 4347 1021 7166 1430 6771 981 3046 924 3725 2206 9557 9166 2073 1817 391 395 1599 804 795 683 5240 140 57 4450
is_linear=0
shrinkage=0.05


Tree=20
num_leaves=31
num_cat=0
split_feature=29 33 16 29 31 31 33 3 2 3 38 31 35 38 34 16 21 1 1 35 29 1 7 38 34 32 34 31 38 1
split_gain=315.862 143.085 84.2577 69.731 60.5072 45.0453 41.0172 31.5487 63.4563 29.6359 28.0035 27.2905 47.4399 27.952 28.1662 26.6641 27.3293 24.3501 23.4599 21.9034 21.5733 21.4418 19.9517 19.877 32.3118 23.8538 29.9359 18.701 19.0483 18.5737
threshold=2.650039911270142 0.30818596482276922 126.55023193359376 6.0076489448547372 3.0882208347320561 3.648666620254517 0.19877532869577411 84.555599212646499 1.0000000180025095e-35 74.63965225219728 51.500000000000007 2.9114540815353398 4.3516001701354989 44.500000000000007 3.0800255537033085 71.102470397949233 0.0038840211927890782 0.88893480016384951 0.55648162829889602 9.1775035858154315 22.13749980926514 2.382566118024116 -1.5824734930216475 29.500000000000004 -4.4463846683502188 -0.017640864476561543 -0.43179133534431452 5.8076336383819589 47.500000000000007 0.8961003882704911
decision_type=2 2 2 2 2 2 2 2 2 2 2 2 2 2 2 2 2 2 2 2 2 2 2 2 2 2 2 2 2 2
left_child=1 7 3 6 21 18 10 11 15 -4 29 -1 -13 14 -14 16 -9 -8 -5 -6 23 -3 -12 24 -7 26 -26 -15 -29 -2
right_child=2 4 9 5 19 20 17 8 -10 -11 22 12 13 27 -16 -17 -18 -19 -20 -21 -22 -23 -24 -25 25 -27 -28 28 -30 -31
leaf_value=-0.0019199588833730458 -0.00175091913949855 0.055624316486793418 -0.00088599794736072483 0.011618583034163115 0.057232815212775616 -0.043987191117429159 0.042612028884293648 -0.06120406814754667 -0.025430153975749256 0.061172356902013926 0.040350874391782615 0.026891483826220076 0.0026027121370848544 0.022317794230659896 -0.029028399213921842 0.058719914401282693 0.032601829576741535 0.00410747742585932 -0.017398909273499678 0.0027624875923145829 0.026213376772315534 -0.018888039582810462 -0.022593537558176079 -0.035814377775053988 0.0029866470673763439 -0.018266851250553617 0.1037809405951397 0.044268734890333492 -0.01904822253965243 -0.01588828308816171
leaf_weight=675.6624905616045 837.4614993929863 12.138481274247168 30.079874038696289 118.66803032159805 252.9879175722599 95.857935726642609 50.777428492903709 9.8173547238111478 42.80316498875618 52.496011942625046 12.840538799762724 327.99308559298515 522.70530506968498 269.34069411456585 81.204475685954094 96.792472958564758 35.411560162901878 215.0221935659647 167.98620262742043 20.127587184309959 17.546048372983932 45.513107180595398 413.58806000649929 497.25084707140923 42.812474295496941 169.78589437901974 8.8283857554197294 14.785619646310804 58.344716534018517 321.98583537340164
leaf_count=2758 3644 51 128 515 1339 476 211 40 181 246 56 1344 2155 1095 351 432 145 917 739 90 80 195 1841 2451 193 805 39 61 240 1402
internal_value=-0.000492067 0.0128174 -0.0112427 -0.0126293 0.0434163 -0.0224866 -0.00667025 0.00807242 0.0278181 0.0385322 -0.00971856 0.00619704 0.0105043 0.00481742 -0.00164638 0.0439081 0.01204 0.0114953 -0.00536906 0.0532393 -0.0283762 -0.00304381 -0.0206774 -0.0295614 -0.0197377 -0.00920214 0.0204821 0.0162274 -0.00613544 -0.0056823
internal_weight=5518.62 2465.63 3052.99 2970.41 330.767 1118.74 1851.68 2134.86 184.825 82.5759 1585.88 1950.04 1274.37 946.381 603.91 142.021 45.2289 265.8 286.654 273.116 832.082 57.6516 426.429 814.536 317.285 221.427 51.6409 342.471 73.1303 1159.45
internal_count=24220 10477 13743 13369 1675 5298 8071 8802 798 374 6943 8004 5246 3902 2506 617 185 1128 1254 1429 4044 246 1897 3964 1513 1037 232 1396 301 5046
is_linear=0
shrinkage=0.05


Tree=21
num_leaves=31
num_cat=0
split_feature=29 8 28 16 31 31 16 8 31 29 2 39 1 11 1 7 34 28 38 29 33 39 34 38 35 34 34 34 28 31
split_gain=286.499 136.92 93.2608 76.818 66.8462 64.0151 47.8756 42.9171 40.1421 33.9055 31.7898 29.9066 29.1237 25.7924 23.4953 27.3097 23.411 22.9298 22.599 21.2317 26.1166 20.8288 27.1721 20.6572 25.48 22.2675 20.2046 21.1035 19.9405 25.4964
threshold=2.650039911270142 2.5927989482879643 1.4248893857002261 126.55023193359376 4.9437518119812021 3.2531287670135502 85.023303985595717 3.1367582082748418 12.51772451400757 6.0076489448547372 1.0000000180025095e-35 2367.304077148438 0.19812873285987376 0.24911347776651385 0.35898161528001843 2.1956344434639559 2.9690225124359135 2.0459830760955815 21.500000000000004 7.3376283645629892 0.19877532869577411 1282.190612792969 0.12914083898067477 27.500000000000004 5.3112297058105478 -6.3101999759674063 2.736203789710999 -2.743648767471313 1.7039645314216616 3.2144814729690556
decision_type=2 2 2 2 2 2 2 2 2 2 2 2 2 2 2 2 2 2 2 2 2 2 2 2 2 2 2 2 2 2
left_child=1 2 5 4 12 14 18 8 9 -6 -10 -5 -2 21 -1 -16 28 -9 -7 20 23 22 -4 24 -14 -25 27 -3 29 -15
right_child=3 26 13 11 7 6 -8 17 10 -11 -12 -13 19 16 15 -17 -18 -19 -20 -21 -22 -23 -24 25 -26 -27 -28 -29 -30 -31
leaf_value=-0.032529255865741964 0.031018337023151141 -0.0029274618382829896 0.028846961065411972 0.052983011458540702 -0.018927123363907439 0.070423245422950503 0.059287695077456848 0.065219196451543601 0.03791326755522631 -0.038371790933834055 -0.028919167332328695 -0.020379948475078704 0.017325867563615038 0.0056404159235472866 0.014294303278872891 -0.024567253630609898 -0.030377722251575756 -0.00093962838451487314 0.020888671358408672 -0.019418446540839233 0.011740690340832395 -0.011241482398421323 -0.016294892608629596 0.052096311070592288 -0.0075715733912061906 -0.013050556069280059 -0.0080600575928709249 0.061076586289758233 0.0049255503658727244 0.051416676523612641
leaf_weight=36.531400918960571 50.534300893545151 13.754275396466253 81.853174611926079 63.942267343401909 479.73672203719616 24.401094004511833 120.13917198777199 15.427793204784392 43.118402987718582 424.04059310257435 30.084963440895081 17.568906292319298 157.81260277330875 62.85434202849865 350.43835961818695 51.728285118937492 37.898158550262451 82.761453554034233 418.01644279062748 306.49225290119648 202.0683768093586 548.52802394330502 55.96118600666523 13.194757536053656 293.98618465662003 857.15127301216125 12.885960683226584 171.42039112746716 410.79727241396904 59.398796766996384
leaf_count=147 217 57 341 300 2236 99 638 68 194 2221 153 74 650 255 1442 219 163 375 1707 1377 844 2290 235 56 1255 3723 57 888 1693 246
internal_value=-0.000468977 0.0122264 0.00872691 -0.0107368 -0.0120587 0.0201116 0.0312767 -0.0220052 -0.0251733 -0.0280591 0.0103764 0.0371035 -0.0063705 -0.000336321 0.00577904 0.00927848 0.0075106 0.00946036 0.0236473 -0.00740694 -0.00498725 -0.00687138 0.0104818 -0.00754831 0.00111591 -0.0120513 0.0520823 0.0562965 0.0102189 0.0279463
internal_weight=5494.53 2456.61 2258.55 3037.92 2956.41 1001.25 562.557 1075.17 976.981 903.777 73.2034 81.5112 1881.24 1257.29 438.698 402.167 570.949 98.1892 442.418 1830.71 1524.21 686.342 137.814 1322.14 451.799 870.346 198.061 185.175 533.05 122.253
internal_count=24220 10477 9475 13743 13369 4252 2444 5247 4804 4457 347 374 8122 5223 1808 1661 2357 443 1806 7905 6528 2866 576 5684 1905 3779 1002 945 2194 501
is_linear=0
shrinkage=0.05


Tree=22
num_leaves=31
num_cat=0
split_feature=29 8 16 31 3 26 33 2 24 31 29 16 39 7 1 2 19 1 21 38 35 8 29 12 29 38 31 34 34 12
split_gain=259.954 127.859 70.0354 61.8287 47.3353 50.3394 43.9975 41.8466 39.0361 38.1882 41.5331 32.7081 27.5249 27.0061 26.8686 25.8657 25.4153 25.2533 25.7026 23.9347 29.1243 22.7296 22.4824 19.7916 22.5303 25.417 29.6087 21.3152 19.7605 19.1056
threshold=2.650039911270142 2.5927989482879643 126.55023193359376 4.7766129970550546 67.024242401123061 12.605000019073488 0.40420421957969671 1.0000000180025095e-35 3.0405042171478276 12.51772451400757 5.2706151008605966 37.406105041503913 2367.304077148438 2.9946105496551434 0.21877203100133319 1.0000000180025095e-35 0.11053675785660745 0.44233378208199925 0.0038230981444939975 29.500000000000004 7.5960354804992685 4.4769163131713876 8.028508663177492 -0.74278135270908097 0.92940384149551403 41.500000000000007 2.4980077743530278 -2.5109536647796626 -5.3497889041900626 -0.41653915416335491
decision_type=2 2 2 2 2 2 2 2 2 2 2 2 2 2 2 2 2 2 2 2 2 2 2 2 2 2 2 2 2 2
left_child=1 4 3 14 13 7 9 17 -7 10 -5 -9 -4 23 -2 28 -10 18 -6 20 -12 -22 -8 -1 25 -25 -27 -28 -11 -16
right_child=2 -3 12 6 5 8 22 11 16 15 19 -13 -14 -15 29 -17 -18 -19 -20 -21 21 -23 -24 24 -26 26 27 -29 -30 -31
leaf_value=-0.0025208735894085427 0.024457160582824156 0.050656208757853184 0.051155225425684674 -0.013685208287025781 -0.072851874609168324 0.00038791355492928691 0.050103354327465599 0.0060052130564229832 0.017045618427922106 -0.028631044001919195 0.0040006944771941748 -0.052947754809473502 -0.019439869208516231 -0.025383854503001464 -0.012615976987093852 -0.023780957101582154 0.057889457494609879 0.051462139226952752 0.020267801388795088 -0.041687258139838812 -0.039836088838805232 0.03811952359346206 -0.024444601133569138 0.008253890414497058 0.0043746150899405794 0.0031723405204622276 -0.0034759947874730157 0.055166345753966353 0.051870677735886578 -0.0020040893584661042
leaf_weight=492.09814570844173 70.954210564494133 193.58177971839905 62.944772839546204 456.02269278466702 9.5829488039016706 56.537352979183197 32.330065667629242 52.833512872457504 51.660437673330307 9.4656790494918805 76.963148683309555 42.103493303060532 17.504103899002075 71.398200154304504 789.4336318820715 30.948097318410873 150.28636580705643 49.327069580554962 31.440166831016541 365.39254063367844 129.82983829081059 9.9326630085706693 14.52262209355831 254.31299650669098 810.19994211196899 57.874704584479332 17.958434090018272 105.58826911449432 36.597750023007393 919.46455599367619
leaf_count=2020 303 1002 300 2086 39 242 138 220 217 44 376 178 74 305 3405 159 792 201 129 1923 687 44 67 1047 3335 235 74 441 161 3976
internal_value=-0.000447124 0.0116669 -0.010256 -0.0115164 0.00831285 0.0229476 -0.0204886 0.00302474 0.0372028 -0.0224858 -0.0250074 -0.0201154 0.035728 0.00471976 -0.00565512 0.011429 0.0474795 0.0273902 -0.00148751 -0.0338645 -0.0206394 -0.0342369 0.0268869 0.00596068 0.00931453 0.0184852 0.0327872 0.0466059 0.0351937 -0.00690968
internal_weight=5469.09 2446.78 3022.31 2941.86 2253.2 443.771 1162.01 185.287 258.484 1115.15 1038.14 94.937 80.4489 1809.43 1779.85 77.0115 201.947 90.3502 41.0231 582.118 216.726 139.763 46.8527 1738.03 1245.93 435.734 181.421 123.547 46.0634 1708.9
internal_count=24220 10477 13743 13369 9475 2018 5685 767 1251 5480 5116 398 374 7457 7684 364 1009 369 168 3030 1107 731 205 7152 5132 1797 750 515 205 7381
is_linear=0
shrinkage=0.05


Tree=23
num_leaves=31
num_cat=0
split_feature=29 33 16 29 31 28 8 31 8 31 28 28 8 29 31 2 16 16 35 31 1 11 11 11 35 35 31 35 1 17
split_gain=235.813 120.386 63.8641 57.6822 52.2311 46.2891 38.1249 38.0058 36.1013 30.0767 27.2023 25.3228 34.0415 24.0307 22.3989 22.3368 47.3778 35.7283 21.2721 20.9363 20.7849 20.7364 20.0699 20.0514 35.2791 19.6401 19.2563 20.5173 18.8924 18.0625
threshold=2.650039911270142 0.30818596482276922 126.55023193359376 6.0076489448547372 3.0882208347320561 1.6342373490333559 1.7821906805038454 3.648666620254517 4.29020118713379 2.9792517423629765 1.2862395048141482 1.6653333306312563 1.6933251023292544 0.92940384149551403 4.4637451171875009 1.0000000180025095e-35 126.55023193359376 119.1574172973633 9.1775035858154315 11.541790008544924 0.55648162829889602 0.59999999403953563 0.069098144769668593 0.20670914649963382 3.7103350162506108 7.1275994777679452 9.3380513191223162 4.684584617614747 2.382566118024116 33.635000228881843
decision_type=2 2 2 2 2 2 2 2 2 2 2 2 2 2 2 2 2 2 2 2 2 2 2 2 2 2 2 2 2 2
left_child=1 5 3 8 28 9 15 20 11 -1 -9 12 22 -11 -13 16 26 -17 -6 21 -5 -16 -2 -15 -25 -8 27 -7 -3 -24
right_child=2 4 -4 7 18 6 25 10 -10 13 -12 14 -14 23 19 17 -18 -19 -20 -21 -22 -23 29 24 -26 -27 -28 -29 -30 -31
leaf_value=0.0031124588771463124 -0.012420417244604092 0.052492738378673867 0.034414894985352003 0.011567711932667197 0.054114846986977806 0.0047992940194161371 0.029629499788881738 -0.0050428481301643523 0.051689989075879877 0.032155088307198577 -0.029770125682915621 -0.0054466134684612129 0.035309638173545113 0.0088490578348902459 -0.030174486234979522 -0.010596463940903382 0.056876384663618766 -0.078473717486479258 0 0.023092768906045127 -0.015807131630059441 -0.0010695813357176262 0.0045999032719251593 -0.04038266389935613 0.054985380958886367 -0.015771876541165752 0.049877816643693763 -0.018882610038519852 -0.017854303583981036 -0.076411590399129523
leaf_weight=426.90811896324158 339.48385202884674 11.98938927054405 79.374736040830612 118.61852510273457 233.99182991683483 219.46026059985161 129.45920723676682 133.96226121485233 26.986417502164841 256.93952664732933 671.34942544996738 525.78591312468052 61.937896266579628 401.84756158292294 296.00832214951515 366.96541160345078 36.360724121332169 20.406922355294228 19.67533116042614 24.842879116535187 166.28812277317047 77.604696422815323 477.91778948903084 11.606068149209021 55.539552181959152 28.96423701941967 16.557363674044609 156.40654772520065 45.100549980998039 6.8758810162544242
leaf_count=1749 1475 51 374 515 1339 900 538 597 114 1080 3447 2262 259 1644 1426 1540 149 88 90 111 739 342 2053 47 226 119 69 653 195 29
internal_value=-0.000426453 0.0111277 -0.00979655 -0.0109981 0.0401957 0.00687761 -0.00113925 -0.0201106 -0.00558771 0.0136587 -0.0256641 -0.00644706 -0.000402159 0.0198526 -0.0122372 -0.00550167 0.00235044 -0.0142045 0.049918 -0.0211815 -0.00439224 -0.0241443 -0.00309564 0.0130965 0.0383912 0.0212926 -0.00270222 -0.00504438 -0.00292742 0.00342508
internal_weight=5445.22 2438.18 3007.04 2927.66 310.757 2127.42 974.581 1090.22 1837.44 1152.84 805.312 1810.46 886.215 725.933 924.242 816.157 428.785 387.372 253.667 398.456 284.907 373.613 824.278 468.993 67.1456 158.423 392.424 375.867 57.0899 484.794
internal_count=24220 10477 13743 13369 1675 8802 4056 5298 8071 4746 4044 7957 3816 2997 4141 3399 1771 1628 1429 1879 1254 1768 3557 1917 273 657 1622 1553 246 2082
is_linear=0
shrinkage=0.05


Tree=24
num_leaves=31
num_cat=0
split_feature=29 33 29 32 8 39 8 15 6 16 33 39 29 8 35 7 20 15 35 16 25 9 15 37 7 9 34 37 15 35
split_gain=215.992 95.3634 78.7426 47.7987 40.7767 39.4425 35.687 28.2001 26.1937 25.7611 23.4974 23.3749 22.998 24.8194 20.5116 19.5975 19.1508 18.0154 20.6908 18.2124 18.0145 18.0061 17.8711 16.757 16.3378 16.2513 15.8395 16.0555 15.737 22.8045
threshold=1.6828406453132632 0.57398954033851635 5.2706151008605966 -0.10157032683491705 3.0691885948181157 1348.0101318359377 1.7505345940589907 241.79354095458987 8.6676301956176776 98.166500091552749 0.25323383510112768 1371.1757812500002 8.5585374832153338 4.1064496040344247 8.0845947265625018 4.3534358589441382 1.0000000180025095e-35 417.87519836425787 7.0648882389068612 53.58343696594239 0.97619047619047628 0.31009615384615391 272.86346435546881 -0.1175473816692829 -0.9195218901612251 0.65833333333333344 5.0864675045013437 -0.40985223650932306 524.98736572265636 8.9461641311645526
decision_type=2 2 2 2 2 2 2 2 2 2 2 2 2 2 2 2 2 2 2 2 2 2 2 2 2 2 2 2 2 2
left_child=1 3 4 7 10 9 8 15 17 -4 26 22 13 20 25 16 -1 18 21 23 28 -5 -12 24 -19 -8 27 -2 -7 -30
right_child=2 -3 5 6 -6 12 14 -9 -10 -11 11 -13 -14 -15 -16 -17 -18 19 -20 -21 -22 -23 -24 -25 -26 -27 -28 -29 29 -31
leaf_value=0.031303464297422638 -0.013329247307492985 0.052188025306178304 -0.0071097812573606397 -0.0053053982283285507 0.029267157020718134 -0.022587198026137296 -0.023126327766061067 0.04798624754075341 -0.039636450039192361 0.044534775438423616 0.012152506151055176 -0.0014417079941477706 -0.034578731417777613 0.030905588426984806 -0.02495111429728001 -0.04438765195341704 0.003227317228971092 0.045237279090821481 -0.016880130411614763 0.061114487161139056 0.01463870880782444 0.010669365266073349 0.060300608950312674 0.039615338786840044 -0.040505988198675617 0.047318333794950707 -0.026813079493079761 -0.0014197369785945504 0.099437818563485991 -0.01265250439496339
leaf_weight=158.17391899228096 342.02276691794395 153.24805711209774 430.02310977876186 267.06192110478878 103.42197994887829 611.63748951256275 8.8709334284067136 106.79029294848442 35.11848147213459 25.465804636478424 40.920841500163078 98.839978069067001 266.71982042491436 25.581605583429337 13.369104221463202 12.048749923706053 99.285210818052292 7.5432484000921276 122.21282556653023 26.261531010270119 37.07989028096199 517.43441462516785 36.984046041965485 25.013252109289169 19.987602606415749 87.603968963027 75.431383594870567 1645.7929644733667 6.3707927018404034 14.941114977002142
leaf_count=660 1471 929 1997 1098 451 2966 36 501 151 126 173 417 1378 115 57 51 410 31 513 126 168 2131 180 103 82 404 331 7066 30 68
internal_value=-0.00040691 0.0146143 -0.00703806 0.0107863 -0.00140829 -0.0163388 0.00564161 0.026223 0.0027204 -0.00420228 -0.00282808 0.0146572 -0.022077 -0.017272 0.0327118 0.0175663 0.0205012 0.00423871 0.0022383 0.0271594 -0.0191232 0.00522481 0.0351221 0.0100099 -0.0167533 0.0407719 -0.00432899 -0.00347197 -0.021111 0.0209292
internal_weight=5421.26 1660.02 3761.23 1506.78 2343.41 1417.82 1130.48 376.298 1020.63 455.489 2239.99 176.745 962.331 695.611 109.844 269.508 257.459 985.515 906.709 78.8056 670.029 784.496 77.9049 52.5441 27.5309 96.4749 2063.25 1987.82 632.949 21.3119
internal_count=24220 7283 16937 6354 10089 6848 4732 1622 4235 2123 9638 770 4725 3347 497 1121 1070 4084 3742 342 3232 3229 353 216 113 440 8868 8537 3064 98
is_linear=0
shrinkage=0.05


Tree=25
num_leaves=31
num_cat=0
split_feature=29 8 28 39 35 29 19 39 19 35 3 8 28 38 28 34 34 12 28 38 35 8 25 39 34 35 3 24 34 30
split_gain=219.446 104.799 68.5059 67.2841 56.3684 45.0968 42.2211 36.3756 34.2762 32.5671 30.6983 30.372 30.6435 25.5268 37.4167 32.765 23.7922 23.6756 30.7147 25.4262 34.2688 33.681 22.4168 20.6053 19.8044 19.7398 18.8143 18.6055 17.9006 17.4031
threshold=2.7113680839538579 2.5927989482879643 1.1633936762809756 1606.1386718750002 2.9593276977539067 9.0730433464050311 0.34555953741073614 1506.5464477539065 0.078520383685827269 7.0648882389068612 59.485116958618171 0.25693413615226751 1.5153882503509524 28.500000000000004 1.4919334053993227 -3.5604646205902095 4.3752684593200692 -0.39574194745459246 1.5387620329856875 28.500000000000004 6.8381006717681894 4.1064496040344247 0.59411764705882364 3381.856323242188 -2.5677741765975948 8.0845947265625018 84.555599212646499 4.7158555984497079 3.4732546806335454 1.0000000180025095e-35
decision_type=2 2 2 2 2 2 2 2 2 2 2 2 2 2 2 2 2 2 2 2 2 2 2 2 2 2 2 2 2 2
left_child=1 2 4 6 -1 17 13 8 -6 11 -8 26 -13 15 22 -2 24 -5 23 20 27 29 -15 -19 -3 -9 -4 -20 -17 -21
right_child=3 16 9 5 7 -7 10 25 -10 -11 -12 12 -14 14 -16 28 -18 18 19 21 -22 -23 -24 -25 -26 -27 -28 -29 -30 -31
leaf_value=-0.015245868617013568 -0.019202025306870246 -0.0023347711108688486 -0.010811371957360717 -0.019954799924835519 0.01754681216441591 -0.040176793524107871 0.0046878463689703012 0.024266960004282058 0.055316614322587845 -0.013082744119139829 0.054382089654806821 0.021173376768997849 0.004315248670039744 0.025459072496307772 -0.017363415842321317 0.024095972610178634 -0.046813237379132178 0.011995163447818395 0.009137232224419695 -0.034527244024091255 -0.021052455100804501 0.040056585766416124 -0.003587430942642621 -0.045627597116353391 0.055652042767214985 -0.011646487353112288 0.026262189855136994 0.080313290528982409 -0.0010928071284616225 0.010602334567222054
leaf_weight=77.69686983525753 92.274392411112785 15.98276564478874 310.54449401795864 662.70140968263149 91.647916659712791 171.44952280819416 70.509260267019272 126.9743278324604 177.4673182964325 252.72352597117424 55.846024602651596 407.86848789453506 797.84860363602638 90.821756958961487 494.05348114669323 190.93542848527431 6.3810435086488715 220.14532913267612 129.76389165222645 215.01071424782276 135.42243705689907 18.307898640632629 245.76753342151642 16.564486563205719 164.37628011405468 54.461358428001404 38.300544902682304 9.8171508908271772 111.21909779310226 23.490223541855812
leaf_count=322 435 67 1283 3084 375 908 304 533 929 1069 283 1679 3313 392 2334 806 29 962 563 1045 656 81 1056 73 930 222 167 42 514 106
internal_value=0.00024066 0.0110732 0.00818761 -0.00900677 0.0240268 -0.0159359 -0.000785198 0.0308122 0.0424839 0.00355418 0.0267167 0.00626272 0.0100234 -0.0036278 -0.00860368 0.00683792 0.0471124 -0.0130259 -0.00704273 -0.0137141 -0.00312611 -0.0250272 0.00424056 0.00792416 0.0504873 0.0134588 -0.00672029 0.014233 0.0148105 -0.0300588
internal_weight=5476.37 2522.27 2335.53 2954.1 528.248 1602.67 1351.43 450.551 269.115 1807.29 126.355 1554.56 1205.72 1225.07 830.643 394.429 186.74 1431.22 768.522 531.812 275.003 256.809 336.589 236.71 180.359 181.436 348.845 139.581 302.155 238.501
internal_count=24562 10918 9892 13644 2381 7520 6124 2059 1304 7511 587 6442 4992 5537 3782 1755 1026 6612 3528 2493 1261 1232 1448 1035 997 755 1450 605 1320 1151
is_linear=0
shrinkage=0.05


Tree=26
num_leaves=31
num_cat=0
split_feature=16 28 3 11 31 11 28 24 8 31 38 8 38 38 39 24 35 34 8 28 31 34 38 15 37 28 31 28 11 31
split_gain=151.698 77.4188 68.3806 65.4113 90.443 55.4428 55.4223 41.302 61.4497 37.0425 44.2382 34.382 33.8294 32.1288 31.1241 32.8028 28.9431 27.9738 25.4243 28.9259 34.6989 25.2629 25.1646 23.0926 19.5445 19.7063 19.4496 19.3312 19.8071 19.0451
threshold=85.023303985595717 1.5013966560363772 64.395797729492202 0.53333333134651195 4.5203840732574472 0.10538387298583986 1.1255630850791933 3.0405042171478276 2.4129351377487187 3.7801311016082768 52.500000000000007 2.0915734767913823 44.500000000000007 55.500000000000007 1758.6848754882815 4.0898339748382577 4.9452655315399179 0.10657650604844095 4.29020118713379 1.8891957998275759 1.4533478617668154 -4.4463846683502188 22.500000000000004 1289.0090942382815 -0.029003393836319443 1.3079963326454165 2.558158397674561 1.9004504680633547 0.39547662436962133 5.6001164913177499
decision_type=2 2 2 2 2 2 2 2 2 2 2 2 2 2 2 2 2 2 2 2 2 2 2 2 2 2 2 2 2 2
left_child=1 5 11 4 12 6 13 8 17 -7 -11 -2 21 23 15 -6 -8 -4 19 20 -5 -3 -18 26 -12 -26 -1 28 -14 -15
right_child=2 3 7 18 14 9 16 -9 -10 10 24 -13 27 29 -16 -17 22 -19 -20 -21 -22 -23 -24 -25 25 -27 -28 -29 -30 -31
leaf_value=0.011068414411752275 -0.013480657371946793 -0.028645573524505308 0.018400674036220515 -0.034746375980959171 0.00085595628710589109 0.0052328602080060939 0.00998172753548935 0.051693875385624005 0.058692608522107281 0.044600308715590425 -0.0013533989507069364 0.040951979462873947 -0.016054293752406822 0.0087055926529204571 -0.032573370956049071 -0.025304350953353084 0.014216185759955029 -0.029765331768258348 0.027710424909072374 -0.0025212422208939944 0.048456509391530359 0.004162980032336859 -0.019196525972081994 -0.0083665341189174524 0.059686928776805481 -0.0023247496885784981 0.052648464343750492 -0.032883808488134915 0.021671051957893185 -0.02166445086953522
leaf_weight=42.091749206185341 133.86237953603268 62.930359169840813 73.54820704460144 15.798929765820501 201.67454679310322 403.3447050601244 138.5635591596365 205.6476940959692 64.829374104738235 182.47446900606155 124.03737100958824 36.920149445533752 151.51264998316765 240.63758425414562 477.00413997471333 293.85414752364159 63.166639193892479 50.916765034198761 105.93545131385326 571.77697160840034 58.372717842459679 845.3349040299654 505.82905721664429 31.602869883179665 31.805799514055252 21.142995238304138 87.148133412003517 120.24788379669189 44.974977493286133 65.57479090988636
leaf_count=170 599 282 313 66 946 1659 571 1133 417 770 543 207 689 1008 2420 1473 264 221 512 2526 250 3561 2228 131 135 92 358 534 190 294
internal_value=0.000230049 -0.00260678 0.0247401 -0.00770798 -0.012064 0.0051564 -0.00165605 0.0361694 0.0192589 0.015652 0.0273246 -0.00166695 -0.00302075 0.0117053 -0.0234482 -0.0146493 -0.0104832 -0.00127126 0.0050166 0.00128336 0.0306436 0.00188139 -0.0154766 0.0297946 0.00946978 0.0348731 0.0391641 -0.01709 -0.0073871 0.00218063
internal_weight=5452.56 4886.84 565.725 2949.42 2197.53 1937.42 1174.61 394.942 189.294 762.805 359.461 170.783 1225 467.055 972.533 495.529 707.559 124.465 751.884 645.949 74.1716 908.265 568.996 160.843 176.986 52.9488 129.24 316.736 196.488 306.212
internal_count=24562 21672 2890 13449 10095 8223 5024 2084 951 3199 1540 806 5256 1961 4839 2419 3063 534 3354 2842 316 3843 2492 659 770 227 528 1413 879 1302
is_linear=0
shrinkage=0.05


Tree=27
num_leaves=31
num_cat=0
split_feature=29 33 28 31 31 8 3 2 3 32 31 28 35 8 11 18 16 31 31 28 11 10 11 1 29 28 35 35 24 31
split_gain=192.119 98.7458 59.5749 46.1743 44.0201 56.8726 30.233 56.5783 27.5945 32.6675 25.2236 24.8727 34.6257 30.51 23.7545 28.4527 23.4985 23.1127 22.938 22.2289 40.6492 21.8982 21.7069 20.9854 20.5935 20.4912 19.7835 19.6343 19.417 18.7044
threshold=2.7113680839538579 0.30818596482276922 1.2509842514991762 3.0882208347320561 4.4637451171875009 3.1367582082748418 84.555599212646499 1.0000000180025095e-35 69.684909820556655 0.038490727543830879 8.5683336257934588 1.6008849740028384 5.9073505401611337 1.0311964750289919 0.11437177285552026 6.1499998569488534 142.11914825439456 2.9792517423629765 1.6210721731185915 1.5460605621337893 0.1471490487456322 1.325000047683716 0.093095477670431151 0.30638653450869718 7.4759576320648202 1.1450443863868716 4.8053851127624521 4.6416871547698983 3.0405042171478276 8.3754739761352557
decision_type=2 2 2 2 2 2 2 2 2 2 2 2 2 2 2 2 2 2 2 2 2 2 2 2 2 2 2 2 2 2
left_child=1 6 14 28 23 8 11 -8 19 10 -10 17 13 -13 15 -2 -17 -1 -15 20 27 -11 25 -4 -7 -19 -27 -6 -3 -5
right_child=2 3 4 29 5 24 7 -9 9 21 -12 12 -14 18 -16 16 -18 22 -20 -21 -22 -23 -24 -25 -26 26 -28 -29 -30 -31
leaf_value=0.00048140446371603785 0.023175967692021848 -0.022510833338377407 0.013061886818305075 0.049490915808300923 0.04707590782104687 0.027210921072306882 0.042021182840571152 -0.021851153051641037 -0.0039607939645996083 -0.049461986712582215 0.057756130103449405 -0.0027979502623760744 -0.018194184629175995 -0.011936940258981872 0.025016785969379191 -0.0099265891566866216 0.044468082940054977 0.024364433294316586 0.026242165358331255 -0.0300163560408368 0.024010909522971205 0.061443560287779565 0.025549401919532557 -0.0077453473945885438 -0.01581537640188509 0.023321371893518697 -0.0093615589659416902 -0.031360905589428931 0.039257911970584355 -0.039757567922680509
